{"learner":{"attributes":{"best_iteration":"24","best_ntree_limit":"25","scikit_learn":"{\"use_label_encoder\": false, \"n_estimators\": 25, \"objective\": \"binary:logistic\", \"max_depth\": 5, \"max_leaves\": null, \"max_bin\": null, \"grow_policy\": null, \"learning_rate\": 0.1, \"verbosity\": null, \"booster\": \"gbtree\", \"tree_method\": null, \"gamma\": null, \"min_child_weight\": null, \"max_delta_step\": null, \"subsample\": null, \"sampling_method\": null, \"colsample_bytree\": null, \"colsample_bylevel\": null, \"colsample_bynode\": null, \"reg_alpha\": null, \"reg_lambda\": null, \"scale_pos_weight\": null, \"base_score\": null, \"missing\": NaN, \"num_parallel_tree\": null, \"random_state\": null, \"n_jobs\": null, \"monotone_constraints\": null, \"interaction_constraints\": null, \"importance_type\": null, \"gpu_id\": null, \"validate_parameters\": null, \"predictor\": null, \"enable_categorical\": false, \"max_cat_to_onehot\": null, \"eval_metric\": null, \"early_stopping_rounds\": null, \"callbacks\": null, \"classes_\": [0, 1], \"n_classes_\": 2, \"_estimator_type\": \"classifier\"}"},"feature_names":[],"feature_types":[],"gradient_booster":{"model":{"gbtree_model_param":{"num_parallel_tree":"1","num_trees":"25","size_leaf_vector":"0"},"tree_info":[0,0,0,0,0,0,0,0,0,0,0,0,0,0,0,0,0,0,0,0,0,0,0,0,0],"trees":[{"base_weights":[-0E0,-1.4225352E0,1.4852941E0,-4E-1,-1.4776119E0,-1.6521739E0,1.7470356E0,-8.5714287E-1,4E-1,-1.6923077E0,-1.0679612E0,1.2E0,1.8156682E0,-1.1111112E0,-2.2222222E-1,-1.7714286E0,-6.666667E-1,1.4285715E0,-2.2222222E-1,1.2653061E0,1.9302325E0,-1.3846154E0,-2.4E-1,1.5714285E0,5.4545456E-1,1.5384616E-1,1.5E0],"categories":[],"categories_nodes":[],"categories_segments":[],"categories_sizes":[],"default_left":[1,1,1,1,1,0,1,1,0,0,1,1,1,0,0,0,1,1,0,1,0,0,0,0,0,0,0],"id":0,"left_children":[1,3,5,7,9,-1,11,13,-1,-1,15,17,19,-1,-1,-1,21,23,-1,25,-1,-1,-1,-1,-1,-1,-1],"loss_changes":[2.9369077E2,3.4075317E0,5.8728363E1,2.1714287E0,4.0853424E0,0E0,1.9589233E-1,3.174603E-1,0E0,0E0,6.088213E0,3.5682545E0,9.782257E-1,0E0,0E0,0E0,5.1815386E0,2.467537E-1,0E0,2.9646778E0,0E0,0E0,0E0,0E0,0E0,0E0,0E0],"parents":[2147483647,0,0,1,1,2,2,3,3,4,4,6,6,7,7,10,10,11,11,12,12,16,16,17,17,19,19],"right_children":[2,4,6,8,10,-1,12,14,-1,-1,16,18,20,-1,-1,-1,22,24,-1,26,-1,-1,-1,-1,-1,-1,-1],"split_conditions":[9.133626E-1,5.064944E-1,5E-1,7.030692E-1,8.910697E-1,-1.6521738E-1,5E-1,6.318815E-1,4.0000003E-2,-1.6923077E-1,5E-1,6.940935E-1,9.340972E-1,-1.1111112E-1,-2.2222223E-2,-1.7714286E-1,5.079884E-1,6.8092185E-1,-2.2222223E-2,6.1266637E-1,1.9302325E-1,-1.3846155E-1,-2.4E-2,1.5714286E-1,5.454546E-2,1.5384616E-2,1.5E-1],"split_indices":[1,1,7,2,1,0,5,2,0,0,7,2,1,0,0,0,3,2,0,2,0,0,0,0,0,0,0],"split_type":[0,0,0,0,0,0,0,0,0,0,0,0,0,0,0,0,0,0,0,0,0,0,0,0,0,0,0],"sum_hessian":[1.37E2,7E1,6.7E1,4E0,6.6E1,4.75E0,6.225E1,2.5E0,1.5E0,4.125E1,2.475E1,9E0,5.325E1,1.25E0,1.25E0,7.75E0,1.7E1,7.75E0,1.25E0,1.125E1,4.2E1,5.5E0,1.15E1,6E0,1.75E0,2.25E0,9E0],"tree_param":{"num_deleted":"0","num_feature":"8","num_nodes":"27","size_leaf_vector":"0"}},{"base_weights":[-1.5556008E-3,-1.2961305E0,1.3529472E0,-1.737579E0,-1.1335181E0,-1.5245551E0,1.5934967E0,-1.216698E0,1.3601406E-1,1.1033732E0,1.6546174E0,-2.0122091E-1,-1.2868414E0,6.827314E-1,-6.533863E-1,1.3158743E0,-2.0989144E-1,1.1572598E0,1.7581785E0,-1.0512451E0,4.4830287E-1,-1.4666853E0,-7.839469E-1,1.4446242E0,5.109941E-1,1.4320126E-1,1.3721733E0],"categories":[],"categories_nodes":[],"categories_segments":[],"categories_sizes":[],"default_left":[1,1,1,0,1,0,1,1,1,1,1,1,1,0,0,1,0,1,0,0,0,0,0,0,0,0,0],"id":1,"left_children":[1,3,5,-1,7,-1,9,11,13,15,17,19,21,-1,-1,23,-1,25,-1,-1,-1,-1,-1,-1,-1,-1,-1],"loss_changes":[2.4216458E2,3.0993881E0,4.9144737E1,0E0,5.9186172E0,0E0,5.479431E-2,3.3901978E0,2.2800953E0,3.0561914E0,7.369385E-1,2.9532673E0,3.1675186E0,0E0,0E0,1.6459465E-1,0E0,2.462185E0,0E0,0E0,0E0,0E0,0E0,0E0,0E0,0E0,0E0],"parents":[2147483647,0,0,1,1,2,2,4,4,6,6,7,7,8,8,9,9,10,10,11,11,12,12,15,15,17,17],"right_children":[2,4,6,-1,8,-1,10,12,14,16,18,20,22,-1,-1,24,-1,26,-1,-1,-1,-1,-1,-1,-1,-1,-1],"split_conditions":[9.133626E-1,5E-1,5E-1,-1.737579E-1,9.053714E-1,-1.5245551E-1,5E-1,5.064944E-1,9.081075E-1,6.940935E-1,9.340972E-1,6.318815E-1,8.910697E-1,6.827314E-2,-6.5338634E-2,6.8092185E-1,-2.0989144E-2,6.1266637E-1,1.7581785E-1,-1.0512451E-1,4.483029E-2,-1.4666854E-1,-7.839469E-2,1.4446242E-1,5.109941E-2,1.4320127E-2,1.3721733E-1],"split_indices":[1,7,7,0,1,0,5,1,1,2,1,2,1,0,0,2,0,2,0,0,0,0,0,0,0,0,0],"split_type":[0,0,0,0,0,0,0,0,0,0,0,0,0,0,0,0,0,0,0,0,0,0,0,0,0,0,0],"sum_hessian":[1.3610307E2,6.9613045E1,6.649003E1,1.6132452E1,5.3480595E1,4.7177324E0,6.1772293E1,5.023106E1,3.2495317E0,8.961656E0,5.281064E1,3.4954574E0,4.6735603E1,1.9997119E0,1.2498199E0,7.71181E0,1.2498457E0,1.1199431E1,4.1611206E1,1.2461498E0,2.2493076E0,3.301307E1,1.3722534E1,5.963111E0,1.748699E0,2.2498667E0,8.949564E0],"tree_param":{"num_deleted":"0","num_feature":"8","num_nodes":"27","size_leaf_vector":"0"}},{"base_weights":[-2.064517E-3,-1.1908875E0,1.2487137E0,-1.6085764E0,-1.038549E0,-1.4210591E0,1.4727975E0,-1.1155491E0,1.2317536E-1,1.0216148E0,1.5292991E0,-1.9516724E-1,-1.1794633E0,6.373643E-1,-6.177509E-1,1.2216465E0,-1.982711E-1,1.0662519E0,1.62684E0,-9.978762E-1,4.1755104E-1,-1.3484095E0,-7.138395E-1,1.3405924E0,4.7913763E-1,1.3330312E-1,1.2664542E0],"categories":[],"categories_nodes":[],"categories_segments":[],"categories_sizes":[],"default_left":[1,1,1,0,1,0,1,1,1,1,1,1,1,0,0,1,0,1,0,0,0,0,0,0,0,0,0],"id":2,"left_children":[1,3,5,-1,7,-1,9,11,13,15,17,19,21,-1,-1,23,-1,25,-1,-1,-1,-1,-1,-1,-1,-1,-1],"loss_changes":[2.0188431E2,2.7585983E0,4.1674538E1,0E0,4.952442E0,0E0,6.210327E-3,2.7452621E0,2.0115585E0,2.6482468E0,6.442566E-1,2.6214159E0,2.7424622E0,0E0,0E0,1.1815548E-1,0E0,2.0849257E0,0E0,0E0,0E0,0E0,0E0,0E0,0E0,0E0,0E0],"parents":[2147483647,0,0,1,1,2,2,4,4,6,6,7,7,8,8,9,9,10,10,11,11,12,12,15,15,17,17],"right_children":[2,4,6,-1,8,-1,10,12,14,16,18,20,22,-1,-1,24,-1,26,-1,-1,-1,-1,-1,-1,-1,-1,-1],"split_conditions":[9.133626E-1,5E-1,5E-1,-1.6085765E-1,9.053714E-1,-1.4210592E-1,5E-1,5.064944E-1,9.081075E-1,6.940935E-1,9.340972E-1,6.318815E-1,8.910697E-1,6.373643E-2,-6.177509E-2,6.8092185E-1,-1.982711E-2,6.1266637E-1,1.6268401E-1,-9.978762E-2,4.1755106E-2,-1.3484095E-1,-7.1383946E-2,1.3405924E-1,4.7913764E-2,1.3330312E-2,1.2664543E-1],"split_indices":[1,7,7,0,1,0,5,1,1,2,1,2,1,0,0,2,0,2,0,0,0,0,0,0,0,0,0],"split_type":[0,0,0,0,0,0,0,0,0,0,0,0,0,0,0,0,0,0,0,0,0,0,0,0,0,0,0],"sum_hessian":[1.3377032E2,6.860831E1,6.516202E1,1.5780729E1,5.2827576E1,4.632149E0,6.052987E1,4.9581047E1,3.2465293E0,8.860137E0,5.166973E1,3.4827101E0,4.6098335E1,1.9990202E0,1.2475091E0,7.61072E0,1.2494167E0,1.1066415E1,4.0603317E1,1.2355013E0,2.2472088E0,3.2434082E1,1.3664255E1,5.865594E0,1.7451262E0,2.2495039E0,8.816912E0],"tree_param":{"num_deleted":"0","num_feature":"8","num_nodes":"27","size_leaf_vector":"0"}},{"base_weights":[-2.460099E-3,-1.1022909E0,1.1639992E0,-1.5062745E0,-9.572471E-1,-1.3352078E0,1.37487E0,-1.0291718E0,1.1156867E-1,9.510541E-1,1.4285797E0,-1.896023E-1,-1.0880009E0,5.958866E-1,-5.847214E-1,1.1411422E0,-1.8731575E-1,9.8790485E-1,1.5232855E0,-9.499498E-1,3.89155E-1,-1.2324238E0,-6.024415E-1,1.2531985E0,4.49607E-1,1.2409706E-1,1.1768403E0],"categories":[],"categories_nodes":[],"categories_segments":[],"categories_sizes":[],"default_left":[1,1,1,0,1,0,1,1,1,1,1,1,1,0,0,1,0,1,0,0,0,0,0,0,0,0,0],"id":3,"left_children":[1,3,5,-1,7,-1,9,11,13,15,17,19,21,-1,-1,23,-1,25,-1,-1,-1,-1,-1,-1,-1,-1,-1],"loss_changes":[1.698768E2,2.5515747E0,3.570256E1,0E0,4.1808395E0,0E0,1.5335083E-3,2.2462044E0,1.7772766E0,2.3154573E0,6.253586E-1,2.3334453E0,2.4967995E0,0E0,0E0,9.2419624E-2,0E0,1.791893E0,0E0,0E0,0E0,0E0,0E0,0E0,0E0,0E0,0E0],"parents":[2147483647,0,0,1,1,2,2,4,4,6,6,7,7,8,8,9,9,10,10,11,11,12,12,15,15,17,17],"right_children":[2,4,6,-1,8,-1,10,12,14,16,18,20,22,-1,-1,24,-1,26,-1,-1,-1,-1,-1,-1,-1,-1,-1],"split_conditions":[9.133626E-1,5E-1,5E-1,-1.5062745E-1,9.053714E-1,-1.3352078E-1,5E-1,5.064944E-1,9.081075E-1,6.940935E-1,9.340972E-1,6.318815E-1,6.5E0,5.958866E-2,-5.8472138E-2,6.8092185E-1,-1.8731575E-2,6.1266637E-1,1.5232855E-1,-9.4994985E-2,3.89155E-2,-1.2324238E-1,-6.024415E-2,1.2531985E-1,4.4960704E-2,1.2409706E-2,1.1768403E-1],"split_indices":[1,7,7,0,1,0,5,1,1,2,1,2,5,0,0,2,0,2,0,0,0,0,0,0,0,0,0],"split_type":[0,0,0,0,0,0,0,0,0,0,0,0,0,0,0,0,0,0,0,0,0,0,0,0,0,0,0],"sum_hessian":[1.3041533E2,6.715307E1,6.3262253E1,1.5261356E1,5.1891716E1,4.507553E0,5.87547E1,4.8654644E1,3.2370694E0,8.712547E0,5.0042152E1,3.4625335E0,4.5192112E1,1.9941783E0,1.2428911E0,7.4637885E0,1.248759E0,1.0874314E1,3.916784E1,1.2193027E0,2.2432308E0,3.3646324E1,1.1545787E1,5.7240644E0,1.739724E0,2.2489586E0,8.625356E0],"tree_param":{"num_deleted":"0","num_feature":"8","num_nodes":"27","size_leaf_vector":"0"}},{"base_weights":[-2.6885432E-3,-1.0249205E0,1.0933357E0,-1.4231228E0,-8.850482E-1,-1.2626039E0,1.2933201E0,-1.0859039E0,-4.3256587E-1,8.891288E-1,1.3454614E0,-1.8447605E-1,-1.1775415E0,-1.0788453E0,-6.834479E-2,1.0710827E0,-1.7698385E-1,9.192165E-1,1.4395249E0,-9.066163E-1,3.628795E-1,-1.3698194E0,-5.5675423E-1,1.3462793E0,-3.8426837E-1,1.2791561E0,5.839711E-1,1.15532525E-1,1.0992821E0],"categories":[],"categories_nodes":[],"categories_segments":[],"categories_sizes":[],"default_left":[1,1,1,0,1,0,1,1,1,1,1,1,1,0,1,1,0,1,0,0,0,0,0,0,0,0,0,0,0],"id":4,"left_children":[1,3,5,-1,7,-1,9,11,13,15,17,19,21,-1,23,25,-1,27,-1,-1,-1,-1,-1,-1,-1,-1,-1,-1,-1],"loss_changes":[1.4388806E2,2.4415054E0,3.0833748E1,0E0,4.2398987E0,0E0,1.8104553E-2,2.6926994E0,4.0675116E0,2.0386963E0,6.4497375E-1,2.082572E0,3.0320091E0,0E0,6.023134E0,9.26857E-2,0E0,1.557682E0,0E0,0E0,0E0,0E0,0E0,0E0,0E0,0E0,0E0,0E0,0E0],"parents":[2147483647,0,0,1,1,2,2,4,4,6,6,7,7,8,8,9,9,10,10,11,11,12,12,14,14,15,15,17,17],"right_children":[2,4,6,-1,8,-1,10,12,14,16,18,20,22,-1,24,26,-1,28,-1,-1,-1,-1,-1,-1,-1,-1,-1,-1,-1],"split_conditions":[9.133626E-1,5E-1,5E-1,-1.4231227E-1,8.910697E-1,-1.2626038E-1,5E-1,5.064944E-1,5.079884E-1,6.940935E-1,9.340972E-1,6.318815E-1,6.5E0,-1.07884526E-1,5.31224E-1,9.468674E-1,-1.7698385E-2,6.1266637E-1,1.4395249E-1,-9.066163E-2,3.6287952E-2,-1.3698195E-1,-5.5675425E-2,1.3462792E-1,-3.842684E-2,1.279156E-1,5.839711E-2,1.1553253E-2,1.0992821E-1],"split_indices":[1,7,7,0,1,0,5,1,3,2,1,2,5,0,3,1,0,2,0,0,0,0,0,0,0,0,0,0,0],"split_type":[0,0,0,0,0,0,0,0,0,0,0,0,0,0,0,0,0,0,0,0,0,0,0,0,0,0,0,0,0],"sum_hessian":[1.2642648E2,6.544893E1,6.097756E1,1.4628534E1,5.0820393E1,4.3553486E0,5.6622208E1,3.4227165E1,1.6593227E1,8.532428E0,4.808978E1,3.4364378E0,3.0790726E1,5.2736034E0,1.1319624E1,7.2845144E0,1.2479129E0,1.0641333E1,3.744845E1,1.1986591E0,2.237779E0,2.2587927E1,8.202799E0,1.4710839E0,9.84854E0,3.9648833E0,3.319631E0,2.2482717E0,8.393061E0],"tree_param":{"num_deleted":"0","num_feature":"8","num_nodes":"29","size_leaf_vector":"0"}},{"base_weights":[-3.0841862E-3,-9.5842E-1,1.0331692E0,-1.3541418E0,-8.2271034E-1,-1.20016E0,1.2239249E0,-1.010369E0,-3.7233168E-1,1.0613157E0,1.3993158E0,-1.7974237E-1,-1.0939035E0,4.3544844E-1,-6.591073E-1,1.1530485E0,1.388922E-2,-8.6718786E-1,3.3852327E-1,-3.1363662E-2,-1.1649587E0,8.067116E-1,9.244711E-2,-1.0496733E0,-2.209062E-3,-7.434862E-1,8.038975E-1],"categories":[],"categories_nodes":[],"categories_segments":[],"categories_sizes":[],"default_left":[1,1,1,0,1,0,1,1,1,1,0,1,1,1,1,0,1,0,0,0,0,0,0,0,0,0,0],"id":5,"left_children":[1,3,5,-1,7,-1,9,11,13,15,-1,17,19,21,23,-1,25,-1,-1,-1,-1,-1,-1,-1,-1,-1,-1],"loss_changes":[1.2272704E2,2.3498993E0,2.680357E1,0E0,3.8985672E0,0E0,9.158325E-2,2.2401428E0,4.099906E0,3.1381302E0,0E0,1.8632332E0,2.357769E0,5.5126804E-1,3.2162533E0,0E0,2.784986E0,0E0,0E0,0E0,0E0,0E0,0E0,0E0,0E0,0E0,0E0],"parents":[2147483647,0,0,1,1,2,2,4,4,6,6,7,7,8,8,9,9,11,11,12,12,13,13,14,14,16,16],"right_children":[2,4,6,-1,8,-1,10,12,14,16,-1,18,20,22,24,-1,26,-1,-1,-1,-1,-1,-1,-1,-1,-1,-1],"split_conditions":[9.133626E-1,5E-1,5E-1,-1.3541418E-1,8.94246E-1,-1.20016E-1,9.4901264E-1,5.064944E-1,8.9972055E-1,9.474617E-1,1.3993159E-1,6.318815E-1,5.187949E-1,9.302721E-1,9.1184044E-1,1.1530485E-1,6.991457E-1,-8.671879E-2,3.3852328E-2,-3.1363664E-3,-1.1649587E-1,8.067116E-2,9.244711E-3,-1.0496733E-1,-2.2090621E-4,-7.434862E-2,8.038975E-2],"split_indices":[1,7,7,0,1,0,1,1,1,1,0,2,2,0,0,0,2,0,0,0,0,0,0,0,0,0,0],"split_type":[0,0,0,0,0,0,0,0,0,0,0,0,0,0,0,0,0,0,0,0,0,0,0,0,0,0,0],"sum_hessian":[1.2197023E2,6.3502E1,5.8468227E1,1.3923529E1,4.957847E1,4.184565E0,5.4283665E1,3.411885E1,1.54596195E1,3.1827118E1,2.2456545E1,3.4057274E0,3.0713121E1,3.91462E0,1.1545E1,2.9171461E1,2.6556566E0,1.1745344E0,2.231193E0,2.015485E0,2.8697638E1,1.23065E0,2.68397E0,6.8652606E0,4.6797395E0,1.3858958E0,1.2697607E0],"tree_param":{"num_deleted":"0","num_feature":"8","num_nodes":"27","size_leaf_vector":"0"}},{"base_weights":[-4.2912136E-3,-8.983507E-1,9.76418E-1,-1.2959067E0,-7.6567674E-1,-1.1456461E0,1.1585637E0,-9.4745684E-1,-3.39946E-1,8.3784753E-1,1.2349548E0,-1.7535932E-1,-1.0268342E0,-1.0373116E0,-2.1454332E-2,4.8200798E-1,1.2379538E0,6.473184E-1,1.3164115E0,-8.311045E-1,3.1591251E-1,-1.2041863E0,-4.9029577E-1,6.914245E-1,-2.4221036E-1,7.503368E-1,4.267829E-2,9.529283E-1,-3.5965764E-3],"categories":[],"categories_nodes":[],"categories_segments":[],"categories_sizes":[],"default_left":[1,1,1,0,1,0,1,1,1,1,1,1,1,0,1,1,0,1,0,0,0,0,0,0,0,0,0,0,0],"id":6,"left_children":[1,3,5,-1,7,-1,9,11,13,15,17,19,21,-1,23,25,-1,27,-1,-1,-1,-1,-1,-1,-1,-1,-1,-1,-1],"loss_changes":[1.0464981E2,2.3007507E0,2.3328377E1,0E0,3.4896736E0,0E0,2.617798E-1,1.9010468E0,3.5975032E0,1.295392E0,1.0926132E0,1.6708364E0,2.319973E0,0E0,2.0888326E0,9.902215E-1,0E0,1.378726E0,0E0,0E0,0E0,0E0,0E0,0E0,0E0,0E0,0E0,0E0,0E0],"parents":[2147483647,0,0,1,1,2,2,4,4,6,6,7,7,8,8,9,9,10,10,11,11,12,12,14,14,15,15,17,17],"right_children":[2,4,6,-1,8,-1,10,12,14,16,18,20,22,-1,24,26,-1,28,-1,-1,-1,-1,-1,-1,-1,-1,-1,-1,-1],"split_conditions":[9.133626E-1,5E-1,5E-1,-1.2959068E-1,8.94246E-1,-1.1456461E-1,9.340972E-1,5.064944E-1,5.0698996E-1,5.760641E-1,5E-1,6.318815E-1,6.5E0,-1.03731155E-1,5.31224E-1,5.525578E-1,1.2379538E-1,6.694286E-1,1.3164115E-1,-8.311045E-2,3.159125E-2,-1.2041863E-1,-4.9029578E-2,6.914245E-2,-2.4221037E-2,7.503369E-2,4.267829E-3,9.529283E-2,-3.5965766E-4],"split_indices":[1,7,7,0,1,0,1,1,3,3,5,2,5,0,3,3,0,2,0,0,0,0,0,0,0,0,0,0,0],"split_type":[0,0,0,0,0,0,0,0,0,0,0,0,0,0,0,0,0,0,0,0,0,0,0,0,0,0,0,0,0],"sum_hessian":[1.17352165E2,6.1431957E1,5.5920208E1,1.3177661E1,4.8254295E1,4.002293E0,5.1917915E1,3.2956795E1,1.5297499E1,1.2289646E1,3.962827E1,3.3715162E0,2.958528E1,4.0884743E0,1.1209025E1,7.671554E0,4.6180916E0,5.913618E0,3.371465E1,1.1477582E0,2.223758E0,2.1300173E1,8.285109E0,2.146226E0,9.062799E0,4.3231792E0,3.348375E0,3.7084758E0,2.2051423E0],"tree_param":{"num_deleted":"0","num_feature":"8","num_nodes":"29","size_leaf_vector":"0"}},{"base_weights":[-4.666426E-3,-8.453948E-1,9.2983884E-1,-1.2459788E0,-7.156211E-1,-1.0974138E0,1.104773E0,-9.010665E-1,-3.2892296E-1,9.375087E-1,1.294318E0,-1.7128946E-1,-9.8050267E-1,-9.0482205E-1,-2.5130926E-2,1.029835E0,-5.5424895E-2,-7.979071E-1,2.9489556E-1,-1.1804504E0,-3.879169E-1,1.2304262E0,-3.1301656E-1,-7.406133E-1,7.262456E-1],"categories":[],"categories_nodes":[],"categories_segments":[],"categories_sizes":[],"default_left":[1,1,1,0,1,0,1,1,1,1,0,1,1,0,1,0,1,0,0,0,0,0,0,0,0],"id":7,"left_children":[1,3,5,-1,7,-1,9,11,13,15,-1,17,19,-1,21,-1,23,-1,-1,-1,-1,-1,-1,-1,-1],"loss_changes":[9.005641E1,2.244976E0,2.046453E1,0E0,3.140192E0,0E0,3.8676834E-1,1.6763668E0,2.9703054E0,2.847618E0,0E0,1.5015647E0,2.9165554E0,0E0,4.805137E0,0E0,2.4330788E0,0E0,0E0,0E0,0E0,0E0,0E0,0E0,0E0],"parents":[2147483647,0,0,1,1,2,2,4,4,6,6,7,7,8,8,9,9,11,11,12,12,14,14,16,16],"right_children":[2,4,6,-1,8,-1,10,12,14,16,-1,18,20,-1,22,-1,24,-1,-1,-1,-1,-1,-1,-1,-1],"split_conditions":[9.133626E-1,5E-1,5E-1,-1.24597885E-1,8.910697E-1,-1.0974138E-1,9.4901264E-1,5.064944E-1,5.079884E-1,9.474617E-1,1.294318E-1,6.318815E-1,6.5E0,-9.0482205E-2,5.31224E-1,1.029835E-1,6.991457E-1,-7.979071E-2,2.9489556E-2,-1.1804505E-1,-3.879169E-2,1.2304262E-1,-3.130166E-2,-7.406133E-2,7.262456E-2],"split_indices":[1,7,7,0,1,0,1,1,3,1,0,2,5,0,3,0,2,0,0,0,0,0,0,0,0],"split_type":[0,0,0,0,0,0,0,0,0,0,0,0,0,0,0,0,0,0,0,0,0,0,0,0,0],"sum_hessian":[1.126239E2,5.933683E1,5.328707E1,1.2414551E1,4.692228E1,3.81405E0,4.947302E1,3.081463E1,1.610765E1,2.943986E1,2.003316E1,3.3347476E0,2.7479883E1,4.8793783E0,1.1228272E1,2.690132E1,2.5385396E0,1.1190375E0,2.21571E0,1.9805248E1,7.674635E0,1.4836429E0,9.74463E0,1.3807455E0,1.1577941E0],"tree_param":{"num_deleted":"0","num_feature":"8","num_nodes":"25","size_leaf_vector":"0"}},{"base_weights":[-6.1931927E-3,-7.9674935E-1,8.8403904E-1,-1.2025723E0,-6.6928375E-1,-1.0542202E0,1.0521634E0,-8.442527E-1,-2.812208E-1,7.1794873E-1,1.1384999E0,1.0985616E-1,-9.075209E-1,4.1772574E-1,-5.419951E-1,3.6892447E-1,1.1367351E0,5.5693644E-1,1.2265849E0,-1.6749871E-1,-9.935074E-1,6.8808776E-1,5.6826137E-2,-9.078472E-1,3.3279933E-2,-1.300975E-1,5.8860123E-1,9.978853E-1,6.331457E-2],"categories":[],"categories_nodes":[],"categories_segments":[],"categories_sizes":[],"default_left":[1,1,1,0,1,0,1,1,1,1,1,0,1,1,1,1,0,1,0,0,0,0,0,0,0,0,0,0,0],"id":8,"left_children":[1,3,5,-1,7,-1,9,11,13,15,17,-1,19,21,23,25,-1,27,-1,-1,-1,-1,-1,-1,-1,-1,-1,-1,-1],"loss_changes":[7.7316795E1,2.2048645E0,1.7948654E1,0E0,2.9220085E0,0E0,5.691414E-1,2.0055141E0,3.1353285E0,1.4182119E0,1.1856117E0,0E0,1.7244949E0,4.3913406E-1,2.568085E0,9.9056506E-1,0E0,1.3799589E0,0E0,0E0,0E0,0E0,0E0,0E0,0E0,0E0,0E0,0E0,0E0],"parents":[2147483647,0,0,1,1,2,2,4,4,6,6,7,7,8,8,9,9,10,10,12,12,13,13,14,14,15,15,17,17],"right_children":[2,4,6,-1,8,-1,10,12,14,16,18,-1,20,22,24,26,-1,28,-1,-1,-1,-1,-1,-1,-1,-1,-1,-1,-1],"split_conditions":[9.133626E-1,5E-1,5E-1,-1.20257236E-1,8.94246E-1,-1.0542202E-1,9.340972E-1,5.187949E-1,8.9972055E-1,5.760641E-1,5E-1,1.0985616E-2,5.064944E-1,6.456752E-1,9.1184044E-1,9.522545E-1,1.1367351E-1,5.964638E-1,1.2265849E-1,-1.6749872E-2,-9.935074E-2,6.880878E-2,5.6826137E-3,-9.078472E-2,3.3279934E-3,-1.3009749E-2,5.8860123E-2,9.978853E-2,6.3314573E-3],"split_indices":[1,7,7,0,1,0,1,2,1,3,5,0,1,2,0,0,0,2,0,0,0,0,0,0,0,0,0,0,0],"split_type":[0,0,0,0,0,0,0,0,0,0,0,0,0,0,0,0,0,0,0,0,0,0,0,0,0,0,0,0,0],"sum_hessian":[1.0785873E2,5.7183163E1,5.0675564E1,1.1651814E1,4.553135E1,3.6240792E0,4.7051483E1,3.0571695E1,1.4959654E1,1.1571829E1,3.5479656E1,1.8553876E0,2.8716309E1,3.9012825E0,1.1058372E1,7.337531E0,4.2342978E0,5.6301866E0,2.9849468E1,3.2962122E0,2.5420095E1,1.7121001E0,2.1891823E0,6.4061832E0,4.652188E0,2.3674235E0,4.9701076E0,2.434187E0,3.1959996E0],"tree_param":{"num_deleted":"0","num_feature":"8","num_nodes":"29","size_leaf_vector":"0"}},{"base_weights":[-5.1984326E-3,-7.498011E-1,8.458424E-1,-1.1643461E0,-6.2407106E-1,-1.0151137E0,1.0080899E0,-7.9361933E-1,-2.5745496E-1,8.33929E-1,1.2165058E0,1.02414735E-1,-8.556503E-1,3.9011034E-1,-5.039733E-1,9.278847E-1,-1.1201364E-1,-1.0247341E0,-4.208314E-1,7.042658E-1,9.2874736E-2,-7.7110684E-1,1.7011338E-1,6.76286E-1,1.0782598E0,-7.2927475E-1,6.602787E-1],"categories":[],"categories_nodes":[],"categories_segments":[],"categories_sizes":[],"default_left":[1,1,1,0,1,0,1,1,1,1,0,0,1,1,1,1,1,0,0,0,0,0,0,0,0,0,0],"id":9,"left_children":[1,3,5,-1,7,-1,9,11,13,15,-1,-1,17,19,21,23,25,-1,-1,-1,-1,-1,-1,-1,-1,-1,-1],"loss_changes":[6.6669106E1,2.1978283E0,1.5847752E1,0E0,2.6057053E0,0E0,6.429672E-1,1.7790565E0,2.714992E0,2.5973873E0,0E0,0E0,1.6690922E0,3.933949E-1,2.2672422E0,2.4040794E-1,2.1152413E0,0E0,0E0,0E0,0E0,0E0,0E0,0E0,0E0,0E0,0E0],"parents":[2147483647,0,0,1,1,2,2,4,4,6,6,7,7,8,8,9,9,12,12,13,13,14,14,15,15,16,16],"right_children":[2,4,6,-1,8,-1,10,12,14,16,-1,-1,18,20,22,24,26,-1,-1,-1,-1,-1,-1,-1,-1,-1,-1],"split_conditions":[9.133626E-1,5E-1,5E-1,-1.1643461E-1,8.94246E-1,-1.01511374E-1,9.4901264E-1,5.187949E-1,8.9972055E-1,9.474617E-1,1.2165058E-1,1.0241474E-2,6.5E0,9.302721E-1,9.053714E-1,9.340972E-1,6.991457E-1,-1.02473415E-1,-4.208314E-2,7.0426576E-2,9.287474E-3,-7.7110685E-2,1.7011339E-2,6.76286E-2,1.0782599E-1,-7.2927475E-2,6.602787E-2],"split_indices":[1,7,7,0,1,0,1,2,1,1,0,0,5,0,1,1,2,0,0,0,0,0,0,0,0,0,0],"split_type":[0,0,0,0,0,0,0,0,0,0,0,0,0,0,0,0,0,0,0,0,0,0,0,0,0,0,0],"sum_hessian":[1.0320737E2,5.5109383E1,4.809799E1,1.090239E1,4.4206993E1,3.4355974E0,4.466239E1,2.9431257E1,1.4775736E1,2.7055204E1,1.7607185E1,1.8634073E0,2.756785E1,3.9133897E0,1.0862346E1,2.462811E1,2.4270945E0,1.8872423E1,8.695427E0,1.2368002E0,2.6765895E0,7.676357E0,3.185989E0,1.1269682E1,1.3358428E1,1.3798994E0,1.0471951E0],"tree_param":{"num_deleted":"0","num_feature":"8","num_nodes":"27","size_leaf_vector":"0"}},{"base_weights":[-5.1224446E-3,-7.0525503E-1,8.084775E-1,-1.1302722E0,-5.8122253E-1,-9.7935516E-1,9.6511406E-1,-7.456174E-1,-2.3380132E-1,7.894444E-1,1.1817297E0,-5.039819E-1,-1.0533279E0,-8.5265625E-1,2.0432316E-2,8.812764E-1,-1.02691054E-1,-6.996213E-1,6.789189E-1,-2.4675688E-1,-1.1047639E0,6.7290366E-1,-1.8321691E-1,6.308206E-1,1.0369849E0,-6.802814E-1,6.3899934E-1],"categories":[],"categories_nodes":[],"categories_segments":[],"categories_sizes":[],"default_left":[1,1,1,0,1,0,1,1,1,1,0,1,1,0,1,1,1,0,0,0,0,0,0,0,0,0,0],"id":10,"left_children":[1,3,5,-1,7,-1,9,11,13,15,-1,17,19,-1,21,23,25,-1,-1,-1,-1,-1,-1,-1,-1,-1,-1],"loss_changes":[5.7399933E1,2.1979713E0,1.3997835E1,0E0,2.3376112E0,0E0,7.170181E-1,1.6549568E0,2.469223E0,2.298811E0,0E0,4.729478E0,2.2578812E-1,0E0,1.7207558E0,3.029976E-1,1.8960682E0,0E0,0E0,0E0,0E0,0E0,0E0,0E0,0E0,0E0,0E0],"parents":[2147483647,0,0,1,1,2,2,4,4,6,6,7,7,8,8,9,9,11,11,12,12,14,14,15,15,16,16],"right_children":[2,4,6,-1,8,-1,10,12,14,16,-1,18,20,-1,22,24,26,-1,-1,-1,-1,-1,-1,-1,-1,-1,-1],"split_conditions":[9.133626E-1,5E-1,5E-1,-1.13027215E-1,8.94246E-1,-9.793552E-2,9.4901264E-1,8.758064E-1,5.0698996E-1,9.474617E-1,1.18172966E-1,8.6609936E-1,5.408441E-1,-8.526563E-2,5.31224E-1,9.340972E-1,6.991457E-1,-6.996214E-2,6.789189E-2,-2.4675688E-2,-1.1047639E-1,6.7290366E-2,-1.8321691E-2,6.308206E-2,1.0369849E-1,-6.8028145E-2,6.3899934E-2],"split_indices":[1,7,7,0,1,0,1,1,3,1,0,1,3,0,3,1,2,0,0,0,0,0,0,0,0,0,0],"split_type":[0,0,0,0,0,0,0,0,0,0,0,0,0,0,0,0,0,0,0,0,0,0,0,0,0,0,0],"sum_hessian":[9.876646E1,5.31565E1,4.560995E1,1.01755705E1,4.2980934E1,3.2509978E0,4.2358955E1,2.8397491E1,1.4583442E1,2.5954763E1,1.640419E1,1.7384125E1,1.1013367E1,3.5611267E0,1.1022315E1,2.3543484E1,2.4112787E0,1.526758E1,2.1165442E0,1.0077727E0,1.0005593E1,2.07381E0,8.948505E0,1.0962189E1,1.2581295E1,1.4021513E0,1.0091274E0],"tree_param":{"num_deleted":"0","num_feature":"8","num_nodes":"27","size_leaf_vector":"0"}},{"base_weights":[-5.758239E-3,-6.640938E-1,7.7369666E-1,-1.0995486E0,-5.4214656E-1,-9.4636476E-1,9.251382E-1,-8.2894415E-1,-3.2681453E-1,7.478334E-1,1.1507645E0,-1.7594655E-1,-1.0384151E0,1.0144186E0,-4.9638835E-1,8.374783E-1,-9.361976E-2,-6.674067E-1,4.4297305E-1,-5.1153857E-1,-1.1320009E0,7.154287E-2,1.4065104E0,-6.250028E-1,5.685733E-1,6.29579E-1,1.047996E0,-4.8139971E-1,3.2721853E-1],"categories":[],"categories_nodes":[],"categories_segments":[],"categories_sizes":[],"default_left":[1,1,1,0,1,0,1,1,1,1,0,1,1,1,1,1,1,0,0,0,0,0,0,0,0,0,0,0,0],"id":11,"left_children":[1,3,5,-1,7,-1,9,11,13,15,-1,17,19,21,23,25,27,-1,-1,-1,-1,-1,-1,-1,-1,-1,-1,-1,-1],"loss_changes":[4.9545124E1,2.1831722E0,1.2392452E1,0E0,2.376007E0,0E0,7.852402E-1,2.2423792E0,6.4467545E0,2.0315847E0,0E0,1.9716388E0,7.2758675E-2,1.1051412E0,3.624764E0,3.6875343E-1,7.111413E-1,0E0,0E0,0E0,0E0,0E0,0E0,0E0,0E0,0E0,0E0,0E0,0E0],"parents":[2147483647,0,0,1,1,2,2,4,4,6,6,7,7,8,8,9,9,11,11,12,12,13,13,14,14,15,15,16,16],"right_children":[2,4,6,-1,8,-1,10,12,14,16,-1,18,20,22,24,26,28,-1,-1,-1,-1,-1,-1,-1,-1,-1,-1,-1,-1],"split_conditions":[9.133626E-1,5E-1,5E-1,-1.0995486E-1,9.121622E-1,-9.463648E-2,9.4901264E-1,5.102006E-1,5.9722126E-1,9.474617E-1,1.15076445E-1,5.069685E-1,5.187949E-1,5.410533E-1,6.278423E-1,7.5E0,6.931967E-1,-6.674067E-2,4.4297304E-2,-5.1153857E-2,-1.1320009E-1,7.154287E-3,1.4065103E-1,-6.250028E-2,5.685733E-2,6.2957905E-2,1.04799606E-1,-4.813997E-2,3.2721855E-2],"split_indices":[1,7,7,0,0,0,1,2,2,1,0,3,2,3,3,5,2,0,0,0,0,0,0,0,0,0,0,0,0],"split_type":[0,0,0,0,0,0,0,0,0,0,0,0,0,0,0,0,0,0,0,0,0,0,0,0,0,0,0,0,0],"sum_hessian":[9.455101E1,5.1338226E1,4.3212788E1,9.477811E0,4.1860416E1,3.0720165E0,4.014077E1,1.6729301E1,2.5131115E1,2.489327E1,1.52474985E1,4.509984E0,1.22193165E1,2.261529E0,2.2869585E1,2.2500849E1,2.3924222E0,2.4701734E0,2.0398107E0,2.8183498E0,9.400967E0,1.0115312E0,1.2499976E0,2.0773867E1,2.0957189E0,1.3328629E1,9.17222E0,1.1702203E0,1.222202E0],"tree_param":{"num_deleted":"0","num_feature":"8","num_nodes":"29","size_leaf_vector":"0"}},{"base_weights":[-5.1291236E-3,-6.225657E-1,7.4023956E-1,-1.0715401E0,-5.0234693E-1,-9.156837E-1,8.866335E-1,-7.8742355E-1,-2.9376593E-1,5.3642845E-1,9.93178E-1,-1.6498706E-1,-9.93225E-1,9.385807E-1,-4.561643E-1,1.8286522E-1,1.0118011E0,3.9344916E-1,1.1031256E0,-6.355985E-1,4.1121158E-1,-4.8212564E-1,-1.0869771E0,6.7892514E-2,1.2906727E0,4.3780246E-1,-5.934369E-1,4.837136E-1,-2.258031E-1,8.9522994E-1,-9.26682E-2],"categories":[],"categories_nodes":[],"categories_segments":[],"categories_sizes":[],"default_left":[1,1,1,0,1,0,1,1,1,1,1,1,1,1,1,1,0,1,0,0,0,0,0,0,0,0,0,0,0,0,0],"id":12,"left_children":[1,3,5,-1,7,-1,9,11,13,15,17,19,21,23,25,27,-1,29,-1,-1,-1,-1,-1,-1,-1,-1,-1,-1,-1,-1,-1],"loss_changes":[4.2615814E1,2.1950932E0,1.0982832E1,0E0,2.255844E0,0E0,9.245262E-1,2.023816E0,5.581499E0,1.7117033E0,1.463131E0,1.7372675E0,8.138561E-2,9.3177533E-1,3.13441E0,1.0549676E0,0E0,1.5494003E0,0E0,0E0,0E0,0E0,0E0,0E0,0E0,0E0,0E0,0E0,0E0,0E0,0E0],"parents":[2147483647,0,0,1,1,2,2,4,4,6,6,7,7,8,8,9,9,10,10,11,11,12,12,13,13,14,14,15,15,17,17],"right_children":[2,4,6,-1,8,-1,10,12,14,16,18,20,22,24,26,28,-1,30,-1,-1,-1,-1,-1,-1,-1,-1,-1,-1,-1,-1,-1],"split_conditions":[9.133626E-1,5E-1,5E-1,-1.0715401E-1,9.121622E-1,-9.156837E-2,9.340972E-1,5.102006E-1,5.9722126E-1,5.760641E-1,5E-1,5.069685E-1,5.187949E-1,5.410533E-1,5.27951E-1,5.525578E-1,1.01180114E-1,5.964638E-1,1.1031256E-1,-6.355985E-2,4.112116E-2,-4.8212565E-2,-1.0869771E-1,6.7892517E-3,1.2906727E-1,4.378025E-2,-5.9343692E-2,4.837136E-2,-2.258031E-2,8.9522995E-2,-9.26682E-3],"split_indices":[1,7,7,0,0,0,1,2,2,3,5,3,2,3,3,3,0,2,0,0,0,0,0,0,0,0,0,0,0,0,0],"split_type":[0,0,0,0,0,0,0,0,0,0,0,0,0,0,0,0,0,0,0,0,0,0,0,0,0,0,0,0,0,0,0],"sum_hessian":[9.0597855E1,4.9641434E1,4.0956417E1,8.813369E0,4.0828064E1,2.8998687E0,3.805655E1,1.6078178E1,2.4749886E1,1.0285044E1,2.7771507E1,4.442806E0,1.1635373E1,2.32527E0,2.2424616E1,6.6922746E0,3.5927694E0,5.0118675E0,2.2759638E1,2.3887224E0,2.054083E0,2.755583E0,8.87979E0,1.0130138E0,1.312256E0,2.693609E0,1.9731007E1,3.748855E0,2.9434195E0,2.0520773E0,2.9597905E0],"tree_param":{"num_deleted":"0","num_feature":"8","num_nodes":"31","size_leaf_vector":"0"}},{"base_weights":[-3.9396677E-3,-5.851206E-1,7.107146E-1,-1.0457364E0,-4.669033E-1,-8.869463E-1,8.5258865E-1,-6.450111E-1,-1.463947E-1,6.6829735E-1,1.1027619E0,-3.856981E-1,-1.0231444E0,-7.5659597E-1,6.873442E-2,7.60996E-1,-1.3956489E-1,-8.6595505E-1,6.679513E-2,7.342398E-1,-1.5158287E-1,5.063357E-1,9.386195E-1,-4.8513976E-1,2.7477363E-1],"categories":[],"categories_nodes":[],"categories_segments":[],"categories_sizes":[],"default_left":[1,1,1,0,1,0,1,1,1,1,0,1,0,0,1,1,1,0,0,0,0,0,0,0,0],"id":13,"left_children":[1,3,5,-1,7,-1,9,11,13,15,-1,17,-1,-1,19,21,23,-1,-1,-1,-1,-1,-1,-1,-1],"loss_changes":[3.6846355E1,2.1756573E0,9.775312E0,0E0,2.2310352E0,0E0,9.714298E-1,2.1441946E0,2.1320016E0,1.8941612E0,0E0,3.7443612E0,0E0,0E0,1.9633647E0,5.005474E-1,6.061854E-1,0E0,0E0,0E0,0E0,0E0,0E0,0E0,0E0],"parents":[2147483647,0,0,1,1,2,2,4,4,6,6,7,7,8,8,9,9,11,11,14,14,15,15,16,16],"right_children":[2,4,6,-1,8,-1,10,12,14,16,-1,18,-1,-1,20,22,24,-1,-1,-1,-1,-1,-1,-1,-1],"split_conditions":[9.133626E-1,5E-1,5E-1,-1.04573645E-1,8.910697E-1,-8.869463E-2,9.4901264E-1,8.758064E-1,5.0698996E-1,9.474617E-1,1.10276185E-1,9.121622E-1,-1.02314435E-1,-7.5659595E-2,5.31224E-1,9.340972E-1,6.931967E-1,-8.6595505E-2,6.6795135E-3,7.342398E-2,-1.5158287E-2,5.063357E-2,9.386195E-2,-4.8513975E-2,2.7477363E-2],"split_indices":[1,7,7,0,1,0,1,1,3,1,0,0,0,0,3,1,2,0,0,0,0,0,0,0,0],"split_type":[0,0,0,0,0,0,0,0,0,0,0,0,0,0,0,0,0,0,0,0,0,0,0,0,0],"sum_hessian":[8.6711754E1,4.792157E1,3.8790184E1,8.1848135E0,3.9736755E1,2.7353578E0,3.605483E1,2.4891819E1,1.4844937E1,2.2875107E1,1.3179721E1,1.5964099E1,8.92772E0,3.2133937E0,1.1631543E1,2.0572514E1,2.3025932E0,7.3011885E0,8.66291E0,2.312774E0,9.318769E0,1.0035354E1,1.053716E1,1.162306E0,1.1402874E0],"tree_param":{"num_deleted":"0","num_feature":"8","num_nodes":"25","size_leaf_vector":"0"}},{"base_weights":[-5.551655E-3,-5.5305326E-1,6.801833E-1,-1.0217241E0,-4.3763205E-1,-8.598603E-1,8.1753266E-1,-7.2156024E-1,-2.3787914E-1,6.3177943E-1,1.0791459E0,-1.3104847E-1,-9.260421E-1,8.7349683E-1,-3.9406517E-1,7.230265E-1,-1.3199674E-1,-5.7009566E-1,3.768125E-1,-4.3320736E-1,-1.0220048E0,6.5679826E-2,1.1876884E0,-5.2377284E-1,5.95403E-1,4.3842995E-1,8.864239E-1,-4.5323867E-1,2.7862674E-1],"categories":[],"categories_nodes":[],"categories_segments":[],"categories_sizes":[],"default_left":[1,1,1,0,1,0,1,1,1,1,0,1,1,1,1,1,1,0,0,0,0,0,0,0,0,0,0,0,0],"id":14,"left_children":[1,3,5,-1,7,-1,9,11,13,15,-1,17,19,21,23,25,27,-1,-1,-1,-1,-1,-1,-1,-1,-1,-1,-1,-1],"loss_changes":[3.19264E1,2.1103888E0,8.6893215E0,0E0,2.079133E0,0E0,1.0276756E0,1.7982693E0,4.6469088E0,1.6972036E0,0E0,1.3863094E0,1.0793781E-1,7.7610517E-1,3.1896062E0,5.73266E-1,5.613722E-1,0E0,0E0,0E0,0E0,0E0,0E0,0E0,0E0,0E0,0E0,0E0,0E0],"parents":[2147483647,0,0,1,1,2,2,4,4,6,6,7,7,8,8,9,9,11,11,12,12,13,13,14,14,15,15,16,16],"right_children":[2,4,6,-1,8,-1,10,12,14,16,-1,18,20,22,24,26,28,-1,-1,-1,-1,-1,-1,-1,-1,-1,-1,-1,-1],"split_conditions":[9.133626E-1,5E-1,5E-1,-1.0217241E-1,9.121622E-1,-8.598603E-2,9.4901264E-1,5.102006E-1,5.9722126E-1,9.474617E-1,1.0791459E-1,5.069685E-1,5.187949E-1,5.410533E-1,6.278423E-1,5.624747E-1,9.484111E-1,-5.7009567E-2,3.7681248E-2,-4.3320738E-2,-1.02200486E-1,6.5679825E-3,1.1876883E-1,-5.2377284E-2,5.95403E-2,4.3842997E-2,8.864239E-2,-4.5323867E-2,2.7862674E-2],"split_indices":[1,7,7,0,0,0,1,2,2,1,0,3,2,3,3,3,1,0,0,0,0,0,0,0,0,0,0,0,0],"split_type":[0,0,0,0,0,0,0,0,0,0,0,0,0,0,0,0,0,0,0,0,0,0,0,0,0,0,0,0,0],"sum_hessian":[8.303511E1,4.627884E1,3.6756268E1,7.59342E0,3.868542E1,2.5789657E0,3.4177303E1,1.4897664E1,2.3787756E1,2.1983381E1,1.219392E1,4.2539105E0,1.0643753E1,2.365174E0,2.1422583E1,1.9685E1,2.2983816E0,2.2158015E0,2.038109E0,2.633459E0,8.010294E0,1.0008739E0,1.3643001E0,1.9355902E1,2.0666792E0,8.523117E0,1.1161883E1,1.2313116E0,1.0670701E0],"tree_param":{"num_deleted":"0","num_feature":"8","num_nodes":"29","size_leaf_vector":"0"}},{"base_weights":[-5.103678E-3,-5.183128E-1,6.5036184E-1,-9.99165E-1,-4.052009E-1,-8.3419114E-1,7.832445E-1,-5.744485E-1,-8.664983E-2,5.9622675E-1,1.0572609E0,-3.230912E-1,-9.2399204E-1,-3.8927683E-1,4.1635716E-1,6.858908E-1,-1.23807065E-1,-7.90869E-1,7.62023E-2,-9.699154E-1,-2.868162E-1,-5.4831076E-1,3.431514E-1,2.4342969E-2,8.1111753E-1,4.6697405E-1,9.343039E-1,-4.3877175E-1,2.578459E-1],"categories":[],"categories_nodes":[],"categories_segments":[],"categories_sizes":[],"default_left":[1,1,1,0,1,0,1,1,1,1,0,1,1,1,1,1,1,0,0,0,0,0,0,0,0,0,0,0,0],"id":15,"left_children":[1,3,5,-1,7,-1,9,11,13,15,-1,17,19,21,23,25,27,-1,-1,-1,-1,-1,-1,-1,-1,-1,-1,-1,-1],"loss_changes":[2.7472153E1,2.0861282E0,7.728841E0,0E0,2.0398831E0,0E0,1.0830784E0,1.9097061E0,2.3884337E0,1.5159688E0,0E0,3.078237E0,1.3713837E-2,1.3120145E0,9.0522397E-1,6.439514E-1,5.100219E-1,0E0,0E0,0E0,0E0,0E0,0E0,0E0,0E0,0E0,0E0,0E0,0E0],"parents":[2147483647,0,0,1,1,2,2,4,4,6,6,7,7,8,8,9,9,11,11,12,12,13,13,14,14,15,15,16,16],"right_children":[2,4,6,-1,8,-1,10,12,14,16,-1,18,20,22,24,26,28,-1,-1,-1,-1,-1,-1,-1,-1,-1,-1,-1,-1],"split_conditions":[9.133626E-1,5E-1,5E-1,-9.99165E-2,8.94246E-1,-8.3419114E-2,9.4901264E-1,8.758064E-1,9.476973E-1,9.474617E-1,1.05726086E-1,9.121622E-1,8.9014447E-1,4.25E1,6.509612E-1,7.5E0,6.931967E-1,-7.90869E-2,7.6202303E-3,-9.699154E-2,-2.8681621E-2,-5.4831076E-2,3.431514E-2,2.434297E-3,8.111175E-2,4.6697404E-2,9.343039E-2,-4.3877177E-2,2.5784591E-2],"split_indices":[1,7,7,0,1,0,1,1,0,1,0,0,1,5,2,5,2,0,0,0,0,0,0,0,0,0,0,0,0],"split_type":[0,0,0,0,0,0,0,0,0,0,0,0,0,0,0,0,0,0,0,0,0,0,0,0,0,0,0,0,0],"sum_hessian":[7.966526E1,4.4798595E1,3.4866665E1,7.039489E0,3.7759106E1,2.4309258E0,3.243574E1,2.4133535E1,1.3625572E1,2.1165825E1,1.1269915E1,1.5157836E1,8.975699E0,8.648454E0,4.9771185E0,1.886414E1,2.301686E0,6.5287023E0,8.629134E0,7.885178E0,1.0905209E0,7.312132E0,1.3363216E0,3.029931E0,1.9471875E0,1.1558189E1,7.30595E0,1.1790206E0,1.1226655E0],"tree_param":{"num_deleted":"0","num_feature":"8","num_nodes":"29","size_leaf_vector":"0"}},{"base_weights":[-5.922187E-3,-4.8838836E-1,6.219744E-1,-9.7778076E-1,-3.7818807E-1,-8.0975014E-1,7.505776E-1,-5.4376245E-1,-7.456168E-2,3.8291356E-1,8.8168204E-1,-6.7133665E-1,3.9736386E-2,-3.576035E-1,3.877343E-1,3.684629E-2,9.1024834E-1,2.571182E-1,1.0201888E0,-3.8498837E-1,-9.215664E-1,-4.6466103E-1,9.4880795E-1,2.7474558E-1,-5.2701485E-1,2.2502102E-2,7.543462E-1,-2.3968743E-1,5.3578246E-1,8.233304E-1,-2.2747116E-1,1.0656781E0,3.31557E-1],"categories":[],"categories_nodes":[],"categories_segments":[],"categories_sizes":[],"default_left":[1,1,1,0,1,0,1,1,1,1,1,1,1,1,1,1,0,1,1,0,0,0,0,0,0,0,0,0,0,0,0,0,0],"id":16,"left_children":[1,3,5,-1,7,-1,9,11,13,15,17,19,21,23,25,27,-1,29,31,-1,-1,-1,-1,-1,-1,-1,-1,-1,-1,-1,-1,-1,-1],"loss_changes":[2.3768845E1,2.0226984E0,6.88575E0,0E0,1.8617363E0,0E0,1.1954727E0,1.8375907E0,2.0375154E0,1.8147315E0,1.6994095E0,1.0796022E0,2.8750944E0,1.1647717E0,7.851646E-1,1.1159055E0,0E0,1.6835192E0,2.1754265E-1,0E0,0E0,0E0,0E0,0E0,0E0,0E0,0E0,0E0,0E0,0E0,0E0,0E0,0E0],"parents":[2147483647,0,0,1,1,2,2,4,4,6,6,7,7,8,8,9,9,10,10,11,11,12,12,13,13,14,14,15,15,17,17,18,18],"right_children":[2,4,6,-1,8,-1,10,12,14,16,18,20,22,24,26,28,-1,30,32,-1,-1,-1,-1,-1,-1,-1,-1,-1,-1,-1,-1,-1,-1],"split_conditions":[9.133626E-1,5E-1,5E-1,-9.7778074E-2,8.94246E-1,-8.097502E-2,9.340972E-1,5E-1,9.476973E-1,5.760641E-1,5E-1,5.525651E-1,5E-1,9.0039015E-1,6.509612E-1,5E-1,9.102484E-2,5.964638E-1,6.451382E-1,-3.8498838E-2,-9.215664E-2,-4.6466105E-2,9.48808E-2,2.7474558E-2,-5.2701484E-2,2.2502101E-3,7.543462E-2,-2.3968743E-2,5.3578246E-2,8.233304E-2,-2.2747116E-2,1.06567815E-1,3.3155702E-2],"split_indices":[1,7,7,0,1,0,1,4,0,3,5,3,5,1,2,4,0,2,3,0,0,0,0,0,0,0,0,0,0,0,0,0,0],"split_type":[0,0,0,0,0,0,0,0,0,0,0,0,0,0,0,0,0,0,0,0,0,0,0,0,0,0,0,0,0,0,0,0,0],"sum_hessian":[7.645814E1,4.3361786E1,3.3096355E1,6.522595E0,3.683919E1,2.2912822E0,3.080507E1,2.332736E1,1.3511833E1,9.127882E0,2.167719E1,1.901865E1,4.308709E0,8.521181E0,4.9906516E0,6.157108E0,2.970774E0,4.453142E0,1.7224049E1,1.0053059E1,8.965591E0,3.0855546E0,1.2231548E0,1.6691405E0,6.852041E0,3.0317197E0,1.9589318E0,4.295786E0,1.8613222E0,1.7312537E0,2.7218883E0,1.5643169E1,1.5808786E0],"tree_param":{"num_deleted":"0","num_feature":"8","num_nodes":"33","size_leaf_vector":"0"}},{"base_weights":[-3.8183366E-3,-4.5772108E-1,5.977051E-1,-9.573418E-1,-3.5016116E-1,-7.863856E-1,7.223283E-1,-6.2550426E-1,-1.6623735E-1,5.3094035E-1,1.0230176E0,-1.9220264E-1,-9.509142E-1,8.43435E-1,-3.2039073E-1,6.446864E-1,-5.7298098E-2,4.3364793E-1,-6.152767E-1,2.372495E-1,1.0085223E0,-4.4378862E-1,5.547614E-1,3.8036424E-1,9.9846727E-1,-5.820917E-1,4.1665262E-1],"categories":[],"categories_nodes":[],"categories_segments":[],"categories_sizes":[],"default_left":[1,1,1,0,1,0,1,1,1,1,0,1,0,1,1,1,1,0,0,0,0,0,0,0,0,0,0],"id":17,"left_children":[1,3,5,-1,7,-1,9,11,13,15,-1,17,-1,19,21,23,25,-1,-1,-1,-1,-1,-1,-1,-1,-1,-1],"loss_changes":[2.0605104E1,1.9759197E0,6.1668253E0,0E0,1.7680006E0,0E0,1.2004814E0,1.8534884E0,3.93152E0,1.4148383E0,0E0,2.2387042E0,0E0,1.00084305E-1,2.5283225E0,1.2415466E0,1.3009163E0,0E0,0E0,0E0,0E0,0E0,0E0,0E0,0E0,0E0,0E0],"parents":[2147483647,0,0,1,1,2,2,4,4,6,6,7,7,8,8,9,9,11,11,13,13,14,14,15,15,16,16],"right_children":[2,4,6,-1,8,-1,10,12,14,16,-1,18,-1,20,22,24,26,-1,-1,-1,-1,-1,-1,-1,-1,-1,-1],"split_conditions":[9.133626E-1,5E-1,5E-1,-9.573418E-2,9.121622E-1,-7.863856E-2,9.4901264E-1,5.187949E-1,5.9722126E-1,9.4614494E-1,1.0230177E-1,9.043601E-1,-9.5091425E-2,8.706337E-1,6.278423E-1,5.760641E-1,5E-1,4.3364793E-2,-6.152767E-2,2.3724949E-2,1.0085223E-1,-4.437886E-2,5.547614E-2,3.8036425E-2,9.984673E-2,-5.820917E-2,4.1665263E-2],"split_indices":[1,7,7,0,0,0,1,2,2,1,0,1,0,1,3,3,5,0,0,0,0,0,0,0,0,0,0],"split_type":[0,0,0,0,0,0,0,0,0,0,0,0,0,0,0,0,0,0,0,0,0,0,0,0,0,0,0],"sum_hessian":[7.34654E1,4.2006695E1,3.1458708E1,6.0417833E0,3.596491E1,2.1599338E0,2.9298775E1,1.3441472E1,2.2523438E1,1.9593384E1,9.705389E0,6.4472475E0,6.994225E0,2.3910644E0,2.0132374E1,1.633816E1,3.255225E0,2.5903568E0,3.8568904E0,1.033449E0,1.3576154E0,1.8076464E1,2.0559099E0,1.0539139E1,5.7990212E0,1.4364789E0,1.818746E0],"tree_param":{"num_deleted":"0","num_feature":"8","num_nodes":"27","size_leaf_vector":"0"}},{"base_weights":[-2.5065404E-3,-4.2748597E-1,5.7166225E-1,-9.376585E-1,-3.225751E-1,-7.63976E-1,6.9236696E-1,-4.85742E-1,-3.373624E-2,3.2296374E-1,8.346097E-1,-2.3083453E-1,-8.596678E-1,-3.0729085E-1,3.9257327E-1,5.2156216E-3,8.531501E-1,2.2552094E-1,9.836523E-1,-4.4968626E-1,5.525727E-1,-9.0964043E-1,-2.4019812E-1,-4.6335626E-1,3.586818E-1,5.813199E-1,-1.8548605E-1,6.541427E-1,-2.1354978E-1,7.9212916E-1,-2.3696333E-1,1.0351549E0,2.7492517E-1],"categories":[],"categories_nodes":[],"categories_segments":[],"categories_sizes":[],"default_left":[1,1,1,0,1,0,1,1,1,1,1,1,1,1,1,1,0,1,1,0,0,0,0,0,0,0,0,0,0,0,0,0,0],"id":18,"left_children":[1,3,5,-1,7,-1,9,11,13,15,17,19,21,23,25,27,-1,29,31,-1,-1,-1,-1,-1,-1,-1,-1,-1,-1,-1,-1,-1,-1],"loss_changes":[1.772705E1,1.9318328E0,5.5109825E0,0E0,1.6872859E0,0E0,1.2472029E0,1.9962463E0,1.7677507E0,1.6222905E0,1.6127958E0,2.8302984E0,5.90806E-2,1.1186873E0,7.580662E-1,1.1396594E0,0E0,1.5688301E0,2.9720688E-1,0E0,0E0,0E0,0E0,0E0,0E0,0E0,0E0,0E0,0E0,0E0,0E0,0E0,0E0],"parents":[2147483647,0,0,1,1,2,2,4,4,6,6,7,7,8,8,9,9,10,10,11,11,12,12,13,13,14,14,15,15,17,17,18,18],"right_children":[2,4,6,-1,8,-1,10,12,14,16,18,20,22,24,26,28,-1,30,32,-1,-1,-1,-1,-1,-1,-1,-1,-1,-1,-1,-1,-1,-1],"split_conditions":[9.133626E-1,5E-1,5E-1,-9.376585E-2,8.94246E-1,-7.63976E-2,9.340972E-1,8.758064E-1,9.476973E-1,5.760641E-1,5E-1,5E-1,8.9014447E-1,4.25E1,9.068226E-1,9.2195857E-1,8.531501E-2,5.964638E-1,6.451382E-1,-4.4968627E-2,5.5257272E-2,-9.096404E-2,-2.4019813E-2,-4.6335626E-2,3.586818E-2,5.8131993E-2,-1.8548606E-2,6.541427E-2,-2.1354979E-2,7.921292E-2,-2.3696333E-2,1.035155E-1,2.7492518E-2],"split_indices":[1,7,7,0,1,0,1,1,0,3,5,4,1,5,1,1,0,2,3,0,0,0,0,0,0,0,0,0,0,0,0,0,0],"split_type":[0,0,0,0,0,0,0,0,0,0,0,0,0,0,0,0,0,0,0,0,0,0,0,0,0,0,0,0,0,0,0,0,0],"sum_hessian":[7.064739E1,4.0744915E1,2.9902475E1,5.5957246E0,3.514919E1,2.0366762E0,2.7865799E1,2.2025269E1,1.312392E1,8.656208E0,1.920959E1,1.4058697E1,7.966572E0,8.164257E0,4.959663E0,6.04387E0,2.612338E0,4.2705145E0,1.4939076E1,1.1321831E1,2.7368665E0,6.9384303E0,1.0281417E0,6.8607388E0,1.3035184E0,3.734607E0,1.225056E0,1.0220354E0,5.0218344E0,1.5988855E0,2.6716292E0,1.3497632E1,1.4414443E0],"tree_param":{"num_deleted":"0","num_feature":"8","num_nodes":"33","size_leaf_vector":"0"}},{"base_weights":[-1.1373915E-3,-4.006949E-1,5.495082E-1,-9.185746E-1,-2.990695E-1,-7.4242336E-1,6.6648716E-1,-5.747988E-1,-1.1973025E-1,4.7307923E-1,9.9224585E-1,-1.4361055E-1,-9.140287E-1,8.1769556E-1,-2.6977834E-1,5.8881176E-1,-9.817752E-2,4.303982E-1,-5.586852E-1,-9.825637E-1,-2.9543877E-1,2.4901879E-1,9.591488E-1,3.241347E-1,-4.5539606E-1,3.3398598E-1,9.559709E-1,-5.529659E-1,3.5646078E-1],"categories":[],"categories_nodes":[],"categories_segments":[],"categories_sizes":[],"default_left":[1,1,1,0,1,0,1,1,1,1,0,1,1,1,1,1,1,0,0,0,0,0,0,0,0,0,0,0,0],"id":19,"left_children":[1,3,5,-1,7,-1,9,11,13,15,-1,17,19,21,23,25,27,-1,-1,-1,-1,-1,-1,-1,-1,-1,-1,-1,-1],"loss_changes":[1.5427458E1,1.8637967E0,4.951026E0,0E0,1.6841671E0,0E0,1.2672997E0,1.8737774E0,3.419566E0,1.3276572E0,0E0,1.9611782E0,2.7060032E-2,3.3535004E-2,2.3917425E0,1.1884136E0,1.0433571E0,0E0,0E0,0E0,0E0,0E0,0E0,0E0,0E0,0E0,0E0,0E0,0E0],"parents":[2147483647,0,0,1,1,2,2,4,4,6,6,7,7,8,8,9,9,11,11,12,12,13,13,14,14,15,15,16,16],"right_children":[2,4,6,-1,8,-1,10,12,14,16,-1,18,20,22,24,26,28,-1,-1,-1,-1,-1,-1,-1,-1,-1,-1,-1,-1],"split_conditions":[9.133626E-1,5E-1,5E-1,-9.1857456E-2,9.121622E-1,-7.424234E-2,9.4901264E-1,5.187949E-1,5.9722126E-1,9.4614494E-1,9.922459E-2,9.043601E-1,8.946526E-1,8.706337E-1,8.4814286E-1,5.760641E-1,5E-1,4.303982E-2,-5.5868518E-2,-9.825637E-2,-2.9543877E-2,2.490188E-2,9.5914885E-2,3.241347E-2,-4.5539606E-2,3.33986E-2,9.559709E-2,-5.529659E-2,3.5646077E-2],"split_indices":[1,7,7,0,0,0,1,2,2,1,0,1,1,1,1,3,5,0,0,0,0,0,0,0,0,0,0,0,0],"split_type":[0,0,0,0,0,0,0,0,0,0,0,0,0,0,0,0,0,0,0,0,0,0,0,0,0,0,0,0,0],"sum_hessian":[6.8119385E1,3.9633198E1,2.8486181E1,5.182833E0,3.4450367E1,1.921228E0,2.6564955E1,1.2707629E1,2.1742737E1,1.8207262E1,8.357692E0,6.2221384E0,6.485491E0,2.3860881E0,1.935665E1,1.5114452E1,3.0928097E0,2.595664E0,3.6264744E0,5.3089123E0,1.1765786E0,1.0251532E0,1.360935E0,4.4314094E0,1.492524E1,1.0049367E1,5.0650854E0,1.4380293E0,1.6547805E0],"tree_param":{"num_deleted":"0","num_feature":"8","num_nodes":"29","size_leaf_vector":"0"}},{"base_weights":[-8.927726E-4,-2.778832E-1,7.2199434E-1,-9.361775E-1,-1.6498476E-1,1.5086934E-1,8.812935E-1,-3.3706918E-1,2.9181486E-1,7.6408845E-1,-2.8764123E-1,9.456257E-1,1.6966687E-1,-4.4212005E-1,9.676827E-2,2.8245116E-2,7.4487495E-1,-5.947291E-1,2.645042E-1,-5.870463E-1,-1.3088097E-1,-3.8800386E-1,1.2252609E0,6.5756476E-1,-1.9707449E-1,5.6508254E-2,9.296616E-1],"categories":[],"categories_nodes":[],"categories_segments":[],"categories_sizes":[],"default_left":[1,1,1,0,1,1,1,1,1,0,1,0,0,1,1,1,1,0,0,0,0,0,0,0,0,0,0],"id":20,"left_children":[1,3,5,-1,7,9,11,13,15,-1,17,-1,-1,19,21,23,25,-1,-1,-1,-1,-1,-1,-1,-1,-1,-1],"loss_changes":[1.3547252E1,3.480734E0,1.5722828E0,0E0,3.4758239E0,1.6434265E0,5.0103474E-1,1.4862752E0,1.4468939E0,0E0,8.03892E-1,0E0,0E0,1.0814247E0,4.301963E0,1.3789874E0,5.175564E-1,0E0,0E0,0E0,0E0,0E0,0E0,0E0,0E0,0E0,0E0],"parents":[2147483647,0,0,1,1,2,2,4,4,5,5,6,6,7,7,8,8,10,10,13,13,14,14,15,15,16,16],"right_children":[2,4,6,-1,8,10,12,14,16,-1,18,-1,-1,20,22,24,26,-1,-1,-1,-1,-1,-1,-1,-1,-1,-1],"split_conditions":[9.340972E-1,5E-1,5E-1,-9.361775E-2,9.053714E-1,5.964638E-1,6.451382E-1,5E-1,5.760641E-1,7.640885E-2,9.4867957E-1,9.4562575E-2,1.6966688E-2,8.910697E-1,5.539148E-1,5.5711144E-1,6.511792E-1,-5.9472915E-2,2.645042E-2,-5.8704633E-2,-1.3088097E-2,-3.8800385E-2,1.2252609E-1,6.575648E-2,-1.9707449E-2,5.6508253E-3,9.296616E-2],"split_indices":[1,7,5,0,1,2,3,4,3,0,1,0,0,1,3,2,2,0,0,0,0,0,0,0,0,0,0],"split_type":[0,0,0,0,0,0,0,0,0,0,0,0,0,0,0,0,0,0,0,0,0,0,0,0,0,0,0],"sum_hessian":[6.565552E1,4.79124E1,1.774312E1,5.946576E0,4.1965824E1,4.2942615E0,1.3448858E1,3.0672909E1,1.1292916E1,1.480895E0,2.8133667E0,1.2032295E1,1.4165627E0,2.4678165E1,5.994744E0,7.81111E0,3.4818058E0,1.758316E0,1.0550505E0,1.6233152E1,8.445013E0,4.652375E0,1.3423687E0,1.5535808E0,6.2575293E0,1.0132083E0,2.4685974E0],"tree_param":{"num_deleted":"0","num_feature":"8","num_nodes":"27","size_leaf_vector":"0"}},{"base_weights":[2.7005598E-3,-2.5587738E-1,6.9502807E-1,-9.182718E-1,-1.4779629E-1,1.4630848E-1,8.5530007E-1,-3.1002071E-1,2.7771643E-1,7.3970485E-1,-2.669451E-1,9.2199355E-1,1.6081698E-1,-4.108356E-1,9.922768E-2,3.0753246E-2,7.156239E-1,-5.530272E-1,2.5248864E-1,-5.504194E-1,-1.1968636E-1,-3.627839E-1,1.1337589E0,5.153851E-1,-2.3098545E-1,5.3685624E-2,9.00606E-1],"categories":[],"categories_nodes":[],"categories_segments":[],"categories_sizes":[],"default_left":[1,1,1,0,1,1,1,1,1,0,1,0,0,1,1,1,1,0,0,0,0,0,0,0,0,0,0],"id":21,"left_children":[1,3,5,-1,7,9,11,13,15,-1,17,-1,-1,19,21,23,25,-1,-1,-1,-1,-1,-1,-1,-1,-1,-1],"loss_changes":[1.1725661E1,3.2789187E0,1.4411488E0,0E0,2.9988773E0,1.4805696E0,4.8060513E-1,1.3206949E0,1.2946202E0,0E0,7.071693E-1,0E0,0E0,9.5357895E-1,3.7269905E0,1.2390097E0,4.8370266E-1,0E0,0E0,0E0,0E0,0E0,0E0,0E0,0E0,0E0,0E0],"parents":[2147483647,0,0,1,1,2,2,4,4,5,5,6,6,7,7,8,8,10,10,13,13,14,14,15,15,16,16],"right_children":[2,4,6,-1,8,10,12,14,16,-1,18,-1,-1,20,22,24,26,-1,-1,-1,-1,-1,-1,-1,-1,-1,-1],"split_conditions":[9.340972E-1,5E-1,5E-1,-9.182718E-2,9.053714E-1,5.964638E-1,6.451382E-1,5E-1,5.760641E-1,7.397049E-2,9.4867957E-1,9.2199355E-2,1.6081698E-2,8.910697E-1,5.539148E-1,5.9743774E-1,6.511792E-1,-5.530272E-2,2.5248865E-2,-5.504194E-2,-1.1968636E-2,-3.6278393E-2,1.13375895E-1,5.153851E-2,-2.3098545E-2,5.3685624E-3,9.00606E-2],"split_indices":[1,7,5,0,1,2,3,4,3,0,1,0,0,1,3,2,2,0,0,0,0,0,0,0,0,0,0],"split_type":[0,0,0,0,0,0,0,0,0,0,0,0,0,0,0,0,0,0,0,0,0,0,0,0,0,0,0],"sum_hessian":[6.3505524E1,4.6695568E1,1.6809956E1,5.4988346E0,4.1196735E1,4.232414E0,1.2577541E1,3.002231E1,1.1174424E1,1.4132111E0,2.8192027E0,1.1176618E1,1.4009238E0,2.4085236E1,5.937073E0,7.8292513E0,3.3451726E0,1.7762474E0,1.0429552E0,1.5678222E1,8.407014E0,4.5530505E0,1.3840228E0,2.4057376E0,5.423514E0,1.0124502E0,2.3327224E0],"tree_param":{"num_deleted":"0","num_feature":"8","num_nodes":"27","size_leaf_vector":"0"}},{"base_weights":[5.77795E-3,-2.3572585E-1,6.683905E-1,-9.007131E-1,-1.3241206E-1,1.4227554E-1,8.2898575E-1,-2.8487736E-1,2.635648E-1,7.164556E-1,-2.4770361E-1,8.979116E-1,1.5241408E-1,-3.8134736E-1,1.0080079E-1,3.9622158E-1,-4.0536544E-1,-5.145822E-1,2.4104072E-1,3.1201315E-1,9.458077E-1,-1.7652856E-1,-5.93321E-1,-3.3898872E-1,1.0533457E0,-1.9704524E-1,5.676285E-1],"categories":[],"categories_nodes":[],"categories_segments":[],"categories_sizes":[],"default_left":[1,1,1,0,1,1,1,1,1,0,1,1,0,1,1,1,0,0,0,0,0,0,0,0,0,0,0],"id":22,"left_children":[1,3,5,-1,7,9,11,13,15,-1,17,19,-1,21,23,25,-1,-1,-1,-1,-1,-1,-1,-1,-1,-1,-1],"loss_changes":[1.0158465E1,3.0782788E0,1.3145709E0,0E0,2.5778842E0,1.3356189E0,4.592266E-1,1.1699522E0,1.2293785E0,0E0,6.227236E-1,2.4695396E-2,0E0,9.605193E-1,3.2374928E0,1.1853422E0,0E0,0E0,0E0,0E0,0E0,0E0,0E0,0E0,0E0,0E0,0E0],"parents":[2147483647,0,0,1,1,2,2,4,4,5,5,6,6,7,7,8,8,10,10,11,11,13,13,14,14,15,15],"right_children":[2,4,6,-1,8,10,12,14,16,-1,18,20,-1,22,24,26,-1,-1,-1,-1,-1,-1,-1,-1,-1,-1,-1],"split_conditions":[9.340972E-1,5E-1,5E-1,-9.007131E-2,9.053714E-1,5.964638E-1,6.451382E-1,5E-1,9.3214166E-1,7.164556E-2,9.4867957E-1,9.3767655E-1,1.5241409E-2,5.525651E-1,5.539148E-1,5.334518E-1,-4.0536545E-2,-5.145822E-2,2.4104072E-2,3.1201316E-2,9.458077E-2,-1.7652856E-2,-5.9332103E-2,-3.389887E-2,1.0533457E-1,-1.9704524E-2,5.676285E-2],"split_indices":[1,7,5,0,1,2,3,4,1,0,1,1,0,3,3,3,0,0,0,0,0,0,0,0,0,0,0],"split_type":[0,0,0,0,0,0,0,0,0,0,0,0,0,0,0,0,0,0,0,0,0,0,0,0,0,0,0],"sum_hessian":[6.149652E1,4.5541985E1,1.59545355E1,5.086178E0,4.0455807E1,4.172201E0,1.1782334E1,2.9411785E1,1.1044022E1,1.3489422E0,2.8232589E0,1.0396083E1,1.3862514E0,2.353595E1,5.875837E0,9.556528E0,1.4874936E0,1.7919173E0,1.0313414E0,1.3535006E0,9.042582E0,1.2902113E1,1.0633836E1,4.460534E0,1.4153031E0,2.1086335E0,7.4478946E0],"tree_param":{"num_deleted":"0","num_feature":"8","num_nodes":"27","size_leaf_vector":"0"}},{"base_weights":[6.9466247E-3,-2.1972318E-1,6.4437366E-1,-8.8341177E-1,-1.215153E-1,1.3869666E-1,8.0539304E-1,-3.5667506E-1,1.058698E-1,6.9425654E-1,-2.2980952E-1,8.767726E-1,1.444372E-1,-9.681328E-2,-7.722555E-1,-5.565105E-1,2.1991993E-1,-6.14388E-1,1.2863451E-1,2.965574E-1,9.278798E-1,-6.0379463E-1,2.4491118E-1,-3.4666157E-1,-9.265714E-1,5.814142E-1,6.1433416E-2],"categories":[],"categories_nodes":[],"categories_segments":[],"categories_sizes":[],"default_left":[1,1,1,0,1,1,1,1,1,0,1,1,0,1,1,0,1,0,0,0,0,0,0,0,0,0,0],"id":23,"left_children":[1,3,5,-1,7,9,11,13,15,-1,17,19,-1,21,23,-1,25,-1,-1,-1,-1,-1,-1,-1,-1,-1,-1],"loss_changes":[8.908794E0,2.8587923E0,1.2050433E0,0E0,2.219461E0,1.2064728E0,4.4223213E-1,2.1160393E0,1.7476896E0,0E0,6.064122E-1,4.168415E-2,0E0,2.5083807E0,1.8196535E-1,0E0,1.0568949E0,0E0,0E0,0E0,0E0,0E0,0E0,0E0,0E0,0E0,0E0],"parents":[2147483647,0,0,1,1,2,2,4,4,5,5,6,6,7,7,8,8,10,10,11,11,13,13,14,14,16,16],"right_children":[2,4,6,-1,8,10,12,14,16,-1,18,20,-1,22,24,-1,26,-1,-1,-1,-1,-1,-1,-1,-1,-1,-1],"split_conditions":[9.340972E-1,5E-1,5E-1,-8.834118E-2,8.94246E-1,5.964638E-1,6.451382E-1,8.758064E-1,5.0698996E-1,6.942566E-2,5.631672E-1,9.3767655E-1,1.444372E-2,9.121622E-1,5.455481E-1,-5.565105E-2,5.9743774E-1,-6.14388E-2,1.2863452E-2,2.965574E-2,9.278798E-2,-6.0379464E-2,2.4491118E-2,-3.466616E-2,-9.265714E-2,5.814142E-2,6.143342E-3],"split_indices":[1,7,5,0,1,2,3,1,3,0,3,1,0,0,3,0,2,0,0,0,0,0,0,0,0,0,0],"split_type":[0,0,0,0,0,0,0,0,0,0,0,0,0,0,0,0,0,0,0,0,0,0,0,0,0,0,0],"sum_hessian":[5.9678837E1,4.450729E1,1.5171548E1,4.7063646E0,3.9800926E1,4.11376E0,1.1057788E1,1.9286448E1,2.0514479E1,1.2879983E0,2.8257616E0,9.685307E0,1.3724811E0,1.262501E1,6.6614385E0,2.4435139E0,1.8070965E1,1.0187222E0,1.8070395E0,1.3347445E0,8.350562E0,4.7745686E0,7.8504405E0,2.6365197E0,4.024919E0,4.694551E0,1.3376413E1],"tree_param":{"num_deleted":"0","num_feature":"8","num_nodes":"27","size_leaf_vector":"0"}},{"base_weights":[4.8914915E-3,-2.0828263E-1,6.190633E-1,-8.6629647E-1,-1.1540823E-1,1.3069555E-1,7.8171206E-1,-2.3313999E-1,2.9457185E-1,6.730347E-1,-2.19042E-1,8.5543907E-1,1.368669E-1,-4.7933003E-1,1.6809904E-4,-1.9508807E-1,1.1011012E0,-4.6886903E-1,2.3710556E-1,2.8179163E-1,9.098145E-1,1.20595045E-1,-5.793338E-1,1.1747914E-1,-6.957608E-1,3.167279E-1,-4.0448177E-1],"categories":[],"categories_nodes":[],"categories_segments":[],"categories_sizes":[],"default_left":[1,1,1,0,1,1,1,1,1,0,1,1,0,1,1,1,0,0,0,0,0,0,0,0,0,0,0],"id":24,"left_children":[1,3,5,-1,7,9,11,13,15,-1,17,19,-1,21,23,25,-1,-1,-1,-1,-1,-1,-1,-1,-1,-1,-1],"loss_changes":[7.8551254E0,2.622911E0,1.1256046E0,0E0,2.0089443E0,1.1076509E0,4.2463446E-1,1.8259324E0,3.9310284E0,0E0,5.4787946E-1,5.6630135E-2,0E0,9.978292E-1,1.495804E0,8.46654E-1,0E0,0E0,0E0,0E0,0E0,0E0,0E0,0E0,0E0,0E0,0E0],"parents":[2147483647,0,0,1,1,2,2,4,4,5,5,6,6,7,7,8,8,10,10,11,11,13,13,14,14,15,15],"right_children":[2,4,6,-1,8,10,12,14,16,-1,18,20,-1,22,24,26,-1,-1,-1,-1,-1,-1,-1,-1,-1,-1,-1],"split_conditions":[9.340972E-1,5E-1,5E-1,-8.662965E-2,5E-1,5.964638E-1,6.451382E-1,8.910697E-1,5.539148E-1,6.730347E-2,9.4867957E-1,9.3767655E-1,1.368669E-2,5.198721E-1,9.3060446E-1,5.0714445E-1,1.1011012E-1,-4.6886902E-2,2.3710556E-2,2.8179163E-2,9.0981446E-2,1.2059505E-2,-5.793338E-2,1.1747914E-2,-6.957608E-2,3.167279E-2,-4.0448178E-2],"split_indices":[1,7,5,0,4,2,3,1,3,0,1,1,0,1,1,3,0,0,0,0,0,0,0,0,0,0,0],"split_type":[0,0,0,0,0,0,0,0,0,0,0,0,0,0,0,0,0,0,0,0,0,0,0,0,0,0,0],"sum_hessian":[5.801205E1,4.3555244E1,1.4456804E1,4.3571672E0,3.919808E1,4.0624547E0,1.039435E1,3.078815E1,8.409928E0,1.2302706E0,2.832184E0,9.034796E0,1.3595543E0,1.44674225E1,1.6320726E1,5.704642E0,2.7052867E0,1.811924E0,1.02026E0,1.3175286E0,7.717267E0,2.0376434E0,1.2429779E1,1.4677729E1,1.6429982E0,1.507442E0,4.1972E0],"tree_param":{"num_deleted":"0","num_feature":"8","num_nodes":"27","size_leaf_vector":"0"}}]},"name":"gbtree"},"learner_model_param":{"base_score":"5E-1","num_class":"0","num_feature":"8","num_target":"1"},"objective":{"name":"binary:logistic","reg_loss_param":{"scale_pos_weight":"1"}}},"version":[1,6,2]}