{"learner":{"attributes":{"best_iteration":"24","best_ntree_limit":"25","scikit_learn":"{\"use_label_encoder\": false, \"n_estimators\": 25, \"objective\": \"binary:logistic\", \"max_depth\": 5, \"max_leaves\": null, \"max_bin\": null, \"grow_policy\": null, \"learning_rate\": 0.1, \"verbosity\": null, \"booster\": \"gbtree\", \"tree_method\": null, \"gamma\": null, \"min_child_weight\": null, \"max_delta_step\": null, \"subsample\": null, \"sampling_method\": null, \"colsample_bytree\": null, \"colsample_bylevel\": null, \"colsample_bynode\": null, \"reg_alpha\": null, \"reg_lambda\": null, \"scale_pos_weight\": null, \"base_score\": null, \"missing\": NaN, \"num_parallel_tree\": null, \"random_state\": null, \"n_jobs\": null, \"monotone_constraints\": null, \"interaction_constraints\": null, \"importance_type\": null, \"gpu_id\": null, \"validate_parameters\": null, \"predictor\": null, \"enable_categorical\": false, \"max_cat_to_onehot\": null, \"eval_metric\": null, \"early_stopping_rounds\": null, \"callbacks\": null, \"classes_\": [0, 1], \"n_classes_\": 2, \"_estimator_type\": \"classifier\"}"},"feature_names":[],"feature_types":[],"gradient_booster":{"model":{"gbtree_model_param":{"num_parallel_tree":"1","num_trees":"25","size_leaf_vector":"0"},"tree_info":[0,0,0,0,0,0,0,0,0,0,0,0,0,0,0,0,0,0,0,0,0,0,0,0,0],"trees":[{"base_weights":[-0E0,-1.45E0,1.4871795E0,-1.6056339E0,-1.5384616E-1,1.7014925E0,1.3333334E-1,-0E0,-2.2222222E-1,5E-1,1.7460318E0,-8E-1,1.1111112E0],"categories":[],"categories_nodes":[],"categories_segments":[],"categories_sizes":[],"default_left":[1,1,1,0,1,1,1,0,0,0,0,0,0],"id":0,"left_children":[1,3,5,-1,7,9,11,-1,-1,-1,-1,-1,-1],"loss_changes":[8.517821E1,3.787487E0,5.4309998E0,0E0,3.4188032E-2,2.3334503E-2,4.311111E0,0E0,0E0,0E0,0E0,0E0,0E0],"parents":[2147483647,0,0,1,1,2,2,4,4,5,5,6,6],"right_children":[2,4,6,-1,8,10,12,-1,-1,-1,-1,-1,-1],"split_conditions":[9.3457947E-4,6.460673E-1,8.037383E-2,-1.605634E-1,5E-1,9.479166E-1,9.847212E-1,-0E0,-2.2222223E-2,5E-2,1.7460318E-1,-8.0000006E-2,1.1111112E-1],"split_indices":[3,1,3,0,2,0,0,0,0,0,0,0,0],"split_type":[0,0,0,0,0,0,0,0,0,0,0,0,0],"sum_hessian":[3.75E1,1.9E1,1.85E1,1.675E1,2.25E0,1.575E1,2.75E0,1E0,1.25E0,1E0,1.475E1,1.5E0,1.25E0],"tree_param":{"num_deleted":"0","num_feature":"6","num_nodes":"13","size_leaf_vector":"0"}},{"base_weights":[1.9276047E-3,-1.3215407E0,1.3601954E0,-1.4633029E0,-1.453064E-1,1.555588E0,1.2853147E-1,-0E0,-2.0989144E-1,-7.5274736E-1,1.051245E0],"categories":[],"categories_nodes":[],"categories_segments":[],"categories_sizes":[],"default_left":[1,1,1,0,1,0,1,0,0,0,0],"id":1,"left_children":[1,3,5,-1,7,-1,9,-1,-1,-1,-1],"loss_changes":[7.059916E1,3.1043358E0,4.4643173E0,0E0,3.0498564E-2,0E0,3.835621E0,0E0,0E0,0E0,0E0],"parents":[2147483647,0,0,1,1,2,2,4,4,6,6],"right_children":[2,4,6,-1,8,-1,10,-1,-1,-1,-1],"split_conditions":[9.3457947E-4,6.460673E-1,8.037383E-2,-1.4633028E-1,5E-1,1.5555881E-1,9.847212E-1,-0E0,-2.0989144E-2,-7.5274736E-2,1.05124496E-1],"split_indices":[3,1,3,0,2,0,0,0,0,0,0],"split_type":[0,0,0,0,0,0,0,0,0,0,0],"sum_hessian":[3.727363E1,1.8892351E1,1.8381279E1,1.6642504E1,2.2498457E0,1.5637526E1,2.7437525E0,1E0,1.2498457E0,1.4976026E0,1.2461499E0],"tree_param":{"num_deleted":"0","num_feature":"6","num_nodes":"11","size_leaf_vector":"0"}},{"base_weights":[2.301778E-3,-1.2159164E0,1.2548863E0,-1.3477645E0,-1.3725366E-1,-2.5730821E-1,1.3743963E0,-0E0,-1.982711E-1,5.395042E-1,1.5519434E0,7.9607403E-1,6.2091436E-2],"categories":[],"categories_nodes":[],"categories_segments":[],"categories_sizes":[],"default_left":[1,1,1,0,1,0,1,0,0,1,0,0,0],"id":2,"left_children":[1,3,5,-1,7,-1,9,-1,-1,11,-1,-1,-1],"loss_changes":[5.902616E1,2.6041012E0,3.8002434E0,0E0,2.7213432E-2,0E0,1.8060188E0,0E0,0E0,5.213747E-1,0E0,0E0,0E0],"parents":[2147483647,0,0,1,1,2,2,4,4,6,6,9,9],"right_children":[2,4,6,-1,8,-1,10,-1,-1,12,-1,-1,-1],"split_conditions":[9.3457947E-4,6.460673E-1,7.9040605E-1,-1.3477646E-1,5E-1,-2.5730822E-2,5E-1,-0E0,-1.982711E-2,2.5233645E-2,1.5519434E-1,7.9607405E-2,6.209144E-3],"split_indices":[3,1,0,0,2,0,5,0,0,3,0,0,0],"split_type":[0,0,0,0,0,0,0,0,0,0,0,0,0],"sum_hessian":[3.6682365E1,1.861113E1,1.8071236E1,1.6361713E1,2.2494166E0,1.2391311E0,1.6832104E1,1E0,1.2494167E0,3.6600149E0,1.317209E1,1.9464717E0,1.713543E0],"tree_param":{"num_deleted":"0","num_feature":"6","num_nodes":"13","size_leaf_vector":"0"}},{"base_weights":[3.833556E-3,-1.1266928E0,1.1667702E0,-1.2512541E0,-1.2965812E-1,1.3512504E0,5.5571064E-2,-0E0,-1.8731575E-1,-7.361375E-1,9.244146E-1],"categories":[],"categories_nodes":[],"categories_segments":[],"categories_sizes":[],"default_left":[1,1,1,0,1,0,1,0,0,0,0],"id":3,"left_children":[1,3,5,-1,7,-1,9,-1,-1,-1,-1],"loss_changes":[4.979773E1,2.2232113E0,3.7519722E0,0E0,2.4287008E-2,0E0,3.2263196E0,0E0,0E0,0E0,0E0],"parents":[2147483647,0,0,1,1,2,2,4,4,6,6],"right_children":[2,4,6,-1,8,-1,10,-1,-1,-1,-1],"split_conditions":[9.3457947E-4,6.460673E-1,8.037383E-2,-1.2512541E-1,5E-1,1.3512504E-1,9.847212E-1,-0E0,-1.8731575E-2,-7.3613755E-2,9.244146E-2],"split_indices":[3,1,3,0,2,0,0,0,0,0,0],"split_type":[0,0,0,0,0,0,0,0,0,0,0],"sum_hessian":[3.587686E1,1.8207735E1,1.7669128E1,1.5958975E1,2.248759E0,1.4968109E1,2.7010193E0,1E0,1.248759E0,1.4931595E0,1.2078598E0],"tree_param":{"num_deleted":"0","num_feature":"6","num_nodes":"11","size_leaf_vector":"0"}},{"base_weights":[3.938942E-3,-1.0496082E0,1.0910864E0,-1.1686825E0,-1.2249228E-1,1.2661977E0,5.576659E-2,-0E0,-1.7698385E-1,-6.9438726E-1,8.8341105E-1],"categories":[],"categories_nodes":[],"categories_segments":[],"categories_sizes":[],"default_left":[1,1,1,0,1,0,1,0,0,0,0],"id":4,"left_children":[1,3,5,-1,7,-1,9,-1,-1,-1,-1],"loss_changes":[4.22188E1,1.9236202E0,3.21797E0,0E0,2.1679152E-2,0E0,2.8921459E0,0E0,0E0,0E0,0E0],"parents":[2147483647,0,0,1,1,2,2,4,4,6,6],"right_children":[2,4,6,-1,8,-1,10,-1,-1,-1,-1],"split_conditions":[9.3457947E-4,6.460673E-1,8.037383E-2,-1.1686825E-1,5E-1,1.2661977E-1,9.847212E-1,-0E0,-1.7698385E-2,-6.9438726E-2,8.834111E-2],"split_indices":[3,1,3,0,2,0,0,0,0,0,0],"split_type":[0,0,0,0,0,0,0,0,0,0,0],"sum_hessian":[3.4860817E1,1.772153E1,1.7139284E1,1.54736185E1,2.247913E0,1.446903E1,2.6702545E0,1E0,1.2479129E0,1.4851573E0,1.1850972E0],"tree_param":{"num_deleted":"0","num_feature":"6","num_nodes":"11","size_leaf_vector":"0"}},{"base_weights":[4.107445E-3,-9.8173404E-1,1.0256126E0,-1.0729048E0,1.9887147E-2,-3.0216503E-1,1.1417389E0,3.6708575E-1,1.3186835E0,6.111053E-1,-3.0787941E-2],"categories":[],"categories_nodes":[],"categories_segments":[],"categories_sizes":[],"default_left":[1,1,1,0,0,0,1,1,0,0,0],"id":5,"left_children":[1,3,5,-1,-1,-1,7,9,-1,-1,-1],"loss_changes":[3.5977882E1,1.6817513E0,3.0500717E0,0E0,0E0,0E0,1.7559566E0,4.483838E-1,0E0,0E0,0E0],"parents":[2147483647,0,0,1,1,2,2,6,6,7,7],"right_children":[2,4,6,-1,-1,-1,8,10,-1,-1,-1],"split_conditions":[9.3457947E-4,9.9207926E-1,7.9040605E-1,-1.07290484E-1,1.9887148E-3,-3.0216504E-2,5E-1,2.5233645E-2,1.3186835E-1,6.1110534E-2,-3.078794E-3],"split_indices":[3,0,0,0,0,0,5,3,0,0,0],"split_type":[0,0,0,0,0,0,0,0,0,0,0],"sum_hessian":[3.3726456E1,1.7182642E1,1.6543814E1,1.5683877E1,1.4987653E0,1.2016958E0,1.5342117E1,3.4244885E0,1.1917629E1,1.790457E0,1.6340315E0],"tree_param":{"num_deleted":"0","num_feature":"6","num_nodes":"11","size_leaf_vector":"0"}},{"base_weights":[5.6539685E-3,-9.1933036E-1,9.663515E-1,-1.0338426E0,-9.2188105E-2,1.1400856E0,1.1791665E-3,-6.7607296E-1,7.9299706E-1],"categories":[],"categories_nodes":[],"categories_segments":[],"categories_sizes":[],"default_left":[1,1,1,0,0,0,1,0,0],"id":6,"left_children":[1,3,5,-1,-1,-1,7,-1,-1],"loss_changes":[3.0731106E1,1.5737991E0,2.842722E0,0E0,0E0,0E0,2.4604056E0,0E0,0E0],"parents":[2147483647,0,0,1,1,2,2,6,6],"right_children":[2,4,6,-1,-1,-1,8,-1,-1],"split_conditions":[9.3457947E-4,6.460673E-1,8.037383E-2,-1.0338426E-1,-9.218811E-3,1.1400856E-1,9.847212E-1,-6.76073E-2,7.929971E-2],"split_indices":[3,1,3,0,0,0,0,0,0],"split_type":[0,0,0,0,0,0,0,0,0],"sum_hessian":[3.2582825E1,1.6621895E1,1.5960929E1,1.4381041E1,2.2408545E0,1.3372594E1,2.588335E0,1.4738812E0,1.1144538E0],"tree_param":{"num_deleted":"0","num_feature":"6","num_nodes":"9","size_leaf_vector":"0"}},{"base_weights":[5.848029E-3,-8.639358E-1,9.140701E-1,-9.7588533E-1,-8.584088E-2,-3.1085703E-1,1.030027E0,2.879955E-1,1.210227E0,5.2271765E-1,-6.624494E-2],"categories":[],"categories_nodes":[],"categories_segments":[],"categories_sizes":[],"default_left":[1,1,1,0,0,0,1,1,0,0,0],"id":7,"left_children":[1,3,5,-1,-1,-1,7,9,-1,-1,-1],"loss_changes":[2.634861E1,1.4006472E0,2.637351E0,0E0,0E0,0E0,1.6751747E0,3.8963017E-1,0E0,0E0,0E0],"parents":[2147483647,0,0,1,1,2,2,6,6,7,7],"right_children":[2,4,6,-1,-1,-1,8,10,-1,-1,-1],"split_conditions":[9.3457947E-4,6.460673E-1,7.9040605E-1,-9.758853E-2,-8.584089E-3,-3.1085704E-2,5E-1,2.5233645E-2,1.210227E-1,5.2271765E-2,-6.6244937E-3],"split_indices":[3,1,0,0,0,0,5,3,0,0,0],"split_type":[0,0,0,0,0,0,0,0,0,0,0],"sum_hessian":[3.135482E1,1.6041245E1,1.5313577E1,1.3801356E1,2.239888E0,1.1789349E0,1.4134642E1,3.269524E0,1.0865118E1,1.6804466E0,1.5890774E0],"tree_param":{"num_deleted":"0","num_feature":"6","num_nodes":"11","size_leaf_vector":"0"}},{"base_weights":[6.6458536E-3,-8.131059E-1,8.6532205E-1,-9.2290527E-1,-7.993185E-2,1.0402251E0,-4.421159E-2,-2.8533474E-1,-9.589223E-1,4.874239E-1,1.1324285E0,-6.5725857E-1,7.183693E-1],"categories":[],"categories_nodes":[],"categories_segments":[],"categories_sizes":[],"default_left":[1,1,1,1,0,1,1,0,0,0,0,0,0],"id":8,"left_children":[1,3,5,7,-1,9,11,-1,-1,-1,-1,-1,-1],"loss_changes":[2.26428E1,1.2513723E0,2.54467E0,5.2972794E-2,0E0,1.21572495E-1,2.1049082E0,0E0,0E0,0E0,0E0,0E0,0E0],"parents":[2147483647,0,0,1,1,2,2,3,3,5,5,6,6],"right_children":[2,4,6,8,-1,10,12,-1,-1,-1,-1,-1,-1],"split_conditions":[9.3457947E-4,6.460673E-1,8.037383E-2,5E-1,-7.993185E-3,6.252994E-1,9.847212E-1,-2.8533474E-2,-9.5892236E-2,4.874239E-2,1.1324286E-1,-6.5725856E-2,7.183693E-2],"split_indices":[3,1,3,4,0,1,0,0,0,0,0,0,0],"split_type":[0,0,0,0,0,0,0,0,0,0,0,0,0],"sum_hessian":[3.0168009E1,1.5460969E1,1.4707041E1,1.3222065E1,2.2389038E0,1.2214503E1,2.492537E0,1.1840656E0,1.2038E1,2.644703E0,9.5698E0,1.4583037E0,1.0342332E0],"tree_param":{"num_deleted":"0","num_feature":"6","num_nodes":"13","size_leaf_vector":"0"}},{"base_weights":[7.5968243E-3,-7.673059E-1,8.242744E-1,-8.7531054E-1,-7.44304E-2,9.94407E-1,-3.8335104E-2,-2.719083E-1,-9.0996504E-1,4.5914382E-1,1.0867884E0,-6.2185645E-1,6.9312197E-1],"categories":[],"categories_nodes":[],"categories_segments":[],"categories_sizes":[],"default_left":[1,1,1,1,0,1,1,0,0,0,0,0,0],"id":9,"left_children":[1,3,5,7,-1,9,11,-1,-1,-1,-1,-1,-1],"loss_changes":[1.9610342E1,1.1251202E0,2.2516165E0,3.8371086E-2,0E0,1.257906E-1,1.9025176E0,0E0,0E0,0E0,0E0,0E0,0E0],"parents":[2147483647,0,0,1,1,2,2,3,3,5,5,6,6],"right_children":[2,4,6,8,-1,10,12,-1,-1,-1,-1,-1,-1],"split_conditions":[9.3457947E-4,6.460673E-1,8.037383E-2,5E-1,-7.44304E-3,6.252994E-1,9.847212E-1,-2.7190832E-2,-9.0996504E-2,4.591438E-2,1.0867884E-1,-6.2185645E-2,6.93122E-2],"split_indices":[3,1,3,4,0,1,0,0,0,0,0,0,0],"split_type":[0,0,0,0,0,0,0,0,0,0,0,0,0],"sum_hessian":[2.8988146E1,1.4905525E1,1.4082621E1,1.2667612E1,2.2379138E0,1.1635049E1,2.4475715E0,1.1684743E0,1.1499137E1,2.591256E0,9.043794E0,1.4448102E0,1.0027614E0],"tree_param":{"num_deleted":"0","num_feature":"6","num_nodes":"13","size_leaf_vector":"0"}},{"base_weights":[8.560745E-3,-7.2459525E-1,7.865046E-1,-8.0980724E-1,3.8642574E-2,-3.010392E-1,9.0287966E-1,-3.73285E-1,-8.743438E-1,1.8127775E-1,1.0966265E0,-9.565076E-1,-3.2949674E-1,-1.7874576E-1,3.9349198E-1],"categories":[],"categories_nodes":[],"categories_segments":[],"categories_sizes":[],"default_left":[1,1,1,1,0,0,1,0,1,1,0,0,0,0,0],"id":10,"left_children":[1,3,5,7,-1,-1,9,-1,11,13,-1,-1,-1,-1,-1],"loss_changes":[1.7015984E1,1.0306034E0,2.1031208E0,6.429386E-2,0E0,0E0,1.6635885E0,0E0,1.9233036E-1,3.7729E-1,0E0,0E0,0E0,0E0,0E0],"parents":[2147483647,0,0,1,1,2,2,3,3,6,6,8,8,9,9],"right_children":[2,4,6,8,-1,-1,10,-1,12,14,-1,-1,-1,-1,-1],"split_conditions":[9.3457947E-4,9.9207926E-1,7.9040605E-1,5.1009333E-1,3.8642574E-3,-3.010392E-2,5E-1,-3.73285E-2,5E-1,7.057004E-1,1.0966265E-1,-9.565076E-2,-3.2949675E-2,-1.7874576E-2,3.93492E-2],"split_indices":[3,0,0,1,0,0,5,0,2,1,0,0,0,0,0],"split_type":[0,0,0,0,0,0,0,0,0,0,0,0,0,0,0],"sum_hessian":[2.7834866E1,1.436524E1,1.3469625E1,1.2867614E1,1.4976261E0,1.148635E0,1.2320991E1,2.5311456E0,1.0336469E1,3.0176244E0,9.303367E0,8.325428E0,2.0110404E0,1.1775723E0,1.8400521E0],"tree_param":{"num_deleted":"0","num_feature":"6","num_nodes":"15","size_leaf_vector":"0"}},{"base_weights":[6.1215186E-3,-6.8619543E-1,7.454799E-1,-7.6984036E-1,3.6322553E-2,9.207678E-1,-8.193045E-2,-3.5175285E-1,-8.3279806E-1,4.1648316E-1,1.013166E0,-6.5030754E-1,5.0355715E-1,-9.145138E-1,-3.1020576E-1],"categories":[],"categories_nodes":[],"categories_segments":[],"categories_sizes":[],"default_left":[1,1,1,1,0,1,1,0,1,0,0,0,0,0,0],"id":11,"left_children":[1,3,5,7,-1,9,11,-1,13,-1,-1,-1,-1,-1,-1],"loss_changes":[1.4734153E1,9.2662907E-1,2.0936875E0,5.9041023E-2,0E0,1.16888046E-1,1.4425925E0,0E0,1.8139505E-1,0E0,0E0,0E0,0E0,0E0,0E0],"parents":[2147483647,0,0,1,1,2,2,3,3,5,5,6,6,8,8],"right_children":[2,4,6,8,-1,10,12,-1,14,-1,-1,-1,-1,-1,-1],"split_conditions":[9.3457947E-4,9.9207926E-1,8.037383E-2,5.1009333E-1,3.6322554E-3,6.252994E-1,2E-1,-3.5175286E-2,5E-1,4.1648317E-2,1.0131659E-1,-6.503075E-2,5.0355714E-2,-9.1451384E-2,-3.1020576E-2],"split_indices":[3,0,3,1,0,1,3,0,2,0,0,0,0,0,0],"split_type":[0,0,0,0,0,0,0,0,0,0,0,0,0,0,0],"sum_hessian":[2.678557E1,1.3869973E1,1.2915597E1,1.2372167E1,1.4978063E0,1.0564634E1,2.3509622E0,2.481333E0,9.890834E0,2.4888172E0,8.075817E0,1.1367358E0,1.2142264E0,7.904829E0,1.986005E0],"tree_param":{"num_deleted":"0","num_feature":"6","num_nodes":"15","size_leaf_vector":"0"}},{"base_weights":[4.9749473E-3,-6.500365E-1,7.0992607E-1,-8.679036E-2,-7.64999E-1,8.833946E-1,-7.856741E-2,-1.9079642E-1,3.4142215E-2,-8.293145E-1,-3.0840805E-1,3.9236894E-1,9.772023E-1,-6.1750144E-1,4.7962236E-1],"categories":[],"categories_nodes":[],"categories_segments":[],"categories_sizes":[],"default_left":[1,1,1,1,1,1,1,0,0,0,0,0,0,0,0],"id":12,"left_children":[1,3,5,7,9,11,13,-1,-1,-1,-1,-1,-1,-1,-1],"loss_changes":[1.2819081E1,8.656888E-1,1.8978434E0,5.13914E-2,9.153271E-2,1.250515E-1,1.297598E0,0E0,0E0,0E0,0E0,0E0,0E0,0E0,0E0],"parents":[2147483647,0,0,1,1,2,2,3,3,4,4,5,5,6,6],"right_children":[2,4,6,8,10,12,14,-1,-1,-1,-1,-1,-1,-1,-1],"split_conditions":[9.3457947E-4,5E-1,8.037383E-2,9.877924E-1,6.456386E-1,6.252994E-1,2E-1,-1.9079642E-2,3.4142216E-3,-8.293145E-2,-3.0840805E-2,3.9236896E-2,9.772023E-2,-6.1750144E-2,4.7962237E-2],"split_indices":[3,4,3,0,1,1,3,0,0,0,0,0,0,0,0],"split_type":[0,0,0,0,0,0,0,0,0,0,0,0,0,0,0],"sum_hessian":[2.576248E1,1.3394635E1,1.2367844E1,2.56799E0,1.0826645E1,1.0038923E1,2.3289201E0,1.0700243E0,1.4979658E0,8.774368E0,2.0522773E0,2.4415586E0,7.597365E0,1.1308366E0,1.1980835E0],"tree_param":{"num_deleted":"0","num_feature":"6","num_nodes":"15","size_leaf_vector":"0"}},{"base_weights":[4.6130368E-3,-4.2863122E-1,1.0130647E0,-7.666439E-1,3.1740785E-1,1.1290421E0,2.7252263E-1,-2.861177E-1,-8.43357E-1,6.274401E-1,-3.839889E-1],"categories":[],"categories_nodes":[],"categories_segments":[],"categories_sizes":[],"default_left":[1,1,1,1,1,0,0,0,0,0,0],"id":13,"left_children":[1,3,5,7,9,-1,-1,-1,-1,-1,-1],"loss_changes":[1.1697105E1,4.9676647E0,3.8318443E-1,2.4476719E-1,1.6649938E0,0E0,0E0,0E0,0E0,0E0,0E0],"parents":[2147483647,0,0,1,1,2,2,3,3,4,4],"right_children":[2,4,6,8,10,-1,-1,-1,-1,-1,-1],"split_conditions":[6.935091E-1,9.3457947E-4,7.943925E-2,5.1009333E-1,6.4734685E-1,1.1290421E-1,2.7252262E-2,-2.861177E-2,-8.433571E-2,6.2744014E-2,-3.8398888E-2],"split_indices":[1,3,3,1,1,0,0,0,0,0,0],"split_type":[0,0,0,0,0,0,0,0,0,0,0],"sum_hessian":[2.4778715E1,1.773464E1,7.0440755E0,1.2185884E1,5.5487556E0,5.6366897E0,1.4073861E0,2.3287086E0,9.857176E0,3.9210224E0,1.6277333E0],"tree_param":{"num_deleted":"0","num_feature":"6","num_nodes":"11","size_leaf_vector":"0"}},{"base_weights":[6.60811E-3,-4.041986E-1,9.751231E-1,-7.263377E-1,2.9553613E-1,2.7096945E-1,1.1158727E0,-2.693814E-1,-8.009388E-1,5.947712E-1,-3.580062E-1,-8.752689E-1,-3.4283197E-1],"categories":[],"categories_nodes":[],"categories_segments":[],"categories_sizes":[],"default_left":[1,1,1,1,1,0,0,0,1,0,0,0,0],"id":14,"left_children":[1,3,5,7,9,-1,-1,-1,11,-1,-1,-1,-1],"loss_changes":[1.026977E1,4.302622E0,4.593439E-1,2.1743822E-1,1.4699888E0,0E0,0E0,0E0,5.465412E-2,0E0,0E0,0E0,0E0],"parents":[2147483647,0,0,1,1,2,2,3,3,4,4,8,8],"right_children":[2,4,6,8,10,-1,-1,-1,12,-1,-1,-1,-1],"split_conditions":[6.935091E-1,9.3457947E-4,5E-1,5.1009333E-1,6.4734685E-1,2.7096946E-2,1.1158728E-1,-2.693814E-2,5E-1,5.947712E-2,-3.580062E-2,-8.752689E-2,-3.42832E-2],"split_indices":[1,3,5,1,1,0,0,0,2,0,0,0,0],"split_type":[0,0,0,0,0,0,0,0,0,0,0,0,0],"sum_hessian":[2.3821089E1,1.7135523E1,6.685566E0,1.1707627E1,5.4278955E0,1.601023E0,5.0845428E0,2.2902224E0,9.417404E0,3.7848618E0,1.6430337E0,7.3192053E0,2.0981994E0],"tree_param":{"num_deleted":"0","num_feature":"6","num_nodes":"13","size_leaf_vector":"0"}},{"base_weights":[6.90749E-3,-3.832721E-1,9.378676E-1,-6.9103676E-1,2.7522165E-1,1.0661795E0,2.134474E-1,-2.5356907E-1,-7.642279E-1,5.63705E-1,-3.3389616E-1,-8.386043E-1,-3.2281697E-1],"categories":[],"categories_nodes":[],"categories_segments":[],"categories_sizes":[],"default_left":[1,1,1,1,1,0,0,0,1,0,0,0,0],"id":15,"left_children":[1,3,5,7,9,-1,-1,-1,11,-1,-1,-1,-1],"loss_changes":[9.053064E0,3.7519372E0,4.5641088E-1,1.9882679E-1,1.2975383E0,0E0,0E0,0E0,5.7849407E-2,0E0,0E0,0E0,0E0],"parents":[2147483647,0,0,1,1,2,2,3,3,4,4,8,8],"right_children":[2,4,6,8,10,-1,-1,-1,12,-1,-1,-1,-1],"split_conditions":[6.935091E-1,9.3457947E-4,7.943925E-2,5.1009333E-1,6.4734685E-1,1.0661795E-1,2.1344742E-2,-2.5356907E-2,5E-1,5.6370504E-2,-3.3389617E-2,-8.386043E-2,-3.2281697E-2],"split_indices":[1,3,3,1,1,0,0,0,2,0,0,0,0],"split_type":[0,0,0,0,0,0,0,0,0,0,0,0,0],"sum_hessian":[2.2933393E1,1.6574903E1,6.358491E0,1.1261923E1,5.3129807E0,5.000937E0,1.3575538E0,2.2540166E0,9.007906E0,3.6560152E0,1.6569653E0,6.938897E0,2.0690084E0],"tree_param":{"num_deleted":"0","num_feature":"6","num_nodes":"13","size_leaf_vector":"0"}},{"base_weights":[7.0646196E-3,-3.6333883E-1,9.0374345E-1,-6.573299E-1,2.5633705E-1,2.1289901E-1,1.0552533E0,-2.3863305E-1,-7.2913677E-1,4.9156508E-1,-4.082369E-1,-8.035256E-1,-3.0396184E-1,8.043683E-2,6.138936E-1,1.723022E-1,7.31128E-1],"categories":[],"categories_nodes":[],"categories_segments":[],"categories_sizes":[],"default_left":[1,1,1,1,1,0,0,0,1,1,0,0,0,0,1,0,0],"id":16,"left_children":[1,3,5,7,9,-1,-1,-1,11,13,-1,-1,-1,-1,15,-1,-1],"loss_changes":[7.993515E0,3.273797E0,5.1150703E-1,1.8201256E-1,1.1705425E0,0E0,0E0,0E0,6.0061455E-2,2.0389056E-1,0E0,0E0,0E0,0E0,6.714332E-2,0E0,0E0],"parents":[2147483647,0,0,1,1,2,2,3,3,4,4,8,8,9,9,14,14],"right_children":[2,4,6,8,10,-1,-1,-1,12,14,-1,-1,-1,-1,16,-1,-1],"split_conditions":[6.935091E-1,9.3457947E-4,5E-1,5.1009333E-1,6.7192805E-1,2.1289902E-2,1.0552533E-1,-2.3863306E-2,5E-1,9.84324E-1,-4.082369E-2,-8.035257E-2,-3.0396184E-2,8.043683E-3,6.252994E-1,1.723022E-2,7.31128E-2],"split_indices":[1,3,5,1,1,0,0,0,2,0,0,0,0,0,1,0,0],"split_type":[0,0,0,0,0,0,0,0,0,0,0,0,0,0,0,0,0],"sum_hessian":[2.207856E1,1.6045301E1,6.033259E0,1.0841185E1,5.2041173E0,1.5177783E0,4.5154805E0,2.2199855E0,8.6212E0,4.0359206E0,1.1681964E0,6.580075E0,2.0411246E0,1.3055861E0,2.7303348E0,1.0909044E0,1.6394303E0],"tree_param":{"num_deleted":"0","num_feature":"6","num_nodes":"17","size_leaf_vector":"0"}},{"base_weights":[8.993726E-3,-3.418498E-1,8.698869E-1,-6.2506765E-1,2.439432E-1,1.0108042E0,1.6176908E-1,-2.2452815E-1,-6.9548225E-1,5.165437E-1,-3.0222082E-1,-7.69808E-1,-2.8619444E-1,2.4223182E-1,6.8012387E-1],"categories":[],"categories_nodes":[],"categories_segments":[],"categories_sizes":[],"default_left":[1,1,1,1,1,0,0,0,1,1,0,0,0,0,0],"id":17,"left_children":[1,3,5,7,9,-1,-1,-1,11,13,-1,-1,-1,-1,-1],"loss_changes":[7.0334697E0,2.9003465E0,5.0898266E-1,1.6665125E-1,1.0668674E0,0E0,0E0,0E0,6.130314E-2,3.4916997E-2,0E0,0E0,0E0,0E0,0E0],"parents":[2147483647,0,0,1,1,2,2,3,3,4,4,8,8,9,9],"right_children":[2,4,6,8,10,-1,-1,-1,12,14,-1,-1,-1,-1,-1],"split_conditions":[6.935091E-1,9.3457947E-4,7.943925E-2,5.1009333E-1,6.4734685E-1,1.0108042E-1,1.6176907E-2,-2.2452815E-2,5E-1,1.2149532E-2,-3.0222083E-2,-7.69808E-2,-2.8619444E-2,2.4223182E-2,6.801239E-2],"split_indices":[1,3,3,1,1,0,0,0,2,3,0,0,0,0,0],"split_type":[0,0,0,0,0,0,0,0,0,0,0,0,0,0,0],"sum_hessian":[2.13021E1,1.5562683E1,5.7394156E0,1.0445481E1,5.117202E0,4.4303184E0,1.309097E0,2.1880202E0,8.257461E0,3.4496512E0,1.6675508E0,6.2429137E0,2.0145469E0,2.2154012E0,1.2342501E0],"tree_param":{"num_deleted":"0","num_feature":"6","num_nodes":"15","size_leaf_vector":"0"}},{"base_weights":[1.0932257E-2,-3.2092038E-1,8.3864224E-1,-5.941361E-1,2.3290794E-1,1.6173238E-1,1.0013027E0,-2.112118E-1,-6.63126E-1,4.5488513E-1,-3.6649802E-1,-7.3728E-1,-2.6944873E-1,5.82602E-2,5.797746E-1,1.503528E-1,7.005787E-1],"categories":[],"categories_nodes":[],"categories_segments":[],"categories_sizes":[],"default_left":[1,1,1,1,1,0,0,0,1,1,0,0,0,0,1,0,0],"id":18,"left_children":[1,3,5,7,9,-1,-1,-1,11,13,-1,-1,-1,-1,15,-1,-1],"loss_changes":[6.1927867E0,2.5771441E0,5.480938E-1,1.5250349E-1,9.707267E-1,0E0,0E0,0E0,6.1636448E-2,2.0675516E-1,0E0,0E0,0E0,0E0,8.044994E-2,0E0,0E0],"parents":[2147483647,0,0,1,1,2,2,3,3,4,4,8,8,9,9,14,14],"right_children":[2,4,6,8,10,-1,-1,-1,12,14,-1,-1,-1,-1,16,-1,-1],"split_conditions":[6.935091E-1,9.3457947E-4,5E-1,5.1009333E-1,6.7192805E-1,1.6173238E-2,1.00130275E-1,-2.112118E-2,5E-1,9.84324E-1,-3.6649805E-2,-7.3728E-2,-2.6944874E-2,5.82602E-3,6.252994E-1,1.5035281E-2,7.005787E-2],"split_indices":[1,3,5,1,1,0,0,0,2,0,0,0,0,0,1,0,0],"split_type":[0,0,0,0,0,0,0,0,0,0,0,0,0,0,0,0,0],"sum_hessian":[2.0565815E1,1.5117183E1,5.4486327E0,1.0074453E1,5.04273E0,1.442012E0,4.006621E0,2.158014E0,7.916439E0,3.85589E0,1.1868398E0,5.927178E0,1.9892612E0,1.2745761E0,2.581314E0,1.0595468E0,1.5217671E0],"tree_param":{"num_deleted":"0","num_feature":"6","num_nodes":"17","size_leaf_vector":"0"}},{"base_weights":[1.2698244E-2,-3.0153078E-1,8.074562E-1,-5.6444895E-1,2.2200115E-1,9.6099144E-1,1.1652095E-1,-1.9864386E-1,-6.319645E-1,4.7954828E-1,-2.738537E-1,-7.0581305E-1,-2.53664E-1,2.1057065E-1,6.4904845E-1],"categories":[],"categories_nodes":[],"categories_segments":[],"categories_sizes":[],"default_left":[1,1,1,1,1,0,0,0,1,1,0,0,0,0,0],"id":19,"left_children":[1,3,5,7,9,-1,-1,-1,11,13,-1,-1,-1,-1,-1],"loss_changes":[5.4575844E0,2.2850742E0,5.444417E-1,1.3940549E-1,8.9287305E-1,0E0,0E0,0E0,6.115079E-2,5.8838427E-2,0E0,0E0,0E0,0E0,0E0],"parents":[2147483647,0,0,1,1,2,2,3,3,4,4,8,8,9,9],"right_children":[2,4,6,8,10,-1,-1,-1,12,14,-1,-1,-1,-1,-1],"split_conditions":[6.935091E-1,9.3457947E-4,7.943925E-2,5.1009333E-1,6.4734685E-1,9.6099146E-2,1.1652095E-2,-1.9864386E-2,5E-1,1.2149532E-2,-2.7385369E-2,-7.058131E-2,-2.53664E-2,2.1057066E-2,6.4904846E-2],"split_indices":[1,3,3,1,1,0,0,0,2,3,0,0,0,0,0],"split_type":[0,0,0,0,0,0,0,0,0,0,0,0,0,0,0],"sum_hessian":[1.9878494E1,1.46907215E1,5.1877728E0,9.727438E0,4.9632835E0,3.9247773E0,1.2629954E0,2.1298609E0,7.5975766E0,3.2882507E0,1.6750327E0,5.6323338E0,1.965243E0,2.1379187E0,1.1503321E0],"tree_param":{"num_deleted":"0","num_feature":"6","num_nodes":"15","size_leaf_vector":"0"}},{"base_weights":[1.4490215E-2,-2.8259766E-1,7.7851284E-1,-5.3594023E-1,2.1235514E-1,1.1669644E-1,9.524196E-1,-1.8678574E-1,-6.019209E-1,-3.667721E-1,4.1168386E-1,-8.2112086E-1,-3.7179583E-1,-3.532893E-1,7.026043E-1,-1.9919842E-2,-6.626016E-1],"categories":[],"categories_nodes":[],"categories_segments":[],"categories_sizes":[],"default_left":[1,1,1,1,1,0,0,0,1,0,1,0,1,0,0,0,0],"id":20,"left_children":[1,3,5,7,9,-1,-1,-1,11,-1,13,-1,15,-1,-1,-1,-1],"loss_changes":[4.8118105E0,2.0322657E0,5.713923E-1,1.2724113E-1,8.316134E-1,0E0,0E0,0E0,1.1339593E-1,0E0,1.3292356E0,0E0,5.881389E-1,0E0,0E0,0E0,0E0],"parents":[2147483647,0,0,1,1,2,2,3,3,4,4,8,8,10,10,12,12],"right_children":[2,4,6,8,10,-1,-1,-1,12,-1,14,-1,16,-1,-1,-1,-1],"split_conditions":[6.935091E-1,9.3457947E-4,5E-1,5.1009333E-1,8.120407E-1,1.1669644E-2,9.524196E-2,-1.8678574E-2,6.456077E-1,-3.6677208E-2,5E-1,-8.211209E-2,6.456739E-1,-3.5328932E-2,7.026043E-2,-1.9919842E-3,-6.626016E-2],"split_indices":[1,3,5,1,0,0,0,0,1,0,5,0,1,0,0,0,0],"split_type":[0,0,0,0,0,0,0,0,0,0,0,0,0,0,0,0,0],"sum_hessian":[1.922983E1,1.4299594E1,4.930235E0,9.403555E0,4.896039E0,1.3736657E0,3.5565693E0,2.1034577E0,7.3000975E0,1.038566E0,3.8574731E0,2.4235013E0,4.8765965E0,1.003746E0,2.853727E0,2.690084E0,2.1865122E0],"tree_param":{"num_deleted":"0","num_feature":"6","num_nodes":"17","size_leaf_vector":"0"}},{"base_weights":[1.0532801E-2,-2.7163714E-1,7.495459E-1,-5.109184E-1,1.9484484E-1,9.154742E-1,7.6938935E-2,-1.756009E-1,-5.7537144E-1,4.5009792E-1,-2.777629E-1,-7.977876E-1,-3.5065773E-1,1.8894391E-1,6.208769E-1,-1.8488998E-2,-6.304869E-1],"categories":[],"categories_nodes":[],"categories_segments":[],"categories_sizes":[],"default_left":[1,1,1,1,1,0,0,0,1,1,0,0,1,0,0,0,0],"id":21,"left_children":[1,3,5,7,9,-1,-1,-1,11,13,-1,-1,15,-1,-1,-1,-1],"loss_changes":[4.3048105E0,1.7701749E0,5.6576085E-1,1.1873269E-1,8.2449937E-1,0E0,0E0,0E0,1.2458706E-1,6.762284E-2,0E0,0E0,5.2824146E-1,0E0,0E0,0E0,0E0],"parents":[2147483647,0,0,1,1,2,2,3,3,4,4,8,8,9,9,12,12],"right_children":[2,4,6,8,10,-1,-1,-1,12,14,-1,-1,16,-1,-1,-1,-1],"split_conditions":[6.935091E-1,9.3457947E-4,7.943925E-2,5.1009333E-1,6.4734685E-1,9.154742E-2,7.6938937E-3,-1.756009E-2,6.456077E-1,1.2149532E-2,-2.777629E-2,-7.977876E-2,6.456739E-1,1.8894391E-2,6.2087692E-2,-1.8488998E-3,-6.304869E-2],"split_indices":[1,3,3,1,1,0,0,0,1,3,0,0,1,0,0,0,0],"split_type":[0,0,0,0,0,0,0,0,0,0,0,0,0,0,0,0,0],"sum_hessian":[1.8667482E1,1.3967025E1,4.7004566E0,9.168697E0,4.798328E0,3.4807034E0,1.219753E0,2.078704E0,7.089993E0,3.1465313E0,1.6517968E0,2.2815404E0,4.8084526E0,2.0769062E0,1.069625E0,2.6860604E0,2.1223922E0],"tree_param":{"num_deleted":"0","num_feature":"6","num_nodes":"17","size_leaf_vector":"0"}},{"base_weights":[9.4597135E-3,-2.5697628E-1,7.225463E-1,-4.8714966E-1,1.867573E-1,7.715598E-2,9.075303E-1,-1.6505444E-1,-5.501324E-1,3.9645407E-1,-3.3317894E-1,-6.382459E-1,-1.67952E-1,3.1561814E-2,5.206767E-1,1.11705475E-1,6.486761E-1],"categories":[],"categories_nodes":[],"categories_segments":[],"categories_sizes":[],"default_left":[1,1,1,1,1,0,0,0,1,1,0,0,0,0,1,0,0],"id":22,"left_children":[1,3,5,7,9,-1,-1,-1,11,13,-1,-1,-1,-1,15,-1,-1],"loss_changes":[3.8257844E0,1.590891E0,5.83477E-1,1.1098266E-1,7.57776E-1,0E0,0E0,0E0,1.5854597E-1,1.8962896E-1,0E0,0E0,0E0,0E0,1.0169804E-1,0E0,0E0],"parents":[2147483647,0,0,1,1,2,2,3,3,4,4,8,8,9,9,14,14],"right_children":[2,4,6,8,10,-1,-1,-1,12,14,-1,-1,-1,-1,16,-1,-1],"split_conditions":[6.935091E-1,9.3457947E-4,5E-1,5.1009333E-1,6.7192805E-1,7.7155977E-3,9.0753034E-2,-1.6505444E-2,5E-1,9.84324E-1,-3.3317894E-2,-6.382459E-2,-1.6795201E-2,3.1561814E-3,6.252994E-1,1.1170547E-2,6.486761E-2],"split_indices":[1,3,5,1,1,0,0,0,2,0,0,0,0,0,1,0,0],"split_type":[0,0,0,0,0,0,0,0,0,0,0,0,0,0,0,0,0],"sum_hessian":[1.8159275E1,1.3685489E1,4.473786E0,8.946776E0,4.738713E0,1.3123226E0,3.161463E0,2.0555043E0,6.8912716E0,3.546044E0,1.1926689E0,5.0556545E0,1.835617E0,1.2191068E0,2.3269372E0,1.0010817E0,1.3258555E0],"tree_param":{"num_deleted":"0","num_feature":"6","num_nodes":"17","size_leaf_vector":"0"}},{"base_weights":[1.148312E-2,-2.4065375E-1,6.9551754E-1,-4.615595E-1,1.7849618E-1,8.733922E-1,4.238921E-2,-1.551132E-1,-5.228166E-1,-3.5251886E-1,3.7143996E-1,-7.6125956E-1,-2.982366E-1,-3.469025E-1,6.650576E-1,2.5488963E-2,-5.81991E-1],"categories":[],"categories_nodes":[],"categories_segments":[],"categories_sizes":[],"default_left":[1,1,1,1,1,0,0,0,1,0,1,0,1,0,0,0,0],"id":23,"left_children":[1,3,5,7,9,-1,-1,-1,11,-1,13,-1,15,-1,-1,-1,-1],"loss_changes":[3.3790834E0,1.4110315E0,5.7550144E-1,1.00538015E-1,7.1223354E-1,0E0,0E0,0E0,1.8218994E-1,0E0,1.2111506E0,0E0,5.2735996E-1,0E0,0E0,0E0,0E0],"parents":[2147483647,0,0,1,1,2,2,3,3,4,4,8,8,10,10,12,12],"right_children":[2,4,6,8,10,-1,-1,-1,12,-1,14,-1,16,-1,-1,-1,-1],"split_conditions":[6.935091E-1,9.3457947E-4,7.943925E-2,5.1009333E-1,8.120407E-1,8.733922E-2,4.238921E-3,-1.5511321E-2,6.456077E-1,-3.5251886E-2,5E-1,-7.612596E-2,6.456739E-1,-3.469025E-2,6.650576E-2,2.5488965E-3,-5.8199104E-2],"split_indices":[1,3,3,1,0,0,0,0,1,0,5,0,1,0,0,0,0],"split_type":[0,0,0,0,0,0,0,0,0,0,0,0,0,0,0,0,0],"sum_hessian":[1.7621784E1,1.33493595E1,4.272424E0,8.675767E0,4.673593E0,3.0928617E0,1.1795627E0,2.0337663E0,6.642E0,1.025149E0,3.6484442E0,2.0624917E0,4.579509E0,1.0059316E0,2.6425126E0,2.5642347E0,2.015274E0],"tree_param":{"num_deleted":"0","num_feature":"6","num_nodes":"17","size_leaf_vector":"0"}},{"base_weights":[7.692917E-3,-2.3174116E-1,6.702414E-1,-4.4000244E-1,1.6321257E-1,4.2561427E-2,8.658949E-1,-1.4574522E-1,-4.9979782E-1,4.1044942E-1,-2.7184996E-1,-5.938025E-1,-1.2604035E-1,1.2331424E-1,4.677285E-1],"categories":[],"categories_nodes":[],"categories_segments":[],"categories_sizes":[],"default_left":[1,1,1,1,1,0,0,0,1,1,0,0,0,0,0],"id":24,"left_children":[1,3,5,7,9,-1,-1,-1,11,13,-1,-1,-1,-1,-1],"loss_changes":[3.0338774E0,1.2292743E0,5.862391E-1,9.403157E-2,7.126204E-1,0E0,0E0,0E0,1.8763912E-1,7.475257E-3,0E0,0E0,0E0,0E0,0E0],"parents":[2147483647,0,0,1,1,2,2,3,3,4,4,8,8,9,9],"right_children":[2,4,6,8,10,-1,-1,-1,12,14,-1,-1,-1,-1,-1],"split_conditions":[6.935091E-1,9.3457947E-4,5E-1,5.1009333E-1,6.4734685E-1,4.256143E-3,8.658949E-2,-1.4574522E-2,5E-1,4.672897E-3,-2.7184997E-2,-5.9380252E-2,-1.2604035E-2,1.2331424E-2,4.677285E-2],"split_indices":[1,3,5,1,1,0,0,0,2,3,0,0,0,0,0],"split_type":[0,0,0,0,0,0,0,0,0,0,0,0,0,0,0],"sum_hessian":[1.714558E1,1.3071856E1,4.073725E0,8.484089E0,4.587767E0,1.2573929E0,2.8163323E0,2.0134015E0,6.470687E0,2.9614253E0,1.6263418E0,4.699873E0,1.7708141E0,1.0168598E0,1.9445655E0],"tree_param":{"num_deleted":"0","num_feature":"6","num_nodes":"15","size_leaf_vector":"0"}}]},"name":"gbtree"},"learner_model_param":{"base_score":"5E-1","num_class":"0","num_feature":"6","num_target":"1"},"objective":{"name":"binary:logistic","reg_loss_param":{"scale_pos_weight":"1"}}},"version":[1,6,2]}