{"learner":{"attributes":{"best_iteration":"24","best_ntree_limit":"25","scikit_learn":"{\"use_label_encoder\": false, \"n_estimators\": 25, \"objective\": \"binary:logistic\", \"max_depth\": 5, \"max_leaves\": null, \"max_bin\": null, \"grow_policy\": null, \"learning_rate\": 0.1, \"verbosity\": null, \"booster\": \"gbtree\", \"tree_method\": null, \"gamma\": null, \"min_child_weight\": null, \"max_delta_step\": null, \"subsample\": null, \"sampling_method\": null, \"colsample_bytree\": null, \"colsample_bylevel\": null, \"colsample_bynode\": null, \"reg_alpha\": null, \"reg_lambda\": null, \"scale_pos_weight\": null, \"base_score\": null, \"missing\": NaN, \"num_parallel_tree\": null, \"random_state\": null, \"n_jobs\": null, \"monotone_constraints\": null, \"interaction_constraints\": null, \"importance_type\": null, \"gpu_id\": null, \"validate_parameters\": null, \"predictor\": null, \"enable_categorical\": false, \"max_cat_to_onehot\": null, \"eval_metric\": null, \"early_stopping_rounds\": null, \"callbacks\": null, \"classes_\": [0, 1], \"n_classes_\": 2, \"_estimator_type\": \"classifier\"}"},"feature_names":[],"feature_types":[],"gradient_booster":{"model":{"gbtree_model_param":{"num_parallel_tree":"1","num_trees":"25","size_leaf_vector":"0"},"tree_info":[0,0,0,0,0,0,0,0,0,0,0,0,0,0,0,0,0,0,0,0,0,0,0,0,0],"trees":[{"base_weights":[1.1560693E-2,-9.724771E-1,1.5882353E0,-1.6551725E0,-1.8181819E-1,1.6875E0,-0E0,9.0909094E-1,-8.108108E-1,6.666667E-1,1.7857143E0,-0E0,1.25E0,-1.125E0,6.666667E-1,1E0,-0E0,-0E0,-1.6363636E0],"categories":[],"categories_nodes":[],"categories_segments":[],"categories_sizes":[],"default_left":[1,1,1,0,1,1,0,1,1,1,0,0,0,1,0,0,0,0,0],"id":0,"left_children":[1,3,5,-1,7,9,-1,11,13,15,-1,-1,-1,17,-1,-1,-1,-1,-1],"loss_changes":[6.864722E1,1.4408039E1,2.6801453E0,0E0,1.017199E1,4.1368866E-1,0E0,1.7045455E0,5.043919E0,6.666666E-1,0E0,0E0,0E0,4.602273E0,0E0,0E0,0E0,0E0,0E0],"parents":[2147483647,0,0,1,1,2,2,4,4,5,5,7,7,8,8,9,9,13,13],"right_children":[2,4,6,-1,8,10,-1,12,14,16,-1,-1,-1,18,-1,-1,-1,-1,-1],"split_conditions":[9.302852E-1,8.719992E-1,7.203993E-1,-1.6551726E-1,5.9511566E-1,9.3428105E-1,-0E0,5.267325E-1,9.783441E-1,9.32271E-1,1.7857143E-1,-0E0,1.25E-1,9.0148646E-1,6.666667E-2,1E-1,-0E0,-0E0,-1.6363637E-1],"split_indices":[1,1,2,0,3,1,0,2,0,1,0,0,0,1,0,0,0,0,0],"split_type":[0,0,0,0,0,0,0,0,0,0,0,0,0,0,0,0,0,0,0],"sum_hessian":[4.225E1,2.625E1,1.6E1,1.35E1,1.275E1,1.5E1,1E0,4.5E0,8.25E0,2E0,1.3E1,1.5E0,3E0,7E0,1.25E0,1E0,1E0,2.5E0,4.5E0],"tree_param":{"num_deleted":"0","num_feature":"8","num_nodes":"19","size_leaf_vector":"0"}},{"base_weights":[1.374369E-2,-8.8489E-1,1.4552028E0,-1.5110126E0,-1.621873E-1,1.5467571E0,-0E0,7.7670544E-1,-7.8810656E-1,6.338885E-1,1.6323568E0,-2.1280119E-1,1.2337931E0,-0E0,-1.1048409E0,5E-1,-4E-1,-1.457718E0,6.0083824E-3],"categories":[],"categories_nodes":[],"categories_segments":[],"categories_sizes":[],"default_left":[1,1,1,0,1,1,0,1,1,0,0,0,0,1,1,0,0,0,0],"id":1,"left_children":[1,3,5,-1,7,9,-1,11,13,-1,-1,-1,-1,15,17,-1,-1,-1,-1],"loss_changes":[5.6999535E1,1.2024435E1,2.2508469E0,0E0,8.667295E0,2.0727539E-1,0E0,2.9701347E0,2.1768308E0,0E0,0E0,0E0,0E0,9E-1,2.4471784E0,0E0,0E0,0E0,0E0],"parents":[2147483647,0,0,1,1,2,2,4,4,5,5,7,7,8,8,13,13,14,14],"right_children":[2,4,6,-1,8,10,-1,12,14,-1,-1,-1,-1,16,18,-1,-1,-1,-1],"split_conditions":[9.302852E-1,8.719992E-1,7.203993E-1,-1.5110126E-1,5.9733033E-1,9.3428105E-1,-0E0,1.5E0,9.0148646E-1,6.338885E-2,1.6323568E-1,-2.128012E-2,1.2337931E-1,9.2304146E-1,9.7358465E-1,5E-2,-4.0000003E-2,-1.457718E-1,6.008383E-4],"split_indices":[1,1,2,0,3,1,0,5,1,0,0,0,0,0,0,0,0,0,0],"split_type":[0,0,0,0,0,0,0,0,0,0,0,0,0,0,0,0,0,0,0],"sum_hessian":[4.200931E1,2.6114893E1,1.5894418E1,1.3407959E1,1.2706934E1,1.4894418E1,1E0,4.986368E0,7.720566E0,1.9975042E0,1.2896914E1,1.7444378E0,3.2419302E0,2.5E0,5.220566E0,1E0,1.5E0,3.7250082E0,1.4955575E0],"tree_param":{"num_deleted":"0","num_feature":"8","num_nodes":"19","size_leaf_vector":"0"}},{"base_weights":[1.356977E-2,-8.1389207E-1,1.3461483E0,-1.3948381E0,-1.4958186E-1,1.4323298E0,-0E0,7.852139E-1,-6.9124955E-1,5.927131E-1,1.5115881E0,-4.5102865E-2,1.1097537E0,-9.755148E-1,6.1665314E-1,2.8588898E-3,-1.4282509E0],"categories":[],"categories_nodes":[],"categories_segments":[],"categories_sizes":[],"default_left":[1,1,1,0,1,1,0,1,1,0,0,0,0,1,0,0,0],"id":2,"left_children":[1,3,5,-1,7,9,-1,11,13,-1,-1,-1,-1,15,-1,-1,-1],"loss_changes":[4.785021E1,1.0127214E1,1.9281254E0,0E0,7.4364944E0,1.4351654E-1,0E0,1.5221536E0,4.0040507E0,0E0,0E0,0E0,0E0,3.5055666E0,0E0,0E0,0E0],"parents":[2147483647,0,0,1,1,2,2,4,4,5,5,7,7,8,8,13,13],"right_children":[2,4,6,-1,8,10,-1,12,14,-1,-1,-1,-1,16,-1,-1,-1],"split_conditions":[9.302852E-1,8.719992E-1,7.203993E-1,-1.3948381E-1,5.9511566E-1,9.3428105E-1,-0E0,5.267325E-1,9.783441E-1,5.9271313E-2,1.5115881E-1,-4.5102867E-3,1.1097538E-1,9.0148646E-1,6.1665315E-2,2.85889E-4,-1.428251E-1],"split_indices":[1,1,2,0,3,1,0,2,0,0,0,0,0,1,0,0,0],"split_type":[0,0,0,0,0,0,0,0,0,0,0,0,0,0,0,0,0],"sum_hessian":[4.1401722E1,2.5781801E1,1.5619921E1,1.3167238E1,1.2614562E1,1.4619921E1,1E0,4.462931E0,8.151631E0,1.9923518E0,1.2627569E1,1.4961474E0,2.9667835E0,6.9050055E0,1.2466258E0,2.4987755E0,4.40623E0],"tree_param":{"num_deleted":"0","num_feature":"8","num_nodes":"17","size_leaf_vector":"0"}},{"base_weights":[1.4802085E-2,-7.518695E-1,1.255704E0,-1.2984934E0,-1.3465637E-1,1.3381801E0,-0E0,6.7461795E-1,-6.785616E-1,5.5488384E-1,1.4136375E0,-2.2686526E-1,1.1024668E0,2.6546288E-3,-9.6040547E-1,2.243472E-1,-2.2021809E-1,-1.2777518E0,9.255875E-3],"categories":[],"categories_nodes":[],"categories_segments":[],"categories_sizes":[],"default_left":[1,1,1,0,1,1,0,1,1,0,0,0,0,1,1,0,0,0,0],"id":3,"left_children":[1,3,5,-1,7,9,-1,11,13,-1,-1,-1,-1,15,17,-1,-1,-1,-1],"loss_changes":[4.043107E1,8.691764E0,1.680357E0,0E0,6.3819885E0,1.1548233E-1,0E0,2.5300682E0,1.643686E0,0E0,0E0,0E0,0E0,2.2227715E-1,1.8732028E0,0E0,0E0,0E0,0E0],"parents":[2147483647,0,0,1,1,2,2,4,4,5,5,7,7,8,8,13,13,14,14],"right_children":[2,4,6,-1,8,10,-1,12,14,-1,-1,-1,-1,16,18,-1,-1,-1,-1],"split_conditions":[9.302852E-1,8.719992E-1,7.203993E-1,-1.2984934E-1,5.9733033E-1,9.3428105E-1,-0E0,1.5E0,9.0148646E-1,5.5488385E-2,1.4136375E-1,-2.2686526E-2,1.1024668E-1,8.877286E-1,9.7358465E-1,2.243472E-2,-2.202181E-2,-1.2777518E-1,9.255875E-4],"split_indices":[1,1,2,0,3,1,0,5,1,0,0,0,0,1,0,0,0,0,0],"split_type":[0,0,0,0,0,0,0,0,0,0,0,0,0,0,0,0,0,0,0],"sum_hessian":[4.05056E1,2.5280523E1,1.5225077E1,1.2821547E1,1.2458977E1,1.4225077E1,1E0,4.9112406E0,7.5477366E0,1.9839554E0,1.2241121E1,1.7318863E0,3.1793542E0,2.4987767E0,5.0489597E0,1.2493883E0,1.2493883E0,3.564618E0,1.4843416E0],"tree_param":{"num_deleted":"0","num_feature":"8","num_nodes":"19","size_leaf_vector":"0"}},{"base_weights":[1.441622E-2,-6.998579E-1,1.1788921E0,-1.2166458E0,-1.2595811E-1,1.2588265E0,-0E0,-1.2663827E0,-3.6667407E-1,6.8557805E-1,-6.0057104E-1,5.1999515E-1,1.3322287E0,-8.199028E-2,1.0004525E0,-8.6410284E-1,5.723564E-1,2.507148E-3,-1.282375E0],"categories":[],"categories_nodes":[],"categories_segments":[],"categories_sizes":[],"default_left":[1,1,1,1,1,1,0,0,0,1,1,0,0,0,0,1,0,0,0],"id":4,"left_children":[1,3,5,7,9,11,-1,-1,-1,13,15,-1,-1,-1,-1,17,-1,-1,-1],"loss_changes":[3.446346E1,7.4673243E0,1.4840202E0,1.0232353E-1,5.5305815E0,1.0707092E-1,0E0,0E0,0E0,1.3801808E0,3.2514017E0,0E0,0E0,0E0,0E0,2.7874126E0,0E0,0E0,0E0],"parents":[2147483647,0,0,1,1,2,2,3,3,4,4,5,5,9,9,10,10,15,15],"right_children":[2,4,6,8,10,12,-1,-1,-1,14,16,-1,-1,-1,-1,18,-1,-1,-1],"split_conditions":[9.302852E-1,8.719992E-1,7.203993E-1,9.7892976E-1,5.9511566E-1,9.3428105E-1,-0E0,-1.2663828E-1,-3.6667407E-2,5.267325E-1,9.783441E-1,5.1999517E-2,1.3322286E-1,-8.199028E-3,1.0004526E-1,9.0148646E-1,5.723564E-2,2.507148E-4,-1.282375E-1],"split_indices":[1,1,2,0,3,1,0,0,0,2,0,0,0,0,0,1,0,0,0],"split_type":[0,0,0,0,0,0,0,0,0,0,0,0,0,0,0,0,0,0,0],"sum_hessian":[3.9442677E1,2.4694433E1,1.4748245E1,1.2404451E1,1.2289982E1,1.3748245E1,1E0,1.1255892E1,1.1485603E0,4.3712034E0,7.9187784E0,1.9730127E0,1.1775232E1,1.4866968E0,2.8845065E0,6.680995E0,1.2377832E0,2.4984696E0,4.1825256E0],"tree_param":{"num_deleted":"0","num_feature":"8","num_nodes":"19","size_leaf_vector":"0"}},{"base_weights":[1.44722685E-2,-6.5373975E-1,1.1123137E0,-1.1477798E0,-1.14135884E-1,1.1905419E0,-0E0,-1.1950197E0,-3.491731E-1,5.913808E-1,-5.93344E-1,4.8771152E-1,1.2631361E0,-2.3730527E-1,9.9849415E-1,-7.7778316E-1,1.7940456E-1,2.1175736E-1,-1.0351782E0],"categories":[],"categories_nodes":[],"categories_segments":[],"categories_sizes":[],"default_left":[1,1,1,1,1,1,0,0,0,1,1,0,0,0,0,1,0,0,0],"id":5,"left_children":[1,3,5,7,9,11,-1,-1,-1,13,15,-1,-1,-1,-1,17,-1,-1,-1],"loss_changes":[2.9516485E1,6.540452E0,1.3242569E0,7.143021E-2,4.770264E0,1.0942078E-1,0E0,0E0,0E0,2.189692E0,1.3201392E0,0E0,0E0,0E0,0E0,1.9702282E0,0E0,0E0,0E0],"parents":[2147483647,0,0,1,1,2,2,3,3,4,4,5,5,9,9,10,10,15,15],"right_children":[2,4,6,8,10,12,-1,-1,-1,14,16,-1,-1,-1,-1,18,-1,-1,-1],"split_conditions":[9.302852E-1,8.719992E-1,7.203993E-1,9.7892976E-1,5.9733033E-1,9.3428105E-1,-0E0,-1.1950197E-1,-3.491731E-2,1.5E0,8.3E1,4.8771154E-2,1.2631361E-1,-2.3730528E-2,9.984942E-2,8.877286E-1,1.7940456E-2,2.1175737E-2,-1.0351782E-1],"split_indices":[1,1,2,0,3,1,0,0,0,5,5,0,0,0,0,1,0,0,0],"split_type":[0,0,0,0,0,0,0,0,0,0,0,0,0,0,0,0,0,0,0],"sum_hessian":[3.824438E1,2.4025528E1,1.4218851E1,1.1953916E1,1.2071613E1,1.3218851E1,1E0,1.0817639E1,1.1362756E0,4.7881517E0,7.283461E0,1.9601121E0,1.1258739E1,1.7147839E0,3.0733678E0,5.874761E0,1.4087E0,1.2492807E0,4.6254807E0],"tree_param":{"num_deleted":"0","num_feature":"8","num_nodes":"19","size_leaf_vector":"0"}},{"base_weights":[1.4417497E-2,-6.1126536E-1,1.0535707E0,-1.0871309E0,-1.03385046E-1,1.1307024E0,-0E0,-6.248088E-1,-1.2656273E0,6.0298103E-1,-5.2017564E-1,4.5775333E-1,1.2034072E0,-8.792129E-1,2.154191E-1,-1.1231726E-1,9.121088E-1,-7.7197546E-1,5.5173385E-1,2.3044787E-2,-1.1795076E0],"categories":[],"categories_nodes":[],"categories_segments":[],"categories_sizes":[],"default_left":[1,1,1,1,1,1,0,1,0,1,1,0,0,0,0,0,0,1,0,0,0],"id":6,"left_children":[1,3,5,7,9,11,-1,13,-1,15,17,-1,-1,-1,-1,-1,-1,19,-1,-1,-1],"loss_changes":[2.5369814E1,5.77736E0,1.1912746E0,2.3880768E-1,4.109571E0,1.17443085E-1,0E0,1.3544266E0,0E0,1.2628195E0,2.7594547E0,0E0,0E0,0E0,0E0,0E0,0E0,2.4305515E0,0E0,0E0,0E0],"parents":[2147483647,0,0,1,1,2,2,3,3,4,4,5,5,7,7,9,9,10,10,17,17],"right_children":[2,4,6,8,10,12,-1,14,-1,16,18,-1,-1,-1,-1,-1,-1,20,-1,-1,-1],"split_conditions":[9.302852E-1,8.719992E-1,7.203993E-1,5.6089425E-1,5.9511566E-1,9.3428105E-1,-0E0,8.123887E-1,-1.2656273E-1,5.267325E-1,9.783441E-1,4.5775335E-2,1.2034072E-1,-8.792129E-2,2.154191E-2,-1.1231726E-2,9.121088E-2,9.0148646E-1,5.5173386E-2,2.3044788E-3,-1.1795076E-1],"split_indices":[1,1,2,3,3,1,0,1,0,2,0,0,0,0,0,0,0,1,0,0,0],"split_type":[0,0,0,0,0,0,0,0,0,0,0,0,0,0,0,0,0,0,0,0,0],"sum_hessian":[3.7029144E1,2.3369774E1,1.365937E1,1.1476336E1,1.1893437E1,1.265937E1,1E0,4.4502306E0,7.026105E0,4.2477446E0,7.6456933E0,1.9457474E0,1.0713623E1,3.3803346E0,1.0698957E0,1.4739048E0,2.77384E0,6.4178934E0,1.2277999E0,2.4946816E0,3.9232118E0],"tree_param":{"num_deleted":"0","num_feature":"8","num_nodes":"21","size_leaf_vector":"0"}},{"base_weights":[1.3213596E-2,-7.945705E-1,7.362409E-1,-1.0348397E0,-2.5545108E-1,2.514683E-1,1.2058204E0,-5.8751696E-1,-1.2112608E0,1.5585023E-1,-9.4078195E-1,-5.334893E-1,6.7999643E-1,1.2746854E0,3.3603927E-1,-8.4950686E-1,2.5180674E-1,-2.950945E-1,4.6761447E-1,4.1850942E-1,-9.9691546E-1,7.831331E-1,-0E0,-9.755342E-1,-2.3089245E-1,1.4425564E-1,5.793473E-1,3.78637E-1,1.0362805E0],"categories":[],"categories_nodes":[],"categories_segments":[],"categories_sizes":[],"default_left":[1,1,1,1,1,1,1,1,0,1,0,1,1,0,0,1,0,0,1,0,0,1,0,0,0,0,0,0,0],"id":7,"left_children":[1,3,5,7,9,11,13,15,-1,17,-1,19,21,-1,-1,23,-1,-1,25,-1,-1,27,-1,-1,-1,-1,-1,-1,-1],"loss_changes":[2.2044554E1,2.0458984E0,4.2285175E0,2.3609257E-1,2.0707026E0,4.0826945E0,1.615696E-1,1.3878433E0,0E0,8.5832375E-1,0E0,2.3873813E0,5.325277E-1,0E0,0E0,1.097815E-1,0E0,0E0,3.985405E-2,0E0,0E0,2.8274632E-1,0E0,0E0,0E0,0E0,0E0,0E0,0E0],"parents":[2147483647,0,0,1,1,2,2,3,3,4,4,5,5,6,6,7,7,9,9,11,11,12,12,15,15,18,18,21,21],"right_children":[2,4,6,8,10,12,14,16,-1,18,-1,20,22,-1,-1,24,-1,-1,26,-1,-1,28,-1,-1,-1,-1,-1,-1,-1],"split_conditions":[9.116761E-1,8.719992E-1,9.757923E-1,5.6089425E-1,9.0148646E-1,9.302852E-1,6.4816153E-1,1.5E0,-1.2112608E-1,8.8319063E-1,-9.40782E-2,5.912404E-1,7.203993E-1,1.2746854E-1,3.360393E-2,5.5170476E-1,2.5180673E-2,-2.950945E-2,9.5753586E-1,4.1850943E-2,-9.969155E-2,5.789269E-1,-0E0,-9.7553425E-2,-2.3089245E-2,1.4425564E-2,5.793473E-2,3.7863698E-2,1.03628054E-1],"split_indices":[1,1,0,3,1,1,2,5,0,1,0,3,2,0,0,3,0,0,0,0,0,2,0,0,0,0,0,0,0],"split_type":[0,0,0,0,0,0,0,0,0,0,0,0,0,0,0,0,0,0,0,0,0,0,0,0,0,0,0,0,0],"sum_hessian":[3.5742672E1,1.6835114E1,1.8907557E1,1.1009164E1,5.8259497E0,1.0058813E1,8.848744E0,4.3386183E0,6.670545E0,4.1237016E0,1.7022482E0,3.465655E0,6.593158E0,7.768175E0,1.080569E0,3.2972643E0,1.041354E0,1.7074566E0,2.416245E0,1.1664286E0,2.2992265E0,5.593158E0,1E0,2.2598994E0,1.037365E0,1.2088541E0,1.207391E0,3.113659E0,2.4794986E0],"tree_param":{"num_deleted":"0","num_feature":"8","num_nodes":"29","size_leaf_vector":"0"}},{"base_weights":[1.1608112E-2,-5.4721993E-1,9.5592564E-1,-9.892009E-1,-9.184019E-2,1.0319179E0,-0E0,-5.574377E-1,-1.1636432E0,5.377983E-1,-4.6902186E-1,3.8556215E-1,1.1108983E0,-8.136349E-1,2.3767447E-1,-1.415237E-1,8.453503E-1,-6.968485E-1,4.7873577E-1,-9.3667746E-1,-2.2026457E-1,1.4328448E-2,-1.0859201E0],"categories":[],"categories_nodes":[],"categories_segments":[],"categories_sizes":[],"default_left":[1,1,1,1,1,1,0,1,0,1,1,0,0,1,0,0,0,1,0,0,0,0,0],"id":8,"left_children":[1,3,5,7,9,11,-1,13,-1,15,17,-1,-1,19,-1,-1,-1,21,-1,-1,-1,-1,-1],"loss_changes":[1.9281387E1,4.5317492E0,9.8643684E-1,2.2146797E-1,3.2005348E0,2.1384335E-1,0E0,1.2616082E0,0E0,1.1886421E0,2.1253154E0,0E0,0E0,9.975004E-2,0E0,0E0,0E0,1.9792826E0,0E0,0E0,0E0,0E0,0E0],"parents":[2147483647,0,0,1,1,2,2,3,3,4,4,5,5,7,7,9,9,10,10,13,13,17,17],"right_children":[2,4,6,8,10,12,-1,14,-1,16,18,-1,-1,20,-1,-1,-1,22,-1,-1,-1,-1,-1],"split_conditions":[9.302852E-1,8.719992E-1,7.203993E-1,5.6089425E-1,5.9511566E-1,9.3428105E-1,-0E0,1.5E0,-1.1636432E-1,1.5E0,9.783441E-1,3.8556214E-2,1.11089826E-1,5.5170476E-1,2.3767447E-2,-1.415237E-2,8.453503E-2,9.0148646E-1,4.787358E-2,-9.3667746E-2,-2.2026457E-2,1.4328448E-3,-1.0859201E-1],"split_indices":[1,1,2,3,3,1,0,5,0,5,0,0,0,3,0,0,0,1,0,0,0,0,0],"split_type":[0,0,0,0,0,0,0,0,0,0,0,0,0,0,0,0,0,0,0,0,0,0,0],"sum_hessian":[3.45465E1,2.1967241E1,1.2579258E1,1.0552743E1,1.1414499E1,1.1579258E1,1E0,4.2439823E0,6.30876E0,4.1166472E0,7.297852E0,1.9012939E0,9.677964E0,3.1921332E0,1.0518492E0,1.4511595E0,2.6654875E0,6.096972E0,1.2008803E0,2.1646872E0,1.0274459E0,2.4966195E0,3.6003523E0],"tree_param":{"num_deleted":"0","num_feature":"8","num_nodes":"23","size_leaf_vector":"0"}},{"base_weights":[9.41842E-3,-7.1914864E-1,6.692397E-1,-9.478821E-1,-2.3077215E-1,2.1566926E-1,1.1186529E0,-1.0013533E0,-2.0724155E-1,1.3622957E-1,-8.677515E-1,-4.8970172E-1,5.9860027E-1,1.191102E0,2.8358284E-1,-2.8144875E-1,4.2916396E-1,3.5775864E-1,-9.140783E-1,6.9482845E-1,-0E0,1.1913097E-1,5.440026E-1,2.9795995E-1,9.6082735E-1],"categories":[],"categories_nodes":[],"categories_segments":[],"categories_sizes":[],"default_left":[1,1,1,1,1,1,1,0,0,1,0,1,1,0,0,0,1,0,0,1,0,0,0,0,0],"id":9,"left_children":[1,3,5,7,9,11,13,-1,-1,15,-1,17,19,-1,-1,-1,21,-1,-1,23,-1,-1,-1,-1,-1],"loss_changes":[1.6954514E1,1.6543112E0,3.5298157E0,2.3196602E-1,1.6774857E0,3.1147728E0,2.0998001E-1,0E0,0E0,7.443125E-1,0E0,1.8467532E0,4.159243E-1,0E0,0E0,0E0,5.594033E-2,0E0,0E0,3.704028E-1,0E0,0E0,0E0,0E0,0E0],"parents":[2147483647,0,0,1,1,2,2,3,3,4,4,5,5,6,6,9,9,11,11,12,12,16,16,19,19],"right_children":[2,4,6,8,10,12,14,-1,-1,16,-1,18,20,-1,-1,-1,22,-1,-1,24,-1,-1,-1,-1,-1],"split_conditions":[9.116761E-1,8.719992E-1,9.757923E-1,9.7892976E-1,9.0148646E-1,9.302852E-1,6.4816153E-1,-1.0013533E-1,-2.0724155E-2,8.8319063E-1,-8.677515E-2,5.912404E-1,7.203993E-1,1.19110204E-1,2.8358284E-2,-2.8144876E-2,9.5753586E-1,3.5775866E-2,-9.140783E-2,5.789269E-1,-0E0,1.1913097E-2,5.440026E-2,2.9795995E-2,9.608274E-2],"split_indices":[1,1,0,0,1,1,2,0,0,1,0,3,2,0,0,0,0,0,0,2,0,0,0,0,0],"split_type":[0,0,0,0,0,0,0,0,0,0,0,0,0,0,0,0,0,0,0,0,0,0,0,0,0],"sum_hessian":[3.326754E1,1.5767421E1,1.7500118E1,1.009738E1,5.6700406E0,9.446314E0,8.053804E0,9.08917E0,1.0082097E0,4.0961413E0,1.5738991E0,3.2256815E0,6.2206326E0,7.01854E0,1.0352647E0,1.7047069E0,2.3914347E0,1.1286994E0,2.0969822E0,5.2206326E0,1E0,1.1970644E0,1.1943703E0,2.9457495E0,2.274883E0],"tree_param":{"num_deleted":"0","num_feature":"8","num_nodes":"25","size_leaf_vector":"0"}},{"base_weights":[1.0251906E-2,-6.8067366E-1,6.383852E-1,-9.04514E-1,-2.1747014E-1,2.0578639E-1,1.0755191E0,-4.712896E-1,-1.0915334E0,1.3030766E-1,-8.349673E-1,-4.6651492E-1,5.67895E-1,1.1483995E0,2.7057394E-1,-7.405654E-1,2.960468E-1,-2.634087E-1,4.0696898E-1,3.4079495E-1,-8.801926E-1,7.865101E-1,1.7554514E-1,-8.637806E-1,-2.2183946E-1,1.1270689E-1,5.163633E-1,9.3331635E-1,1.7149857E-1,-2.2232147E-1,4.028519E-1],"categories":[],"categories_nodes":[],"categories_segments":[],"categories_sizes":[],"default_left":[1,1,1,1,1,1,1,1,0,1,0,1,1,0,0,1,0,0,1,0,0,1,1,0,0,0,0,0,0,0,0],"id":10,"left_children":[1,3,5,7,9,11,13,15,-1,17,-1,19,21,-1,-1,23,-1,-1,25,-1,-1,27,29,-1,-1,-1,-1,-1,-1,-1,-1],"loss_changes":[1.4785103E1,1.4860911E0,3.1515703E0,3.464861E-1,1.5270946E0,2.7483819E0,1.9584274E-1,1.2448852E0,0E0,6.616186E-1,0E0,1.6759312E0,4.6930814E-1,0E0,0E0,6.1479807E-2,0E0,0E0,5.0678432E-2,0E0,0E0,2.2456765E-1,4.351343E-1,0E0,0E0,0E0,0E0,0E0,0E0,0E0,0E0],"parents":[2147483647,0,0,1,1,2,2,3,3,4,4,5,5,6,6,7,7,9,9,11,11,12,12,15,15,18,18,21,21,22,22],"right_children":[2,4,6,8,10,12,14,16,-1,18,-1,20,22,-1,-1,24,-1,-1,26,-1,-1,28,30,-1,-1,-1,-1,-1,-1,-1,-1],"split_conditions":[9.116761E-1,8.719992E-1,9.757923E-1,5.6089425E-1,9.0148646E-1,9.302852E-1,6.4816153E-1,8.123887E-1,-1.09153345E-1,8.8319063E-1,-8.3496734E-2,5.912404E-1,6.363519E-1,1.1483995E-1,2.7057394E-2,6.227812E-1,2.9604679E-2,-2.634087E-2,9.5753586E-1,3.4079496E-2,-8.801926E-2,9.485523E-1,6.260957E-1,-8.637806E-2,-2.2183945E-2,1.127069E-2,5.1636335E-2,9.3331635E-2,1.7149856E-2,-2.2232147E-2,4.0285192E-2],"split_indices":[1,1,0,3,1,1,2,1,0,1,0,3,3,0,0,2,0,0,0,0,0,1,2,0,0,0,0,0,0,0,0],"split_type":[0,0,0,0,0,0,0,0,0,0,0,0,0,0,0,0,0,0,0,0,0,0,0,0,0,0,0,0,0,0,0],"sum_hessian":[3.206634E1,1.5230098E1,1.6836243E1,9.625767E0,5.604331E0,9.201233E0,7.6350093E0,3.9637876E0,5.6619797E0,4.089869E0,1.5144621E0,3.1200778E0,6.0811553E0,6.6098666E0,1.0251427E0,2.9599588E0,1.0038288E0,1.7076362E0,2.3822327E0,1.116792E0,2.003286E0,3.2600563E0,2.8210988E0,1.854302E0,1.1056567E0,1.1958289E0,1.1864038E0,2.2140038E0,1.0460525E0,1.0336975E0,1.7874014E0],"tree_param":{"num_deleted":"0","num_feature":"8","num_nodes":"31","size_leaf_vector":"0"}},{"base_weights":[8.956347E-3,-4.7097915E-1,8.375955E-1,-8.687726E-1,-8.289575E-2,9.118019E-1,7.545381E-2,-4.481864E-1,-1.0563219E0,4.2647362E-1,-4.381931E-1,3.0115688E-1,1.0016594E0,-7.166351E-1,2.9619324E-1,-4.2522228E-1,7.461652E-1,-6.111453E-1,2.268778E-1,3.6552507E-1,1.0846984E0,-8.388406E-1,-2.115125E-1,9.9780965E-1,8.70555E-2,2.0486039E-1,-8.7774795E-1],"categories":[],"categories_nodes":[],"categories_segments":[],"categories_sizes":[],"default_left":[1,1,1,1,1,1,0,1,0,1,1,0,1,1,0,0,1,1,0,0,0,0,0,0,0,0,0],"id":11,"left_children":[1,3,5,7,9,11,-1,13,-1,15,17,-1,19,21,-1,-1,23,25,-1,-1,-1,-1,-1,-1,-1,-1,-1],"loss_changes":[1.3097817E1,3.149414E0,6.141243E-1,3.3109426E-1,2.2985325E0,2.9718304E-1,0E0,1.1879094E0,0E0,1.7607119E0,9.860239E-1,0E0,8.335495E-2,6.2131524E-2,0E0,0E0,6.1264825E-1,1.5105982E0,0E0,0E0,0E0,0E0,0E0,0E0,0E0,0E0,0E0],"parents":[2147483647,0,0,1,1,2,2,3,3,4,4,5,5,7,7,9,9,10,10,12,12,13,13,16,16,17,17],"right_children":[2,4,6,8,10,12,-1,14,-1,16,18,-1,20,22,-1,-1,24,26,-1,-1,-1,-1,-1,-1,-1,-1,-1],"split_conditions":[9.302852E-1,8.719992E-1,7.214084E-1,5.6089425E-1,5.9733033E-1,9.3455017E-1,7.5453813E-3,5.534586E-1,-1.05632186E-1,9.5134676E-1,8.3E1,3.0115688E-2,5.659833E-1,6.227812E-1,2.9619325E-2,-4.252223E-2,9.881109E-1,5E-1,2.268778E-2,3.6552507E-2,1.08469844E-1,-8.388406E-2,-2.115125E-2,9.978097E-2,8.70555E-3,2.048604E-2,-8.77748E-2],"split_indices":[1,1,3,3,3,1,0,3,0,0,5,0,3,2,0,0,0,5,0,0,0,0,0,0,0,0,0],"split_type":[0,0,0,0,0,0,0,0,0,0,0,0,0,0,0,0,0,0,0,0,0,0,0,0,0,0,0],"sum_hessian":[3.0942516E1,1.9867296E1,1.107522E1,9.199252E0,1.0668045E1,9.913608E0,1.1616118E0,3.8824387E0,5.316813E0,4.3012547E0,6.3667903E0,1.8298671E0,8.08374E0,2.880797E0,1.0016418E0,1.0837954E0,3.2174594E0,5.117153E0,1.2496374E0,1.5571069E0,6.5266337E0,1.7876415E0,1.0931554E0,1.9565752E0,1.2608843E0,1.3171787E0,3.7999742E0],"tree_param":{"num_deleted":"0","num_feature":"8","num_nodes":"27","size_leaf_vector":"0"}},{"base_weights":[9.130642E-3,-4.447417E-1,8.024214E-1,-8.35428E-1,-7.385845E-2,4.52606E-1,1.0751609E0,-4.2647892E-1,-1.0240573E0,4.3454912E-1,-3.8685438E-1,8.0892855E-1,-2.8450185E-1,-6.913714E-1,2.8666198E-1,-1.7952806E-1,7.349536E-1,-5.7609785E-1,3.7467337E-1,1.4948496E-1,9.540793E-1,-8.1212956E-1,-2.016798E-1,3.2817543E-2,-9.6070904E-1],"categories":[],"categories_nodes":[],"categories_segments":[],"categories_sizes":[],"default_left":[1,1,1,1,1,1,0,1,0,1,1,1,0,1,0,0,0,1,0,0,0,0,0,0,0],"id":12,"left_children":[1,3,5,7,9,11,-1,13,-1,15,17,19,-1,21,-1,-1,-1,23,-1,-1,-1,-1,-1,-1,-1],"loss_changes":[1.1482091E1,2.8793745E0,6.202507E-1,3.1829262E-1,1.9996233E0,2.0186625E0,0E0,1.1055546E0,0E0,1.0278676E0,1.3187387E0,3.2168078E-1,0E0,6.0650587E-2,0E0,0E0,0E0,1.5593553E0,0E0,0E0,0E0,0E0,0E0,0E0,0E0],"parents":[2147483647,0,0,1,1,2,2,3,3,4,4,5,5,7,7,9,9,10,10,11,11,13,13,17,17],"right_children":[2,4,6,8,10,12,-1,14,-1,16,18,20,-1,22,-1,-1,-1,24,-1,-1,-1,-1,-1,-1,-1],"split_conditions":[9.302852E-1,8.719992E-1,9.5111835E-1,5.6089425E-1,5.9511566E-1,6.363519E-1,1.0751609E-1,8.123887E-1,-1.0240573E-1,1.5E0,9.783441E-1,5.9102273E-1,-2.8450185E-2,6.227812E-1,2.8666198E-2,-1.7952805E-2,7.349536E-2,9.0148646E-1,3.746734E-2,1.4948497E-2,9.5407926E-2,-8.121296E-2,-2.016798E-2,3.2817542E-3,-9.607091E-2],"split_indices":[1,1,1,3,3,3,0,1,0,5,0,3,0,2,0,0,0,1,0,0,0,0,0,0,0],"split_type":[0,0,0,0,0,0,0,0,0,0,0,0,0,0,0,0,0,0,0,0,0,0,0,0,0],"sum_hessian":[2.9898867E1,1.929743E1,1.0601436E1,8.787837E0,1.0509594E1,5.809569E0,4.791867E0,3.8032694E0,4.984567E0,3.8567002E0,6.652894E0,3.8506866E0,1.9588822E0,2.795443E0,1.0078263E0,1.3990946E0,2.4576056E0,5.5237193E0,1.1291746E0,1.0608643E0,2.7898223E0,1.7142557E0,1.0811874E0,2.4924126E0,3.0313067E0],"tree_param":{"num_deleted":"0","num_feature":"8","num_nodes":"25","size_leaf_vector":"0"}},{"base_weights":[8.946267E-3,-5.901419E-1,5.615913E-1,-8.5695195E-1,-2.253169E-1,1.5746479E-1,9.886236E-1,-9.41186E-1,-1.449923E-1,1.5934028E-2,-7.6731527E-1,-4.2700303E-1,4.6980628E-1,1.0660475E0,2.7128944E-1,3.5443416E-1,-6.1344105E-1,2.703432E-1,-7.953031E-1,7.26861E-1,1.3275297E-1,-2.7731127E-1,6.571345E-1,3.8483155E-1,-1.7860477E-1],"categories":[],"categories_nodes":[],"categories_segments":[],"categories_sizes":[],"default_left":[1,1,1,1,1,1,1,0,0,1,0,1,1,0,0,1,0,0,0,0,1,0,0,0,0],"id":13,"left_children":[1,3,5,7,9,11,13,-1,-1,15,-1,17,19,-1,-1,21,-1,-1,-1,-1,23,-1,-1,-1,-1],"loss_changes":[1.0205097E1,1.2472878E0,2.609818E0,3.5470772E-1,1.0069463E0,1.9207548E0,1.33008E-1,0E0,0E0,1.5476365E0,0E0,1.1924093E0,4.7681892E-1,0E0,0E0,1.0798538E0,0E0,0E0,0E0,0E0,3.8946724E-1,0E0,0E0,0E0,0E0],"parents":[2147483647,0,0,1,1,2,2,3,3,4,4,5,5,6,6,9,9,11,11,12,12,15,15,20,20],"right_children":[2,4,6,8,10,12,14,-1,-1,16,-1,18,20,-1,-1,22,-1,-1,-1,-1,24,-1,-1,-1,-1],"split_conditions":[9.116761E-1,8.4591013E-1,9.757923E-1,6.288029E-1,9.0148646E-1,9.302852E-1,6.3733065E-1,-9.41186E-2,-1.4499231E-2,5E-1,-7.6731525E-2,5.912404E-1,9.5134676E-1,1.06604755E-1,2.7128944E-2,1.5E0,-6.1344106E-2,2.7034322E-2,-7.953031E-2,7.26861E-2,6.3292044E-1,-2.7731126E-2,6.571345E-2,3.8483154E-2,-1.7860478E-2],"split_indices":[1,1,0,2,1,1,2,0,0,7,0,3,0,0,0,5,0,0,0,0,3,0,0,0,0],"split_type":[0,0,0,0,0,0,0,0,0,0,0,0,0,0,0,0,0,0,0,0,0,0,0,0,0],"sum_hessian":[2.8822357E1,1.3797499E1,1.5024859E1,7.1901407E0,6.607358E0,8.422694E0,6.6021647E0,6.1415505E0,1.0485901E0,5.2438498E0,1.3635082E0,2.805608E0,5.6170864E0,5.520227E0,1.0819377E0,3.6939566E0,1.5498929E0,1.0615742E0,1.7440338E0,2.5306E0,3.086486E0,1.2237743E0,2.4701824E0,1.5752046E0,1.5112815E0],"tree_param":{"num_deleted":"0","num_feature":"8","num_nodes":"25","size_leaf_vector":"0"}},{"base_weights":[7.1640424E-3,-4.0667132E-1,7.388962E-1,-7.7279437E-1,-6.91036E-2,3.9447394E-1,1.0222762E0,-3.5746834E-1,-9.772784E-1,3.8630676E-1,-3.5276654E-1,7.4739397E-1,-2.7991825E-1,-6.020181E-1,2.0323288E-1,-1.9712602E-1,6.8835115E-1,-5.2330977E-1,3.238164E-1,8.971904E-1,1.1095966E-1,-7.273231E-1,-1.556228E-1,2.5841555E-1,-7.704062E-1],"categories":[],"categories_nodes":[],"categories_segments":[],"categories_sizes":[],"default_left":[1,1,1,1,1,1,0,1,0,1,1,1,0,1,0,0,0,1,0,0,0,0,0,0,0],"id":14,"left_children":[1,3,5,7,9,11,-1,13,-1,15,17,19,-1,21,-1,-1,-1,23,-1,-1,-1,-1,-1,-1,-1],"loss_changes":[9.027106E0,2.3013368E0,6.474805E-1,4.1853E-1,1.558722E0,1.7533317E0,0E0,7.4756885E-1,0E0,9.6454847E-1,1.0126586E0,3.3245468E-1,0E0,7.852054E-2,0E0,0E0,0E0,1.4003003E0,0E0,0E0,0E0,0E0,0E0,0E0,0E0],"parents":[2147483647,0,0,1,1,2,2,3,3,4,4,5,5,7,7,9,9,10,10,11,11,13,13,17,17],"right_children":[2,4,6,8,10,12,-1,14,-1,16,18,20,-1,22,-1,-1,-1,24,-1,-1,-1,-1,-1,-1,-1],"split_conditions":[9.302852E-1,8.719992E-1,9.5111835E-1,5.6089425E-1,5.9511566E-1,6.363519E-1,1.0222762E-1,5.5170476E-1,-9.772784E-2,5.267325E-1,9.783441E-1,9.458672E-1,-2.7991826E-2,6.227812E-1,2.032329E-2,-1.9712603E-2,6.883512E-2,8.877286E-1,3.238164E-2,8.971904E-2,1.1095966E-2,-7.2732314E-2,-1.556228E-2,2.5841555E-2,-7.704062E-2],"split_indices":[1,1,1,3,3,3,0,3,0,2,0,1,0,2,0,0,0,1,0,0,0,0,0,0,0],"split_type":[0,0,0,0,0,0,0,0,0,0,0,0,0,0,0,0,0,0,0,0,0,0,0,0,0],"sum_hessian":[2.7818163E1,1.805263E1,9.765534E0,8.041541E0,1.0011088E1,5.487733E0,4.2778015E0,3.5596697E0,4.481871E0,3.7034636E0,6.307625E0,3.5314312E0,1.9563016E0,2.4273107E0,1.1323591E0,1.3817732E0,2.3216903E0,5.2187085E0,1.0889164E0,2.5269527E0,1.0044783E0,1.4039038E0,1.0234067E0,1.2423972E0,3.9763114E0],"tree_param":{"num_deleted":"0","num_feature":"8","num_nodes":"25","size_leaf_vector":"0"}},{"base_weights":[8.123566E-3,-5.3715825E-1,5.1656884E-1,-7.9638314E-1,-1.994416E-1,1.4185098E-1,9.290816E-1,-8.763446E-1,-1.861128E-1,2.4962211E-2,-7.204504E-1,-3.8782856E-1,4.205603E-1,1.0128019E0,2.2772665E-1,3.3895248E-1,-5.7077664E-1,2.5296298E-1,-7.444567E-1,6.7173177E-1,1.0265053E-1,-2.582777E-1,6.263913E-1,-2.5837526E-1,3.2955086E-1],"categories":[],"categories_nodes":[],"categories_segments":[],"categories_sizes":[],"default_left":[1,1,1,1,1,1,1,0,0,1,0,1,1,0,0,1,0,0,0,0,1,0,0,0,0],"id":15,"left_children":[1,3,5,7,9,11,13,-1,-1,15,-1,17,19,-1,-1,21,-1,-1,-1,-1,23,-1,-1,-1,-1],"loss_changes":[8.001692E0,1.0609713E0,2.1755633E0,2.0526314E-1,8.8138807E-1,1.4920424E0,1.7597723E-1,0E0,0E0,1.3397739E0,0E0,1.016465E0,4.4033933E-1,0E0,0E0,9.583954E-1,0E0,0E0,0E0,0E0,4.1244265E-1,0E0,0E0,0E0,0E0],"parents":[2147483647,0,0,1,1,2,2,3,3,4,4,5,5,6,6,9,9,11,11,12,12,15,15,20,20],"right_children":[2,4,6,8,10,12,14,-1,-1,16,-1,18,20,-1,-1,22,-1,-1,-1,-1,24,-1,-1,-1,-1],"split_conditions":[9.116761E-1,8.4591013E-1,9.757923E-1,6.281979E-1,9.0148646E-1,9.302852E-1,6.3733065E-1,-8.763447E-2,-1.861128E-2,5E-1,-7.204504E-2,5.912404E-1,9.5134676E-1,1.0128019E-1,2.2772666E-2,1.5E0,-5.7077665E-2,2.5296299E-2,-7.444567E-2,6.7173176E-2,2.5E0,-2.5827771E-2,6.263913E-2,-2.5837526E-2,3.2955088E-2],"split_indices":[1,1,0,2,1,1,2,0,0,7,0,3,0,0,0,5,0,0,0,0,5,0,0,0,0],"split_type":[0,0,0,0,0,0,0,0,0,0,0,0,0,0,0,0,0,0,0,0,0,0,0,0,0],"sum_hessian":[2.686051E1,1.2933506E1,1.3927004E1,6.5487046E0,6.3848014E0,8.002014E0,5.924989E0,5.4045696E0,1.1441349E0,5.1281457E0,1.2566559E0,2.6238818E0,5.3781323E0,4.8964396E0,1.0285494E0,3.6404483E0,1.4876972E0,1.0421042E0,1.5817777E0,2.382681E0,2.9954515E0,1.215785E0,2.4246633E0,1.1025093E0,1.8929422E0],"tree_param":{"num_deleted":"0","num_feature":"8","num_nodes":"25","size_leaf_vector":"0"}},{"base_weights":[5.762658E-3,-3.7129503E-1,6.793688E-1,-6.5959E-1,-3.7662247E-3,3.4203574E-1,9.7365516E-1,-7.2835827E-1,-5.0541352E-2,5.944108E-1,-3.8910946E-1,6.973377E-1,-2.8902376E-1,-8.434163E-1,-1.4887916E-1,-8.332705E-3,8.437555E-1,-6.5859455E-1,1.75724E-1,1.0899422E-1,8.496107E-1,-1.845933E-1,-9.1929775E-1,-1.6647221E-1,-8.0388874E-1],"categories":[],"categories_nodes":[],"categories_segments":[],"categories_sizes":[],"default_left":[1,1,1,1,1,1,0,1,0,1,1,1,0,1,0,0,0,1,0,0,0,0,0,0,0],"id":16,"left_children":[1,3,5,7,9,11,-1,13,-1,15,17,19,-1,21,-1,-1,-1,23,-1,-1,-1,-1,-1,-1,-1],"loss_changes":[7.1017523E0,1.8979886E0,6.628251E-1,3.839426E-1,2.2805603E0,1.5951488E0,0E0,4.713049E-1,0E0,5.8999276E-1,1.0307689E0,2.8990197E-1,0E0,1.9298697E-1,0E0,0E0,0E0,1.7223525E-1,0E0,0E0,0E0,0E0,0E0,0E0,0E0],"parents":[2147483647,0,0,1,1,2,2,3,3,4,4,5,5,7,7,9,9,10,10,11,11,13,13,17,17],"right_children":[2,4,6,8,10,12,-1,14,-1,16,18,20,-1,22,-1,-1,-1,24,-1,-1,-1,-1,-1,-1,-1],"split_conditions":[9.302852E-1,8.8319063E-1,9.5111835E-1,9.8280424E-1,5.9511566E-1,6.363519E-1,9.736552E-2,6.288029E-1,-5.0541353E-3,5.267325E-1,9.667505E-1,5.936281E-1,-2.8902376E-2,5.4822886E-1,-1.4887916E-2,-8.3327055E-4,8.437555E-2,9.0253055E-1,1.7572401E-2,1.0899423E-2,8.496107E-2,-1.8459331E-2,-9.192978E-2,-1.6647222E-2,-8.0388874E-2],"split_indices":[1,1,1,0,3,3,0,2,0,2,0,3,0,2,0,0,0,1,0,0,0,0,0,0,0],"split_type":[0,0,0,0,0,0,0,0,0,0,0,0,0,0,0,0,0,0,0,0,0,0,0,0,0],"sum_hessian":[2.5967794E1,1.6936317E1,9.031477E0,9.045911E0,7.890406E0,5.2154236E0,3.816053E0,7.952133E0,1.0937777E0,2.8788908E0,5.0115156E0,3.2695565E0,1.9458672E0,6.254752E0,1.697381E0,1.1252923E0,1.7535985E0,3.2804143E0,1.731101E0,1.0250006E0,2.244556E0,1.0005308E0,5.2542214E0,1.2368546E0,2.0435598E0],"tree_param":{"num_deleted":"0","num_feature":"8","num_nodes":"25","size_leaf_vector":"0"}},{"base_weights":[6.914276E-3,-3.5178775E-1,6.525043E-1,-7.357297E-1,-8.8083796E-2,3.253862E-1,9.461649E-1,-8.1576693E-1,-1.6599214E-1,4.0703148E-1,-4.1152275E-1,6.7135984E-1,-2.685114E-1,-2.7671728E-1,7.6815253E-1,2.717827E-1,-5.8890104E-1,1.0388831E-1,8.2289386E-1,-8.282437E-1,2.7315697E-1],"categories":[],"categories_nodes":[],"categories_segments":[],"categories_sizes":[],"default_left":[1,1,1,1,1,1,0,0,0,1,1,1,0,0,0,0,1,0,0,0,0],"id":17,"left_children":[1,3,5,7,9,11,-1,-1,-1,13,15,17,-1,-1,-1,-1,19,-1,-1,-1,-1],"loss_changes":[6.277362E0,1.7007339E0,6.218295E-1,1.8216062E-1,2.0048945E0,1.4341502E0,0E0,0E0,0E0,1.4561276E0,1.06148E0,2.7066624E-1,0E0,0E0,0E0,0E0,1.5096619E0,0E0,0E0,0E0,0E0],"parents":[2147483647,0,0,1,1,2,2,3,3,4,4,5,5,9,9,10,10,11,11,16,16],"right_children":[2,4,6,8,10,12,-1,-1,-1,14,16,18,-1,-1,-1,-1,20,-1,-1,-1,-1],"split_conditions":[9.302852E-1,8.4591013E-1,9.5111835E-1,6.281979E-1,5.9733033E-1,6.363519E-1,9.4616495E-2,-8.15767E-2,-1.6599214E-2,1.5E0,5E-1,5.936281E-1,-2.6851142E-2,-2.7671728E-2,7.6815255E-2,2.717827E-2,8.45E1,1.0388832E-2,8.228939E-2,-8.282437E-2,2.7315697E-2],"split_indices":[1,1,1,2,3,3,0,0,0,5,5,3,0,0,0,0,5,0,0,0,0],"split_type":[0,0,0,0,0,0,0,0,0,0,0,0,0,0,0,0,0,0,0,0,0],"sum_hessian":[2.5116087E1,1.6437944E1,8.678142E0,5.964255E0,1.047369E1,5.1024218E0,3.5757198E0,4.850959E0,1.113296E0,4.036393E0,6.437297E0,3.1417642E0,1.9606576E0,1.4758111E0,2.5605822E0,1.2169774E0,5.2203197E0,1.0173864E0,2.1243777E0,4.116606E0,1.1037134E0],"tree_param":{"num_deleted":"0","num_feature":"8","num_nodes":"21","size_leaf_vector":"0"}},{"base_weights":[9.788128E-3,-3.3129266E-1,6.27065E-1,-7.061416E-1,-7.920879E-2,3.0992398E-1,9.199402E-1,-7.8587896E-1,-1.5819505E-1,3.8301843E-1,-3.8197586E-1,6.010139E-1,-3.7803295E-1,-2.7531692E-1,7.4727607E-1,2.5636524E-1,-5.5233717E-1,8.0996686E-1,9.426236E-2,-7.8468287E-1,2.584672E-1],"categories":[],"categories_nodes":[],"categories_segments":[],"categories_sizes":[],"default_left":[1,1,1,1,1,1,0,0,0,1,1,1,0,0,0,0,1,0,0,0,0],"id":18,"left_children":[1,3,5,7,9,11,-1,-1,-1,13,15,17,-1,-1,-1,-1,19,-1,-1,-1,-1],"loss_changes":[5.531211E0,1.5447981E0,5.8283496E-1,1.6776323E-1,1.7214106E0,1.4276396E0,0E0,0E0,0E0,1.3936752E0,9.3559766E-1,4.1055393E-1,0E0,0E0,0E0,0E0,1.3482357E0,0E0,0E0,0E0,0E0],"parents":[2147483647,0,0,1,1,2,2,3,3,4,4,5,5,9,9,10,10,11,11,16,16],"right_children":[2,4,6,8,10,12,-1,-1,-1,14,16,18,-1,-1,-1,-1,20,-1,-1,-1,-1],"split_conditions":[9.302852E-1,8.4591013E-1,9.5111835E-1,6.281979E-1,5.9733033E-1,9.460288E-1,9.199402E-2,-7.85879E-2,-1.5819505E-2,5.267325E-1,5E-1,6.363519E-1,-3.7803296E-2,-2.7531693E-2,7.472761E-2,2.5636524E-2,8.45E1,8.0996685E-2,9.426236E-3,-7.8468286E-2,2.584672E-2],"split_indices":[1,1,1,2,3,1,0,0,0,2,5,3,0,0,0,0,5,0,0,0,0],"split_type":[0,0,0,0,0,0,0,0,0,0,0,0,0,0,0,0,0,0,0,0,0],"sum_hessian":[2.4284678E1,1.594014E1,8.344539E0,5.6851296E0,1.025501E1,4.994469E0,3.3500695E0,4.583859E0,1.1012704E0,3.9537914E0,6.3012185E0,3.5983188E0,1.3961505E0,1.4953549E0,2.4584365E0,1.2210672E0,5.080151E0,2.1241145E0,1.4742043E0,3.9736664E0,1.1064847E0],"tree_param":{"num_deleted":"0","num_feature":"8","num_nodes":"21","size_leaf_vector":"0"}},{"base_weights":[1.2069943E-2,-3.119224E-1,6.013648E-1,-6.7764676E-1,-7.1017526E-2,2.9338828E-1,8.948076E-1,-2.9103625E-1,-8.5361683E-1,-3.569697E-1,3.8371116E-1,5.7677525E-1,-3.52515E-1,7.1833424E-2,-5.6231236E-1,-7.772096E-3,5.742999E-1,7.856329E-1,8.882346E-2,-3.2462245E-1,4.0435338E-1,-1.3507256E-1,-7.2561496E-1,9.7774416E-2,7.926102E-1],"categories":[],"categories_nodes":[],"categories_segments":[],"categories_sizes":[],"default_left":[1,1,1,1,1,1,0,0,0,1,1,1,0,1,1,0,1,0,0,0,0,0,0,0,0],"id":19,"left_children":[1,3,5,7,9,11,-1,-1,-1,13,15,17,-1,19,21,-1,23,-1,-1,-1,-1,-1,-1,-1,-1],"loss_changes":[4.86628E0,1.4029901E0,5.539851E-1,1.885786E-1,1.5733824E0,1.282545E0,0E0,0E0,0E0,6.831681E-1,3.5862643E-1,3.8652158E-1,0E0,5.597781E-1,2.5428665E-1,0E0,2.560079E-1,0E0,0E0,0E0,0E0,0E0,0E0,0E0,0E0],"parents":[2147483647,0,0,1,1,2,2,3,3,4,4,5,5,9,9,10,10,11,11,13,13,14,14,16,16],"right_children":[2,4,6,8,10,12,-1,-1,-1,14,16,18,-1,20,22,-1,24,-1,-1,-1,-1,-1,-1,-1,-1],"split_conditions":[9.302852E-1,8.4591013E-1,9.5111835E-1,5.5686045E-1,9.667505E-1,9.460288E-1,8.948076E-2,-2.9103626E-2,-8.536168E-2,6.038172E-1,1.5E0,6.363519E-1,-3.5251502E-2,9.401786E-1,8.7210244E-1,-7.772096E-4,9.869615E-1,7.8563295E-2,8.882347E-3,-3.2462247E-2,4.043534E-2,-1.3507256E-2,-7.2561495E-2,9.777442E-3,7.926103E-2],"split_indices":[1,1,1,3,0,1,0,0,0,3,5,3,0,0,0,0,0,0,0,0,0,0,0,0,0],"split_type":[0,0,0,0,0,0,0,0,0,0,0,0,0,0,0,0,0,0,0,0,0,0,0,0,0],"sum_hessian":[2.3505182E1,1.5470331E1,8.034851E0,5.423636E0,1.0046695E1,4.8960857E0,3.1387658E0,2.526578E0,2.8970578E0,6.2999864E0,3.7467089E0,3.4774125E0,1.4186729E0,2.2505314E0,4.0494547E0,1.5408697E0,2.2058392E0,2.007907E0,1.4695055E0,1.0374062E0,1.2131252E0,1.625051E0,2.424404E0,1.147958E0,1.0578811E0],"tree_param":{"num_deleted":"0","num_feature":"8","num_nodes":"25","size_leaf_vector":"0"}},{"base_weights":[1.2887523E-2,-2.9426792E-1,5.76966E-1,-6.5233856E-1,-6.3933976E-2,6.70694E-1,-4.001921E-2,-7.368393E-1,-1.1897445E-1,-3.3726072E-1,3.6679634E-1,1.5507452E-1,8.102377E-1,-8.425765E-1,-2.6940987E-1,6.750681E-2,-5.335261E-1,-7.3005934E-3,5.508157E-1,9.2066157E-1,1.664804E-1,-3.0766252E-1,3.8522097E-1,-1.2722164E-1,-6.9182056E-1,9.261246E-2,7.644451E-1],"categories":[],"categories_nodes":[],"categories_segments":[],"categories_sizes":[],"default_left":[1,1,1,1,1,1,0,1,0,1,1,0,1,0,0,1,1,0,1,0,0,0,0,0,0,0,0],"id":20,"left_children":[1,3,5,7,9,11,-1,13,-1,15,17,-1,19,-1,-1,21,23,-1,25,-1,-1,-1,-1,-1,-1,-1,-1],"loss_changes":[4.301159E0,1.2862056E0,5.3251624E-1,1.9149685E-1,1.4077425E0,4.245999E-1,0E0,2.775383E-2,0E0,6.0747826E-1,3.2847983E-1,0E0,2.5774336E-1,0E0,0E0,5.0431967E-1,2.3078406E-1,0E0,2.3971945E-1,0E0,0E0,0E0,0E0,0E0,0E0,0E0,0E0],"parents":[2147483647,0,0,1,1,2,2,3,3,4,4,5,5,7,7,9,9,10,10,12,12,15,15,16,16,18,18],"right_children":[2,4,6,8,10,12,-1,14,-1,16,18,-1,20,-1,-1,22,24,-1,26,-1,-1,-1,-1,-1,-1,-1,-1],"split_conditions":[9.302852E-1,8.4591013E-1,7.214084E-1,6.281979E-1,9.667505E-1,9.555336E-1,-4.001921E-3,8.123887E-1,-1.1897445E-2,6.038172E-1,1.5E0,1.5507452E-2,5E-1,-8.4257655E-2,-2.6940987E-2,9.401786E-1,8.7210244E-1,-7.3005934E-4,9.869615E-1,9.206616E-2,1.6648041E-2,-3.0766252E-2,3.85221E-2,-1.2722164E-2,-6.918206E-2,9.261246E-3,7.6444514E-2],"split_indices":[1,1,3,2,0,0,0,1,0,3,5,0,7,0,0,0,0,0,0,0,0,0,0,0,0,0,0],"split_type":[0,0,0,0,0,0,0,0,0,0,0,0,0,0,0,0,0,0,0,0,0,0,0,0,0,0,0],"sum_hessian":[2.2844986E1,1.5100623E1,7.744362E0,5.194013E0,9.9066105E0,6.647475E0,1.0968872E0,4.154348E0,1.0396656E0,6.1934566E0,3.7131534E0,1.8655376E0,4.781937E0,2.7334409E0,1.4209067E0,2.2366824E0,3.9567742E0,1.540917E0,2.1722364E0,3.7146282E0,1.0673088E0,1.0401132E0,1.1965692E0,1.6150428E0,2.3417313E0,1.1465586E0,1.0256778E0],"tree_param":{"num_deleted":"0","num_feature":"8","num_nodes":"27","size_leaf_vector":"0"}},{"base_weights":[1.2361684E-2,-2.782037E-1,5.512982E-1,-6.2880236E-1,-5.737226E-2,2.4922687E-1,8.5753375E-1,-2.3694219E-1,-8.19308E-1,-4.4766757E-1,2.3395616E-1,5.3096116E-1,-3.5556498E-1,1.6157743E-1,-6.686048E-1,6.621962E-1,-2.408753E-1,7.4670404E-1,6.448007E-2,-8.6001414E-1,-2.8721383E-1,1.688448E-2,8.9958256E-1,-5.478226E-1,2.2638348E-1],"categories":[],"categories_nodes":[],"categories_segments":[],"categories_sizes":[],"default_left":[1,1,1,1,1,1,0,0,0,1,1,1,0,0,1,1,1,0,0,0,0,0,0,0,0],"id":21,"left_children":[1,3,5,7,9,11,-1,-1,-1,13,15,17,-1,-1,19,21,23,-1,-1,-1,-1,-1,-1,-1,-1],"loss_changes":[3.7922673E0,1.1842862E0,5.7027745E-1,2.5310683E-1,1.32947E0,1.1559819E0,0E0,0E0,0E0,7.739091E-1,1.547182E0,3.819356E-1,0E0,0E0,3.2224536E-2,5.753428E-1,6.9332486E-1,0E0,0E0,0E0,0E0,0E0,0E0,0E0,0E0],"parents":[2147483647,0,0,1,1,2,2,3,3,4,4,5,5,9,9,10,10,11,11,14,14,15,15,16,16],"right_children":[2,4,6,8,10,12,-1,-1,-1,14,16,18,-1,-1,20,22,24,-1,-1,-1,-1,-1,-1,-1,-1],"split_conditions":[9.302852E-1,8.4591013E-1,9.5111835E-1,5.5686045E-1,9.5134676E-1,9.460288E-1,8.5753374E-2,-2.3694219E-2,-8.19308E-2,8.788618E-1,5.9733033E-1,6.363519E-1,-3.55565E-2,1.6157744E-2,5.507396E-1,1.5E0,6.725576E-1,7.4670404E-2,6.4480067E-3,-8.600142E-2,-2.8721383E-2,1.688448E-3,8.995826E-2,-5.478226E-2,2.2638349E-2],"split_indices":[1,1,1,3,0,1,0,0,0,1,3,3,0,0,2,5,2,0,0,0,0,0,0,0,0],"split_type":[0,0,0,0,0,0,0,0,0,0,0,0,0,0,0,0,0,0,0,0,0,0,0,0,0],"sum_hessian":[2.2237423E1,1.4762223E1,7.4752E0,4.9909725E0,9.771251E0,4.676315E0,2.7988853E0,2.36665E0,2.6243224E0,3.9469047E0,5.8243456E0,3.2734823E0,1.4028323E0,1.1218958E0,2.8250089E0,2.854943E0,2.9694026E0,1.8275445E0,1.4459379E0,1.0454073E0,1.7796016E0,1.0558482E0,1.7990948E0,1.6880721E0,1.2813306E0],"tree_param":{"num_deleted":"0","num_feature":"8","num_nodes":"25","size_leaf_vector":"0"}},{"base_weights":[1.1078531E-2,-5.0592005E-1,2.942169E-1,-5.986157E-1,-8.01534E-2,5.0270226E-2,7.051202E-1,-8.7297726E-1,-2.678107E-1,1.8396899E-1,-5.464546E-1,7.7614844E-1,1.953885E-1,1.3273193E-1,-6.803596E-1,-1.0242892E-1,6.20479E-1,-9.6753895E-2,2.9588678E-1,1.915765E-1,-4.5104146E-1,4.8168734E-2,8.407465E-1],"categories":[],"categories_nodes":[],"categories_segments":[],"categories_sizes":[],"default_left":[1,1,1,1,0,1,1,0,1,1,0,0,0,1,0,1,1,0,0,0,0,0,0],"id":22,"left_children":[1,3,5,7,-1,9,11,-1,13,15,-1,-1,-1,17,-1,19,21,-1,-1,-1,-1,-1,-1],"loss_changes":[3.4650922E0,2.829218E-1,1.4952292E0,3.7708855E-1,0E0,9.5088476E-1,5.152607E-2,0E0,8.329117E-1,1.2456665E0,0E0,0E0,0E0,1.4533195E-1,0E0,7.5958E-1,4.496045E-1,0E0,0E0,0E0,0E0,0E0,0E0],"parents":[2147483647,0,0,1,1,2,2,3,3,5,5,6,6,8,8,9,9,13,13,15,15,16,16],"right_children":[2,4,6,8,-1,10,12,-1,14,16,-1,-1,-1,18,-1,20,22,-1,-1,-1,-1,-1,-1],"split_conditions":[8.8319063E-1,6.288029E-1,9.757923E-1,5.5516267E-1,-8.01534E-3,8.1341577E-1,6.124043E-1,-8.729773E-2,6.0478723E-1,5.8258915E-1,-5.464546E-2,7.7614844E-2,1.953885E-2,8.3309495E-1,-6.803596E-2,6.052778E-1,9.2874706E-1,-9.67539E-3,2.9588679E-2,1.915765E-2,-4.5104146E-2,4.8168735E-3,8.407465E-2],"split_indices":[1,2,0,3,0,3,2,0,3,2,0,0,0,1,0,3,1,0,0,0,0,0,0],"split_type":[0,0,0,0,0,0,0,0,0,0,0,0,0,0,0,0,0,0,0,0,0,0,0],"sum_hessian":[2.1654692E1,7.3843513E0,1.427034E1,5.7307177E0,1.6536331E0,9.658553E0,4.611787E0,2.2367034E0,3.4940145E0,8.455716E0,1.2028372E0,3.5890167E0,1.0227702E0,2.1169434E0,1.377071E0,5.5679092E0,2.887807E0,1.0487721E0,1.0681714E0,3.2648933E0,2.303016E0,1.1412463E0,1.7465606E0],"tree_param":{"num_deleted":"0","num_feature":"8","num_nodes":"23","size_leaf_vector":"0"}},{"base_weights":[8.592846E-3,-2.5862065E-1,5.1173776E-1,-5.464529E-1,-3.2710463E-2,2.1938407E-1,8.22714E-1,-7.446233E-2,-8.3641183E-1,1.3554747E-1,-4.492754E-1,5.593086E-1,-2.759644E-1,-3.311832E-1,2.9564255E-1,-3.9673087E-1,3.7746432E-1,7.008358E-1,9.738374E-2,8.3172846E-1,-7.2886124E-2],"categories":[],"categories_nodes":[],"categories_segments":[],"categories_sizes":[],"default_left":[1,1,1,1,1,1,0,1,0,1,0,1,0,0,0,0,1,0,0,0,0],"id":23,"left_children":[1,3,5,7,9,11,-1,13,-1,15,-1,17,-1,-1,-1,-1,19,-1,-1,-1,-1],"loss_changes":[3.1073623E0,9.6507215E-1,5.478444E-1,8.387401E-1,7.290693E-1,1.0792391E0,0E0,4.4025716E-1,0E0,1.1230388E0,0E0,1.6630554E-1,0E0,0E0,0E0,0E0,1.2285788E0,0E0,0E0,0E0,0E0],"parents":[2147483647,0,0,1,1,2,2,3,3,4,4,5,5,7,7,9,9,11,11,16,16],"right_children":[2,4,6,8,10,12,-1,14,-1,16,-1,18,-1,-1,-1,-1,20,-1,-1,-1,-1],"split_conditions":[9.302852E-1,8.719992E-1,9.5111835E-1,5.6089425E-1,9.2202383E-1,6.363519E-1,8.22714E-2,7.944342E-1,-8.364119E-2,5E-1,-4.492754E-2,9.447225E-1,-2.7596442E-2,-3.311832E-2,2.9564256E-2,-3.9673086E-2,6.025491E-1,7.008358E-2,9.738374E-3,8.317285E-2,-7.2886124E-3],"split_indices":[1,1,1,3,1,3,0,1,0,5,0,1,0,0,0,0,3,0,0,0,0],"split_type":[0,0,0,0,0,0,0,0,0,0,0,0,0,0,0,0,0,0,0,0,0],"sum_hessian":[2.112778E1,1.4116624E1,7.011157E0,5.5836277E0,8.532996E0,4.492838E0,2.5183196E0,2.6031175E0,2.9805102E0,6.5585065E0,1.9744898E0,2.587849E0,1.9049888E0,1.5990858E0,1.0040317E0,1.8494035E0,4.709103E0,1.585015E0,1.0028338E0,1.9227731E0,2.78633E0],"tree_param":{"num_deleted":"0","num_feature":"8","num_nodes":"21","size_leaf_vector":"0"}},{"base_weights":[9.906058E-3,-2.4508E-1,4.9270386E-1,-5.0238675E-1,-3.7487776E-3,2.1044254E-1,8.006988E-1,-1.7414145E-1,-6.4245224E-1,-4.4993058E-1,3.5289076E-1,5.39834E-1,-2.566838E-1,-3.6544153E-1,1.4082827E-1,-7.2659373E-1,-1.7233557E-1,1.0851014E-1,-7.305164E-1,6.516341E-1,-3.051934E-2,1.05201505E-1,6.8162924E-1,3.2228065E-1,-4.187607E-1],"categories":[],"categories_nodes":[],"categories_segments":[],"categories_sizes":[],"default_left":[1,1,1,1,1,1,0,1,1,1,1,1,0,0,0,0,0,0,0,0,1,0,0,0,0],"id":24,"left_children":[1,3,5,7,9,11,-1,13,15,17,19,21,-1,-1,-1,-1,-1,-1,-1,-1,23,-1,-1,-1,-1],"loss_changes":[2.773961E0,9.153567E-1,5.079253E-1,2.164588E-1,1.5320002E0,9.719976E-1,0E0,2.6282114E-1,5.807519E-2,7.4883795E-1,6.3343763E-1,1.4392173E-1,0E0,0E0,0E0,0E0,0E0,0E0,0E0,0E0,5.8711976E-1,0E0,0E0,0E0,0E0],"parents":[2147483647,0,0,1,1,2,2,3,3,4,4,5,5,7,7,8,8,9,9,10,10,11,11,20,20],"right_children":[2,4,6,8,10,12,-1,14,16,18,20,22,-1,-1,-1,-1,-1,-1,-1,-1,24,-1,-1,-1,-1],"split_conditions":[9.302852E-1,9.5134676E-1,9.5111835E-1,5E-1,8.8319063E-1,6.363519E-1,8.0069885E-2,5.9771633E-1,3.45E1,5.6089425E-1,5.658446E-1,5.984762E-1,-2.566838E-2,-3.6544155E-2,1.4082827E-2,-7.265937E-2,-1.7233556E-2,1.08510135E-2,-7.305164E-2,6.516341E-2,9.209292E-1,1.0520151E-2,6.8162926E-2,3.2228064E-2,-4.187607E-2],"split_indices":[1,0,1,5,1,3,0,3,5,3,2,3,0,0,0,0,0,0,0,0,1,0,0,0,0],"split_type":[0,0,0,0,0,0,0,0,0,0,0,0,0,0,0,0,0,0,0,0,0,0,0,0,0],"sum_hessian":[2.0552113E1,1.3771286E1,6.780826E0,6.1415005E0,7.629785E0,4.4165525E0,2.3642735E0,2.5077772E0,3.6337235E0,3.2731965E0,4.3565884E0,2.4988525E0,1.9177003E0,1.4604901E0,1.0472871E0,2.6193514E0,1.0143721E0,1.2997065E0,1.97349E0,2.0554557E0,2.301133E0,1.0431874E0,1.455665E0,1.2946048E0,1.0065281E0],"tree_param":{"num_deleted":"0","num_feature":"8","num_nodes":"25","size_leaf_vector":"0"}}]},"name":"gbtree"},"learner_model_param":{"base_score":"5E-1","num_class":"0","num_feature":"8","num_target":"1"},"objective":{"name":"binary:logistic","reg_loss_param":{"scale_pos_weight":"1"}}},"version":[1,6,2]}